59 32
58 -0.026138298 0.22646287 0.029048197 0.13743795 -0.07462394 -0.0037962652 -0.09335192 0.10254404 0.15746702 0.33363774 -0.23164307 -0.0055099227 -0.023245098 0.40599176 -0.0033750117 -0.047957316 0.314884 -0.119922794 -0.024250958 -0.08443207 0.09438084 0.2894174 -0.36257502 0.036099326 0.2484006 0.12991613 -0.055223472 -0.10025042 0.17808527 0.2902188 0.017017962 0.11300216
57 -0.063127466 0.24205798 0.03482615 0.15105405 -0.079548165 0.022448512 -0.09120934 0.22173963 0.16428147 0.27653286 -0.25146726 -0.057301 -0.008057825 0.42573807 -0.019565664 -0.011828198 0.32877573 -0.07972726 0.018708369 -0.09028396 0.051031165 0.30354887 -0.31586352 0.00048582826 0.17484304 0.07285358 -0.039200533 -0.10496152 0.18993142 0.36651543 -0.020369682 0.10773019
50 0.10771187 0.27985743 0.07943185 0.10836102 0.092443846 0.058199193 -0.060530208 0.040102776 0.26265883 0.22539224 0.012018593 0.108308285 -0.061408594 0.4457753 -0.040434916 -0.120720126 0.34638622 -0.25895533 -0.009381408 -0.19205113 0.06486997 0.3005323 -0.26279497 0.003969457 0.3737232 0.08990351 -0.14272475 -0.06893551 -0.012589611 0.21639286 0.0144559685 0.041149653
59 0.09509966 0.22472847 0.06369612 0.10787128 0.045168594 0.062256314 -0.14661191 -0.004673435 0.23331895 0.23245062 -0.025517678 0.06880356 -0.07456254 0.38513488 -0.12614688 -0.059626494 0.3710913 -0.25086018 -0.017851096 -0.17993416 0.07671757 0.271238 -0.2199758 0.075013585 0.49736625 0.08071885 -0.06354045 -0.09793141 -0.009929406 0.24896297 -0.012075114 0.051653903
34 0.09357292 0.17498101 0.03508646 0.19610462 -0.018184224 0.08546959 -0.0663588 0.17866422 0.09085998 0.32535827 -0.12287632 -0.038616218 -0.034265995 0.40782514 -0.17723258 0.04734909 0.28262302 -0.103784576 -0.045254003 -0.056425385 0.007429963 0.24124335 -0.32667473 0.11092691 0.41386384 0.17401557 -0.0730974 -0.065252595 0.12207735 0.34194607 -0.078007065 0.09463037
5 0.14328033 0.21354109 0.028653972 0.10875113 0.027341587 0.043140654 -0.105498776 0.10102493 0.17035936 0.20874704 -0.10016708 0.07122536 -0.010702459 0.38536397 -0.025115827 -0.031751204 0.31033254 -0.24862605 -0.07841904 -0.18284024 0.13224228 0.29905924 -0.20728847 0.15494053 0.49650285 0.02730206 -0.16605873 -0.10711071 -0.09845731 0.32663533 0.04552055 0.08215427
7 0.10382487 0.21402346 0.0327518 0.19288899 -0.010120001 0.08662244 -0.092753515 0.22190006 0.10411638 0.2789346 -0.18948312 -0.07397188 0.04720537 0.40764308 -0.17983872 0.02774671 0.25895733 -0.14443076 -0.07283556 -0.0789646 -0.004388351 0.22763771 -0.3319659 0.142789 0.3586397 0.10022417 -0.05285689 -0.11810103 0.115371525 0.35963297 -0.0342207 0.107979216
6 0.14201584 0.23834284 0.0226739 0.10926246 0.0499994 0.057649035 -0.07118589 0.06585181 0.16734591 0.25931662 -0.118112005 0.007372903 0.0061242287 0.3979427 -0.10192606 -0.10159192 0.2864734 -0.16995504 -0.05387809 -0.15063955 0.11809686 0.32205915 -0.2305392 0.13368388 0.4195216 0.067138776 -0.120582946 -0.12712452 0.021800004 0.32649493 0.0903986 0.06737688
31 -0.084478006 0.18219829 0.09161653 0.120151415 0.027384767 -0.0053215227 -0.065972745 0.18166585 0.26892063 0.289334 -0.1803812 0.0014999225 0.031457186 0.4064536 0.08530835 -0.15252219 0.30119044 -0.098311245 0.094017476 -0.15939938 0.2149427 0.41463864 -0.2277596 -0.009477189 0.18273225 0.016999368 -0.12709798 -0.07571549 0.11056361 0.38698727 0.1245465 0.042909984
37 0.06573089 0.24467415 0.06237099 0.19020268 0.099389456 0.013572727 -0.124822706 0.19633555 0.28020892 0.20113124 -0.014166043 0.01200966 -0.06939225 0.37624842 -0.10338624 -0.033892073 0.27932167 -0.17966345 0.03464521 -0.18412837 0.038238052 0.32873327 -0.21979043 0.061318375 0.34123656 0.084292784 -0.098477654 -0.065619245 0.039919756 0.3887505 -0.07164799 -0.032818522
13 -0.08180608 0.21832289 0.031182326 0.16186285 -0.001538492 0.04129142 -0.13474172 0.17413637 0.20577016 0.3115128 -0.1742923 0.00091977627 -0.010817131 0.37846258 0.012982321 0.056999866 0.43548527 -0.03884814 0.0029895373 -0.09090849 0.09146331 0.3300007 -0.32151413 0.015503498 0.23715714 0.024451578 -0.09142653 -0.08217738 0.16669479 0.31925777 -0.02858134 0.028043514
32 0.07006199 0.2718341 0.015390944 0.1688544 0.06347681 0.031099632 -0.09090574 0.119511195 0.19942977 0.25645828 -0.07250047 0.03462676 -0.036401268 0.3315649 -0.19303504 -0.019047065 0.27093127 -0.15775692 -0.024185095 -0.19399674 0.04912 0.2941765 -0.22701962 0.19692968 0.4791561 0.14004517 -0.084156774 -0.11699674 0.025973093 0.33096352 0.0147284735 0.05740099
8 0.06396702 0.26475894 0.027399829 0.12718287 0.056708418 0.118548356 -0.11189269 0.16922031 0.2151537 0.23373656 -0.024233405 0.043659408 -0.033357665 0.40725952 -0.05573935 -0.017017605 0.3418995 -0.16359055 0.035149243 -0.14374775 0.091741346 0.3656222 -0.19057103 -0.020487744 0.38141426 0.051376287 -0.106113315 -0.09173611 0.06026615 0.3341356 -0.075339705 -0.037850376
39 -0.10010064 0.14088222 0.054202754 0.13618913 -0.20157437 0.022048326 -0.08313907 0.23897089 0.2346254 0.3099753 -0.20602308 -0.011399699 -0.05358655 0.2801834 0.11501355 0.0783864 0.46607113 -0.07883227 -0.04069169 -0.034477975 0.17655545 0.41840217 -0.38353944 0.010860744 0.22973508 0.13139598 -0.06259611 -0.115087874 0.17509572 0.22918226 -0.08234042 0.09819554
9 -0.12932925 0.2242519 0.008934766 0.20570824 0.08645545 0.057256754 -0.16450098 0.16439313 0.18666057 0.27758667 -0.26462507 -0.03749583 -0.08284932 0.44680288 -0.05194575 0.06762514 0.37590575 -0.051211096 0.046582904 -0.04059151 0.022204168 0.29339626 -0.41340882 0.0640819 0.1960811 0.1014603 -0.06414164 0.060998704 0.24509299 0.30061793 -0.10770033 0.026303278
48 -0.17117737 0.12644425 0.036467955 0.11544129 -0.19964416 0.04014857 -0.10936213 0.20983753 0.24476872 0.33365688 -0.2194782 0.004429222 -0.053006124 0.38038942 0.16466059 0.06680941 0.4819663 -0.11409651 0.001293226 -0.0073320563 0.19502743 0.39639583 -0.35844323 -0.05192819 0.17793725 0.0501946 -0.09971996 -0.017362002 0.13451405 0.24679238 -0.1079915 0.06011956
21 -0.16397528 0.3194968 0.03696501 0.112567455 0.029304067 0.02597916 -0.14960389 0.22687134 0.28327817 0.2512282 -0.15052934 -0.017056905 -0.021662202 0.3974798 0.045807395 -0.02988439 0.33605212 -0.07078066 0.04210219 -0.11948995 0.065920085 0.36413428 -0.26643005 -0.09457636 0.18421708 -0.005932196 -0.122103296 -0.086256035 0.12001355 0.37052336 -0.13457517 0.01992462
45 -0.10522401 0.15646358 -0.004767251 0.18611886 -0.14909235 0.060587324 -0.08880935 0.2720184 0.21926123 0.3374455 -0.22521001 -0.015189505 -0.053644236 0.33705124 0.13669698 0.08540065 0.4101911 -0.07349915 -0.056165643 -0.013855127 0.18921149 0.45923004 -0.36828586 -0.028606374 0.14487489 0.116075106 -0.13834499 -0.05860311 0.19892721 0.2534708 -0.071315885 0.060906816
47 0.0075291903 0.25314912 -0.012600285 0.06734451 -0.040899143 0.05133631 0.0043922435 0.03696797 0.06868169 0.30169657 -0.3421853 -0.0090805 0.0015110491 0.3634011 -0.045062087 0.029262405 0.41574115 -0.097358234 -0.13580862 -0.00578248 0.05789141 0.35090527 -0.3992557 0.11337616 0.34633383 0.12490981 -0.10798211 -0.11245837 0.11648558 0.2128909 0.025866775 0.19340628
38 -0.0033112527 0.26380965 -0.07518902 0.1399191 -0.05509847 0.06230795 -0.04959716 0.15597801 0.10621212 0.35589552 -0.27786556 -0.00621024 0.01916212 0.33047962 0.04598043 0.02774077 0.3831064 -0.068274446 -0.08455216 -0.07084226 0.1177159 0.3539302 -0.3708013 0.010126038 0.25041038 0.10979539 -0.117615275 -0.1734843 0.17487907 0.2438977 0.03795616 0.15890704
19 -0.061888006 0.30191746 0.05196057 0.14441259 0.040165924 -0.0068236897 -0.117832124 0.027313793 0.2742388 0.19241007 -0.07859012 0.096227616 -0.10721814 0.28711942 0.1334899 0.038197845 0.43471354 -0.20909138 0.0016005533 -0.13567373 0.07885773 0.45576087 -0.34537888 -0.029734962 0.30809137 0.05208352 -0.09721375 -0.069499925 0.06784227 0.23646794 -0.03463807 0.001383137
18 0.023831842 0.36398113 -0.06395941 0.12377593 0.091256656 0.02190284 0.0161631 0.04260115 0.14962497 0.2539091 -0.17506953 0.09375379 -0.005576782 0.34711048 0.0036645308 -0.035564017 0.37416655 -0.13630487 -0.10717717 -0.10843729 0.024812035 0.32491243 -0.3483388 0.0014569579 0.3698038 0.11313338 -0.12424521 -0.13700403 0.09143986 0.2564922 -0.00800927 0.07323272
55 -0.03295355 0.3756967 -0.026100505 0.17541488 0.13040902 0.009064758 -0.060918193 0.10322834 0.14739013 0.26097086 -0.11933365 0.032926805 -0.017670823 0.44405195 -0.06953593 -0.14802451 0.3316646 -0.06765802 -0.007004003 -0.13122912 0.027287995 0.31300354 -0.2530185 -0.059209954 0.2463589 0.00018958584 -0.13434815 -0.14564586 0.08390224 0.38092119 -0.041950345 0.005133639
26 0.02136212 0.41166463 0.040597435 0.13971621 0.2547032 0.08184844 -0.09471234 0.03202559 0.25986174 0.13237381 -0.011115497 0.06384505 -0.104029216 0.44334263 -0.18199503 -0.04605838 0.32234526 -0.19421601 -0.0021543305 -0.21714967 -0.065440394 0.28659433 -0.20084871 0.050095174 0.448353 -0.02259163 -0.15457082 -0.0448545 -0.026210526 0.3422484 -0.08910896 -0.067478605
28 0.054654233 0.34077597 0.06615826 0.15332243 0.17451136 0.09619258 -0.12238859 0.04185421 0.25970212 0.2295436 -0.0432519 0.048147764 -0.06261008 0.4139253 -0.19261895 -0.01015317 0.3291535 -0.19215363 0.005225522 -0.08923056 -0.05231078 0.26574153 -0.30955437 0.0537551 0.4269386 0.13027295 -0.04313998 -0.07421117 0.10244925 0.20239878 -0.033141743 -0.013064163
10 0.06650678 0.19024196 0.08246537 0.07987113 -0.016214285 -0.035691876 -0.09965425 0.045927167 0.30086756 0.25977108 -0.03781455 0.08080022 0.054028478 0.33387026 -0.074925765 -0.09904254 0.3179213 -0.25352767 0.0063957092 -0.19267844 0.06301171 0.25096166 -0.2811724 0.068546645 0.3878216 0.16418725 -0.03812614 -0.1725019 0.033990428 0.2839243 -0.034313444 0.11003353
25 -0.0661937 0.43493122 0.019881861 0.16713066 0.14780515 0.09304511 -0.1321593 0.10106447 0.18948951 0.21062551 0.032114737 0.014756073 -0.14381568 0.4700339 -0.15018407 -0.09620957 0.31025505 -0.10707161 0.008147149 -0.14068827 -0.06341772 0.321602 -0.2610987 -0.039540034 0.36345398 -0.04505332 -0.1232325 -0.019247485 0.037621688 0.3179457 -0.10841251 -0.047004573
24 0.06648669 0.3415153 0.018795665 0.11871257 0.13739716 0.063552015 -0.065151826 0.041792538 0.25927022 0.19681701 -0.05385922 0.012870237 -0.028885672 0.35729167 -0.07594805 -0.03243841 0.34693444 -0.18030812 -0.040564142 -0.21858475 -0.015254021 0.33154073 -0.30906543 0.11305727 0.37388355 0.061161548 -0.14342901 -0.07904283 0.043930992 0.26343152 0.03218787 0.0062709223
56 0.1323372 0.2424357 0.170087 0.011404821 -0.050465252 0.0037366506 -0.05246371 0.16487205 0.27261 0.24294688 0.021937776 0.0006540897 -0.016313747 0.44594592 -0.09958042 -0.16060251 0.2576699 -0.24482705 0.080853045 -0.24041793 0.04884144 0.18923002 -0.2175598 0.07356364 0.36443195 0.14085707 -0.0791887 -0.20726685 0.064955905 0.2603341 -0.03176124 0.11675428
49 -0.010397178 0.15787376 0.11736059 0.04987206 -0.11362371 -0.087339304 -0.09628379 0.15619238 0.27673706 0.27837327 -0.126082 0.033408917 0.06339307 0.37723884 0.0068018213 -0.11880721 0.31295928 -0.20585783 -0.017816024 -0.22098999 0.12692958 0.21038146 -0.27961555 0.08785635 0.30253872 0.08184394 -0.00078761915 -0.15868202 0.06793884 0.34495157 -0.036161777 0.12483303
51 0.08025173 0.16213533 0.13233007 0.13915427 -0.019172681 0.028850194 -0.0480443 0.15865083 0.271221 0.3329955 0.008461896 -0.012339672 0.05704098 0.45010614 -0.050001297 -0.16617042 0.27467605 -0.10391646 0.05688109 -0.2077574 0.080250815 0.24994962 -0.24869952 -0.057867732 0.18904275 0.0580454 -0.049470704 -0.18025182 0.13590099 0.4220918 0.028836634 0.043750174
41 0.12980844 0.22463492 0.13417101 0.09926772 -0.004423477 0.010432254 -0.13187626 0.034631167 0.26666182 0.20394412 -0.024377374 0.094385244 0.035477772 0.36319906 -0.19371939 -0.0926387 0.33218244 -0.32640404 -0.0080074165 -0.18627213 0.0056680143 0.23042281 -0.20328693 0.1497647 0.48995015 0.1895399 -0.031169202 -0.16708289 -0.051296543 0.23659132 -0.018053165 0.15091956
29 0.13776751 0.44625518 0.085599735 0.19031452 0.17411605 0.09037632 -0.056501556 0.1006794 0.28914374 0.19453771 0.09807147 0.05425475 -0.05649173 0.3604783 -0.1381779 -0.10232396 0.3179781 -0.20748986 0.00031646652 -0.16376144 -0.09406938 0.303434 -0.2093475 -0.053991906 0.38440245 0.036145955 -0.1556722 -0.14121325 -0.021773387 0.30772132 -0.08187101 -0.050515313
42 0.13587148 0.1845047 0.14120056 0.1294357 -0.0037600186 0.07913485 0.023591932 0.17984265 0.24989976 0.35088325 0.005089427 -0.038104378 0.08904076 0.40188175 -0.035795145 -0.16877966 0.2359852 -0.12605356 0.028081631 -0.22544946 0.020412935 0.19732179 -0.3247653 -0.0123989815 0.22698066 0.10602727 -0.09271631 -0.2422804 0.09440785 0.3959699 -0.033041995 0.06967774
11 0.07860032 0.18480301 0.20958947 0.04802764 -0.097138636 -0.05010405 -0.12595494 0.050049808 0.2649949 0.24883312 -0.014395976 0.06418646 0.04813119 0.38169497 -0.05647142 -0.11410386 0.30789134 -0.26517433 0.045192946 -0.17333028 0.012379093 0.18947694 -0.33197358 0.05893793 0.35401082 0.18698668 -0.043595295 -0.19320057 0.067204416 0.2607438 -0.044535525 0.15975711
43 0.13306549 0.27389577 0.121752344 0.13194267 0.039561413 0.06885211 -0.0022450108 0.12084651 0.26244834 0.33092096 0.016144063 -0.055813614 0.11131671 0.46848568 -0.1411368 -0.20508507 0.19452983 -0.16012621 0.03326273 -0.19157949 0.041872278 0.22967163 -0.22731745 -0.023554182 0.26761964 0.074788906 -0.069074355 -0.22136691 0.12341033 0.33361506 0.03616961 0.075654685
53 0.033812147 0.2867886 0.11300078 0.12980562 -0.010293801 -0.0090129925 -0.13519536 0.072359934 0.2782678 0.1820304 -0.020779986 0.14452316 -0.08313485 0.27074483 0.018512256 -0.012361384 0.46177176 -0.24247237 -0.043333404 -0.12402745 0.1498372 0.4311652 -0.19344571 0.02050773 0.40117216 0.034164947 -0.12558235 -0.106749944 -0.06371153 0.26512337 0.05157504 0.019076208
52 0.124020636 0.34197682 -0.05321858 0.082612276 0.06959966 0.06727843 0.004451779 0.0128687 0.11556304 0.25293195 -0.14575355 0.0843514 -0.07454287 0.40404785 -0.12897323 -0.08518974 0.33521456 -0.2455352 -0.12597047 -0.076221876 0.087920204 0.29643482 -0.2907448 0.12552966 0.5047479 0.15939994 -0.17384213 -0.123367086 -0.025732972 0.14117512 0.10290916 0.113872774
16 0.16456622 0.12408068 0.14842604 0.057382677 -0.07769414 0.0014338337 -0.06231112 0.10781416 0.2721465 0.23530048 -0.102233306 0.0038210494 0.041118886 0.34110203 -0.06933952 -0.025452798 0.36648446 -0.238314 0.008990048 -0.20492263 0.03284161 0.19599022 -0.36011004 0.15046847 0.34553134 0.22127266 -0.0012349238 -0.20816773 0.051823877 0.24415079 -0.071167886 0.1845273
17 0.060686905 0.28342122 0.18447532 0.049874194 0.026836034 0.04087702 -0.093389556 -0.02702879 0.36786252 0.27754343 0.096323736 0.06882627 -0.034361113 0.4046419 -0.12669347 -0.14996836 0.26514494 -0.30156627 0.06852932 -0.28968072 0.04265188 0.20419413 -0.31324163 0.073298104 0.34623277 0.11261251 -0.0072773313 -0.12619062 0.04427113 0.21942155 -0.0023128442 0.05470609
54 0.113833405 0.16461436 0.18203183 0.08964219 -0.059877276 0.07790091 -0.069016874 0.14046173 0.28412235 0.2820494 0.07369041 -0.032203868 0.024483299 0.45769542 -0.05350164 -0.17050104 0.2911886 -0.2400708 0.08376965 -0.22777916 0.06777686 0.19063485 -0.2719378 0.0032106854 0.26109692 0.06580851 -0.038063396 -0.17617248 0.07065496 0.33748317 -0.0008711322 0.0664963
20 0.14707217 0.18233424 0.12933548 0.074586 -0.082806416 0.023232933 -0.047482647 0.13068524 0.28060424 0.31932318 0.021352341 -0.01748644 0.057327524 0.45120192 -0.058107443 -0.1865257 0.27358603 -0.2466042 0.018691983 -0.24223782 0.056936692 0.14103487 -0.28539222 -0.043223463 0.25061747 0.052917153 -0.0042805844 -0.22127526 0.0789381 0.3504756 -0.05620346 0.08703737
15 0.15155683 0.22684582 0.21133995 0.011263885 -0.09311431 -0.053429086 -0.07913795 0.05906193 0.23566225 0.23774056 0.018844193 0.011052001 0.004939012 0.37860733 -0.07538275 -0.086583234 0.35792667 -0.28137913 0.004009802 -0.19021535 0.028445192 0.22930321 -0.26999724 0.09594708 0.3806007 0.115879826 -0.0069939652 -0.20518814 0.016439058 0.26030937 0.019827124 0.17063394
44 0.07474846 0.26243255 -0.06853552 0.09890062 -0.021354511 -0.034338262 0.057140816 0.023034668 0.12779935 0.30188158 -0.32544133 0.10912293 0.12713605 0.2954725 0.1097769 -0.052091997 0.3926873 -0.12425501 -0.14643204 -0.04138474 0.123861335 0.403484 -0.3589711 0.029045478 0.2954759 0.17942232 -0.15013961 -0.22742875 0.13575669 0.23517273 0.1460003 0.16939455
27 0.06486185 0.25221893 0.15268508 0.03312526 -0.021810008 0.07400954 -0.049524855 0.10679783 0.26002195 0.2492026 0.0012253352 -0.011986476 -0.014846334 0.4866791 -0.17050073 -0.11271625 0.2913498 -0.2378808 0.05497179 -0.17174464 0.023337152 0.23607269 -0.23803419 0.11719323 0.37155935 0.12834488 -0.030778335 -0.07546718 0.1018403 0.2274675 -0.003333957 0.09823237
23 0.013480925 0.32609662 0.07374164 0.13405383 0.20322043 0.050419055 -0.11819523 -0.027824853 0.22169213 0.16507377 -0.06474739 0.07841561 -0.058553804 0.42483544 -0.09931092 -0.05439326 0.3802324 -0.16262646 0.019421604 -0.14318813 -0.08640731 0.28478986 -0.34107035 0.084633276 0.4491031 0.08134969 -0.1287902 -0.019819038 0.037135817 0.2492842 -0.0060445 -0.016328594
22 0.11839081 0.31531465 0.1862361 0.054743756 -0.006290652 -0.024081422 -0.0595143 0.1490624 0.2318465 0.24406388 -0.059473563 0.0095459055 0.025075516 0.40974626 -0.18645471 -0.097448006 0.2585949 -0.26885775 0.015505523 -0.12962827 -0.041301657 0.18049571 -0.28871182 0.04774066 0.32597107 0.18454914 0.012620447 -0.18773775 0.13922538 0.24852572 -0.041342136 0.19318004
14 0.094994515 0.2302351 0.15627702 0.038331915 -0.019520763 -0.048964158 -0.06993844 0.08801183 0.2986224 0.23879787 -0.073284686 0.04318093 0.09338925 0.35664082 -0.1160036 -0.090036914 0.328937 -0.24175294 0.017245049 -0.27447206 -0.002098618 0.20443489 -0.24501534 0.07018813 0.33066234 0.10067968 -0.0043214858 -0.22338797 0.0378574 0.312586 0.031496085 0.15973872
40 0.095564544 0.20221515 0.090335526 0.03145767 -0.060929272 -0.05955501 -0.07062947 0.11708651 0.16662739 0.27301523 -0.1448391 0.0665246 0.05061763 0.39317885 -0.089767255 -0.13497481 0.31154105 -0.20946921 -0.013932393 -0.21309084 0.08423464 0.16529503 -0.2603361 0.049239114 0.35052666 0.12911567 -0.003328747 -0.24079904 0.074901015 0.33351746 0.085314214 0.18790889
12 0.048034284 0.2552739 0.20601252 0.041606553 0.013040344 0.010513785 -0.11584948 0.051122643 0.2835622 0.21903063 0.0066085705 -0.02432844 -0.020161815 0.5122838 -0.09606427 -0.16820481 0.22621372 -0.28511605 0.09661928 -0.25692523 0.01835381 0.16714531 -0.2966135 0.03946619 0.30237558 0.006444901 0.014536069 -0.10080132 0.11598517 0.30354762 -0.046146132 0.1040578
30 0.09877496 0.24578646 0.17160645 0.057952255 -0.09122541 -0.0417972 -0.06791403 0.10976527 0.2453082 0.2820764 -0.04250081 -0.005445948 0.0125646265 0.4373213 -0.08837192 -0.16692087 0.23543164 -0.26586905 0.060403846 -0.15433924 0.013882532 0.17600551 -0.25238076 0.026638325 0.36619177 0.1251545 -0.05460653 -0.17958394 0.095188 0.29178616 0.027032237 0.12387812
35 0.14972441 0.10718826 0.031756498 0.18332168 -0.2489811 0.06625782 -0.084825926 0.28215224 0.110501006 0.37306195 -0.25848496 -0.07509993 0.12644036 0.26837692 -0.15570381 0.11183378 0.30912337 -0.071254775 -0.117504664 -0.11426474 -0.06470408 0.13842233 -0.43509427 0.026363604 0.21494626 0.27331004 0.07121216 -0.2545566 0.24893871 0.43987852 -0.07335206 0.32149318
3 -0.17837715 0.059216395 0.1316803 0.03102529 -0.40864345 -0.20825107 -0.12070599 0.40934816 0.30958155 0.34612212 -0.26183414 -0.08361356 0.034630213 0.35793382 0.4281519 -0.10214365 0.33919945 -0.17875835 0.015830036 -0.1591617 0.37258095 0.32576337 -0.44336572 -0.12681162 -0.06388826 -0.06664094 0.055599716 -0.14379048 0.2739568 0.43083084 0.008998619 0.18922362
2 -0.18419312 0.1881391 0.11366897 0.07325124 -0.19500287 -0.13389747 -0.06680844 0.3193882 0.27540565 0.38610914 -0.20127326 -0.09902697 0.026982732 0.47914386 0.358193 -0.17883673 0.2687717 -0.1292419 0.065880306 -0.14543444 0.3118419 0.3063608 -0.4108934 -0.15610874 -0.009798407 -0.109977506 -0.028010726 -0.09638402 0.32646248 0.32876992 0.02788764 0.07461771
46 0.054573603 0.19500452 0.2208059 0.08430034 0.21158604 0.04021555 -0.29476553 -0.070801035 0.41991144 0.10696965 0.20348842 0.123700395 -0.18297535 0.5938143 -0.2664803 -0.17102781 0.22804998 -0.37316528 0.25404856 -0.4829293 0.11195241 0.12938678 -0.15270802 0.17969732 0.5143839 0.042905387 -0.039530363 0.13552243 -0.066766895 0.33396587 -0.115561165 -0.1181837
1 -0.13464387 0.10949388 0.1955848 0.10568375 -0.34233674 -0.18559228 -0.08565766 0.45489725 0.36106128 0.3395104 -0.23322955 -0.065412536 0.12091117 0.36404654 0.4839212 -0.09251858 0.3627571 -0.18991132 0.08616727 -0.08777288 0.32587984 0.35648507 -0.35760736 -0.24915211 -0.13300608 -0.07775912 0.030661881 -0.1990493 0.33960843 0.42759964 -0.024799764 0.15840459
33 0.13581945 0.04030255 0.08912829 0.24074908 -0.38804018 0.080686145 -0.011782733 0.4025416 -0.023161033 0.509057 -0.3411225 -0.158045 0.15056932 0.28038222 -0.1879643 0.2137134 0.29040492 0.050005134 -0.20488474 0.15062949 -0.13700134 0.1886473 -0.57707256 0.03674739 0.14434937 0.335768 0.16976205 -0.2660693 0.45911032 0.43733075 -0.09596351 0.40650147
36 0.10524697 0.095845126 0.14276993 0.21316339 -0.3043869 0.03533914 -0.064270236 0.4083379 0.08991119 0.3996814 -0.3038779 -0.19090325 0.17071368 0.32148924 -0.14398678 0.10925084 0.22708645 -0.020265555 -0.14069594 -0.045270614 -0.12443593 0.101464495 -0.5238818 0.05393033 0.11718372 0.21557862 0.16642712 -0.21929498 0.39845952 0.48316368 -0.10876669 0.34855834
4 -0.2122464 0.14938763 0.13229273 0.14810148 -0.32554096 -0.14852802 -0.066083185 0.50395584 0.3749157 0.34902427 -0.17535795 -0.13179608 0.060347266 0.42205608 0.5286448 -0.12289852 0.3839021 -0.071225524 0.08154332 -0.101199076 0.32359463 0.43416926 -0.44309098 -0.2556586 -0.24598847 -0.120164074 -0.0369041 -0.09979212 0.4183677 0.4015457 -0.051806606 -0.009404222
