8371 32
4802 0.61707586 0.5396932 -0.23473726 0.4201158 0.06588127 -0.1756974 -0.21116088 -0.2507267 0.9060054 0.2426958 -0.40920624 0.18709692 -0.45658055 -0.5435454 -0.09645258 0.19439898 0.026150942 0.17310692 -0.11203961 0.3265744 0.2699714 0.28597587 0.4065013 0.6051692 0.17808782 0.20714958 0.80711514 -0.12326409 0.20747429 0.11708092 -0.53409845 -0.7598941
3208 0.6466907 0.35113096 -0.30180347 0.49427253 0.06835884 -0.00019152941 -0.3898054 -0.18912213 1.0013379 0.31839517 -0.40985703 0.43460017 -0.47304073 -0.29305154 -0.00012148305 0.045844704 0.04690501 0.04640938 -0.0813423 0.44241312 0.13486694 0.09091355 0.50980264 0.7404736 0.0084783165 0.1299081 1.0024605 0.0017082702 0.10189256 0.094396 -0.28634438 -0.74494624
3745 0.4417472 0.30327436 -0.26021844 0.55081415 -0.084866 0.15870762 -0.45107707 -0.028364606 0.9849725 0.2683112 -0.3686458 0.5796542 -0.25098807 -0.21031323 0.06402464 0.3130024 0.23312406 -0.030208083 -0.23200597 0.29274637 0.3327142 0.23065232 0.48849875 0.6812815 0.1742967 0.11937288 1.1285621 -0.10227578 0.24093871 -0.044515684 -0.5917526 -0.85884696
5239 0.63374805 0.45101893 -0.14807363 0.6571386 -0.06046847 -0.103185594 -0.2762303 0.11660071 0.8668866 0.151645 -0.38250765 0.5051777 -0.22549212 -0.28360724 -0.07625018 0.3622471 -0.023842543 -0.030603731 -0.21326265 0.3678641 0.30235508 0.30739865 0.46139652 0.6105208 0.3593205 0.17181347 1.0295829 -0.42700204 0.1204189 -0.057829596 -0.43113533 -0.6990573
3653 0.74766356 0.39963678 -0.13861889 0.42438903 0.09525515 -0.061581075 -0.32150337 0.045723952 0.9366885 0.32919496 -0.40829283 0.5012872 -0.3817882 -0.27356264 -0.0010725646 0.31846482 0.12323005 0.027493455 -0.15882476 0.35989663 0.21031955 0.24104847 0.45898536 0.541111 0.44696185 0.16965781 0.9497443 -0.16661368 0.10659565 0.12857768 -0.45763317 -0.7817346
7081 0.6171133 0.34205177 0.017572533 0.4867281 -0.19834657 -0.23088807 -0.41642955 -0.11915989 0.9173407 0.06806324 -0.41885602 0.3862227 -0.22724758 -0.41183922 -0.16869529 0.22513863 0.19834988 0.10199503 -0.17491604 0.5397633 0.10190934 0.13817659 0.44477904 0.58468175 0.35090855 0.11024282 0.9899483 -0.32367668 0.07908627 -0.096525915 -0.51338613 -0.8962653
1753 0.39484113 0.7834687 -0.121772714 0.36636847 -0.16361006 -0.35147843 -0.87922674 -0.060548767 1.0838463 0.7119153 -0.49356812 0.17726251 -0.55584395 0.050141536 -0.346406 -0.26909274 0.31284663 0.12633105 -0.23535652 0.6194853 -0.038115885 0.46546188 -0.13239333 -0.10674817 -0.21871366 -0.16965136 0.2903653 -0.2339703 -0.07166371 -0.37570772 -0.6208494 -0.032410763
4972 0.7313094 0.6420665 -0.24372372 0.6117381 -0.07942108 -0.19256952 -0.43317538 0.11090238 0.63462913 0.23928206 -0.26527807 0.29771045 -0.3943698 -0.50998324 -0.13316321 0.14845538 -0.0542938 0.12529658 -0.340835 0.42681298 0.3409718 0.24209793 0.45395187 0.588149 0.35073754 0.23258306 1.0761648 -0.2424758 0.034373786 0.20300055 -0.3735482 -0.7701319
6333 0.6276509 0.4220586 -0.28014404 0.31619436 0.01898558 -0.04535442 -0.41863036 -0.06275091 1.1050628 0.14856401 -0.44054875 0.43118793 -0.28472847 -0.26062986 0.033960063 0.18369877 0.2933541 0.0047225743 -0.21358202 0.37988535 0.24233025 0.13565964 0.5735774 0.6422575 0.021669136 -0.016812546 1.0988243 0.014462513 0.20232922 0.07461967 -0.4373512 -0.7896384
3876 0.56309867 -0.27877495 0.19826606 -0.025749335 -0.396927 -0.3945714 -0.017323976 0.09186943 0.6788293 0.6684102 -0.34076375 -0.45276672 -0.023825772 0.43417564 -0.45176125 -0.12689418 -0.2978733 0.8891742 -0.24443485 -0.015516559 -0.33683604 0.7837015 -0.35304374 0.20205937 -0.50418663 0.12943205 0.15223205 0.07917102 -0.39543125 -0.18994509 -1.1645576 0.45031616
3475 0.5393325 0.3713467 -0.34547696 0.6457268 -0.03152033 0.09311359 -0.41168746 -0.06650242 1.0611216 0.17964609 -0.3592344 0.6299505 -0.25855094 -0.18296137 0.002635991 0.31792587 0.12531869 0.04139382 -0.23196037 0.36695808 0.39759803 0.16581352 0.37330085 0.700229 0.07852499 0.1269137 1.0474994 0.030106312 0.30504692 0.026249344 -0.5636243 -0.88915527
830 0.6705076 0.2333777 -0.18969847 0.47687003 -0.10011857 0.04524347 -0.34174445 -0.12517877 1.0095503 0.16521223 -0.4373463 0.52571565 -0.35059166 -0.24602985 0.05580773 0.20824447 0.22012761 0.08319188 -0.29334214 0.6354655 0.20963967 0.27397445 0.5276319 0.58067745 0.014354823 0.024939809 0.9727456 -0.2481789 0.14897671 -0.10802929 -0.6292979 -0.90111136
5149 0.6385903 0.1712664 -0.33551958 0.5796035 0.025521776 0.26717448 -0.55632335 -0.15757796 0.8792252 0.2194664 -0.4271477 0.5308259 -0.38440236 -0.19614783 0.06565377 0.52902967 0.27574947 -0.00036054806 -0.12976864 0.27973083 0.24939193 0.19334419 0.7032495 0.675706 0.002713004 0.061805602 0.9344688 0.06441684 0.2808626 0.16338828 -0.76304865 -0.94213074
7148 0.49256533 0.5072974 -0.12867735 0.4568972 0.019718472 -0.11696454 -0.3131003 0.010406619 1.1161655 0.5033877 -0.29322374 0.42501545 -0.457154 -0.5126736 0.07550896 0.27495715 0.024161035 0.22855774 -0.17308871 0.28147447 0.2109712 0.31567773 0.53880334 0.47394094 0.29483372 0.16575159 0.9233134 0.02099219 0.26143944 0.17978741 -0.4105576 -0.8635865
437 0.7373526 0.12153354 0.4191222 -0.0047207195 -0.3252252 -0.48688287 -0.38887033 0.44578707 0.75250703 0.86235887 -0.5546783 -0.2323255 0.03408237 0.28158194 -0.28987712 0.07091567 -0.265898 0.5580122 -0.012909676 -0.030199306 -0.19605821 0.69696194 -0.5425571 -0.0061309403 -0.4025878 0.31545606 0.23343472 0.08715531 -0.15853429 -0.5254732 -1.0744326 0.48300403
4817 0.4997858 0.0351997 -0.3350382 0.6220373 -0.004310348 0.3262527 -0.50176734 -0.23681557 1.0553472 0.27905604 -0.37544966 0.5290009 -0.38794908 -0.3314968 0.0744953 0.31422222 0.32738733 0.2591744 -0.23566514 0.3782851 0.28008407 0.20465998 0.6834607 0.69839597 -0.12335824 0.12177334 0.972076 0.09509993 0.27658772 0.14418563 -0.59176743 -0.9289542
3099 0.6897075 0.1521072 0.12680948 -0.11207919 -0.1181974 -0.5518508 -0.39893013 0.122264706 0.85238695 0.8970509 -0.8550689 -0.125397 -0.14987594 0.28269267 -0.11897783 -0.17661972 -0.108502515 0.5631357 0.06937417 -0.22974955 -0.093336575 0.81663465 -0.36953443 -0.10163536 -0.18234803 0.11396856 0.10739901 -0.088726364 0.15979078 -0.7956203 -1.0451797 0.6205796
5170 0.5080196 0.24241236 0.26184595 -0.29823032 -0.37616023 -0.4929018 -0.27001616 0.07392286 0.96454614 0.6604824 -0.85380924 -0.097893804 0.15895423 0.33863267 -0.25083497 -0.24290274 -0.00869653 0.35184282 0.118074596 -0.06656367 -0.16788986 0.52768743 -0.3462075 -0.15805005 -0.18919419 0.19453183 0.27910975 -0.031181652 0.087216586 -0.7094514 -0.9334003 0.60937744
5998 0.8794694 -0.1013778 0.11466746 -0.10531111 -0.18182354 -0.69010746 -0.3979322 0.27160943 0.549797 0.6348219 -0.6724127 -0.2986436 0.29396263 0.39189082 -0.58846056 -0.11595061 -0.13186559 0.3951249 0.18471281 0.18177456 -0.08371789 0.69824153 -0.50293744 -0.15806994 -0.06629893 0.1909018 0.23014377 -0.23327158 -0.087325506 -0.8596344 -1.0576175 0.5205978
2931 0.6535789 0.18511963 -0.34185386 0.75812614 -0.3480697 -0.38239795 -0.39590347 -0.034237135 0.9110752 0.36790285 -0.33030063 0.5268289 -0.38639832 -0.42289707 0.09509599 0.3794772 0.14954379 0.010945668 0.0049295593 0.5571533 0.41671437 0.13538286 0.54864895 0.6933758 0.63271457 0.117854245 0.778356 -0.34732145 0.31063884 -0.14505143 -0.5239894 -0.93250114
6869 0.57217395 -0.33062452 0.055220667 -0.079487786 -0.5364326 -0.50391483 -0.3179191 0.18289179 0.81034994 0.6438407 -0.09929088 -0.55840635 0.086746775 0.51345176 -0.6391654 -0.033596423 -0.37769797 0.7339688 -0.21313763 -0.01606577 -0.06909728 0.8340933 -0.071909085 0.44080743 -0.5783416 -0.11080612 -0.0016029133 -0.25440958 -0.07361594 -0.35158375 -1.1336942 0.5317548
1550 0.28024432 0.20695285 -0.3303236 0.7548017 -0.333491 -0.2784934 -0.12394255 -0.1724031 1.0572398 0.58962744 -0.27714372 0.29698563 -0.5881511 -0.082257316 0.049409714 0.5454879 -0.068660185 0.063143924 -0.21832071 0.4381928 0.36528847 -0.07025405 0.5772138 0.5748179 0.542653 0.08665752 0.96608454 -0.12956 0.27728504 -0.10346087 -0.5280854 -0.9058921
7960 0.8260533 1.0437415 0.07647337 -0.15377535 0.027721707 -0.4042291 -0.23021877 -0.12011247 0.5260627 1.2245613 -0.8265741 -0.38029462 0.5285881 -0.053852193 0.0032470038 0.27456802 -0.32567918 0.47237107 -0.15380946 0.27955058 -0.14645647 0.47729537 -0.441987 0.2579238 -0.3073169 0.19914356 0.19899595 0.28800786 -0.39695096 -0.083745986 -0.62638456 0.13763466
7797 0.7060808 0.22483796 0.06675412 0.13127133 -0.004349156 -0.23575383 -0.55840474 -0.28761688 0.77909 0.29158923 -0.46706626 0.24218704 -0.5047668 -0.31826875 -0.25434196 0.25432494 -0.0642264 0.24611013 -0.19834268 0.54359746 0.41051534 0.20313706 0.47752506 0.49196672 0.5683412 0.21198723 0.8288115 -0.5162557 0.013980558 0.068852216 -0.37706894 -1.0711503
3835 0.9264462 -0.6609639 0.24557588 -0.007293975 -0.6699722 -0.7505059 -0.1691323 0.048039045 0.97126657 0.54399085 0.094455265 -0.3473339 0.41621715 0.720696 -0.3428077 -0.059705507 -0.68488264 0.7271841 -0.3281772 -0.26978296 0.09265144 0.6767856 -0.05154505 0.37068692 -0.45442972 -0.16502707 0.017325336 0.13344312 -0.1217743 -0.577095 -0.89148414 0.2225795
6212 0.6874732 0.008769295 0.44543442 0.34965697 -0.54257864 -0.63427204 -0.12698191 0.44822952 0.6094606 0.79705536 -0.4204636 -0.2875716 0.16527039 0.087997764 -0.42041108 -0.25443494 -0.19548291 0.51426756 -0.033416394 -0.14159678 -0.37680602 0.4345954 -0.46280846 0.020768624 -0.12733823 0.08268841 0.2027767 0.060704913 -0.44437575 -0.37987235 -1.0767982 0.541617
1620 0.454451 0.322686 -0.38559297 0.60935366 -0.22886984 -0.27518636 -0.34380415 0.042819362 1.0740248 0.46408126 -0.36666015 0.6087174 -0.2546287 -0.33167624 0.1308295 0.37590352 0.23703095 -0.051743653 0.029680884 0.53124595 0.2887392 0.007299669 0.5357713 0.6467853 0.5799829 0.06101024 0.85542035 -0.2295106 0.49331042 -0.1282786 -0.59988075 -0.89041996
3194 0.5059994 0.25488123 -0.22818775 0.53755796 -0.006130079 -0.12582186 -0.5489983 0.0148934405 0.9404917 0.4367534 -0.47271803 0.61522573 -0.1981869 -0.39009184 -0.101536706 0.12103067 0.09856268 -0.07506914 -0.22661789 0.4616414 0.20853172 0.21537742 0.3635426 0.5653289 0.22027284 0.21616524 1.0641141 -0.2775784 0.16847382 0.042429134 -0.41888687 -1.0647051
168 0.52243793 0.5739175 -0.1853862 0.6403351 -0.27456328 -0.19299753 -0.429645 0.14188619 0.9374852 0.2751594 -0.35965276 0.48667583 -0.39875153 -0.5177919 0.096912056 0.54201186 0.098698705 -0.006768703 -0.202396 0.17801438 0.2569568 0.030020755 0.56402683 0.639842 0.22224417 -0.028689494 0.817567 -0.28080913 0.3064108 -0.07489961 -0.5709971 -0.7035159
7878 0.5969661 0.10423178 0.106406935 0.028203994 -0.30664527 -0.3698099 -0.32505235 0.27621764 0.70999604 0.79764766 -0.45505637 -0.037849296 0.23173138 0.40366286 -0.62833035 -0.1257353 0.06763302 0.57801414 -0.16448075 -0.18751325 -0.22628173 0.5894751 -0.5421976 0.014574023 -0.40753385 0.11494319 0.21991543 -0.12739004 -0.13857184 -0.6754008 -1.1887814 0.40794513
2122 0.54532194 -0.044823907 -0.20233205 0.4451278 0.24677584 0.08056411 -0.50585467 0.2084621 0.8081471 0.41527584 -0.53123796 0.40860343 -0.4433006 -0.3529846 0.1197612 0.24645744 0.28655195 0.19646671 -0.14322454 0.5668149 0.36905748 0.19797343 0.590186 0.40102664 0.019579023 0.114544764 1.2365248 -0.120155536 0.2703989 -0.02291169 -0.3720128 -1.0380187
629 0.521742 0.32760754 -0.28936017 0.513803 0.06356305 -0.06779015 -0.117145106 -0.083625235 1.1089545 0.31840864 -0.41095322 0.52298206 -0.41786245 -0.2513009 -0.15878947 0.24715409 0.13936417 0.034130033 -0.34601676 0.31297675 0.3266577 0.34409583 0.5450273 0.66145134 0.22538175 0.098226056 0.90113956 -0.073020466 0.43147644 -0.04320084 -0.606136 -1.0954481
526 0.66772574 0.41291654 -0.31637838 0.5252873 -0.098504595 0.056579124 -0.35728106 -0.0029647627 1.2022841 0.22346447 -0.3627327 0.568847 -0.13332032 -0.34917733 0.02128041 0.17758791 0.11372708 -0.052132066 -0.14644644 0.36826456 0.15868375 0.20788562 0.457097 0.7039116 0.27579266 0.056066085 1.0078702 -0.00833345 0.13608253 0.01110038 -0.47109842 -0.9116127
5269 0.8477486 0.08048715 0.16470194 0.0053146123 -0.26919717 -0.69600666 -0.40408748 0.17598353 0.69867307 0.73570687 -0.7081528 -0.2773768 0.09209914 0.25711688 -0.28635314 -0.20550534 -0.01872864 0.45758906 0.14224201 -0.12100661 -0.3014698 0.69393903 -0.38447368 -0.13632004 -0.19977249 -0.002922476 0.104142815 -0.010259686 -0.01491184 -0.7287393 -1.059074 0.42254978
6118 0.6517796 0.45222372 -0.38766053 0.36465892 0.40012616 -0.25686288 0.03019675 -0.046137843 0.8620088 0.3117275 -0.7360594 0.7509624 -0.26934847 -0.56749064 -0.34070635 0.20967528 0.16497447 0.09692299 -0.027431795 0.28548887 -0.21079616 -0.2385977 0.52821285 0.60918695 0.08791307 0.008152615 0.6743196 -0.05478935 0.010974046 -0.2315277 -0.20346758 -0.42282563
8318 0.79445744 -0.24665797 0.019529581 -0.058738984 -0.4096371 -0.43266743 -0.31975856 0.15873794 0.9202664 0.56838244 -0.06091509 -0.6786746 0.1335355 0.61736375 -0.54323095 -0.042212233 -0.31616294 0.7424255 -0.12202765 -0.055848423 -0.016408397 0.8506643 -0.068242386 0.34086812 -0.6045754 -0.044640515 0.14373952 -0.094001204 -0.26053 -0.37735483 -1.014938 0.4507018
6396 0.6432343 0.52857774 -0.48552337 0.67768615 0.1998287 -0.43128344 0.42616063 0.08965097 0.51512325 0.21698971 -0.7703787 0.34375048 -0.29796 -0.35565066 -0.47745642 0.073667265 0.22187449 -0.10680495 0.06323427 0.6651476 -0.023580935 0.04668171 0.5328845 0.35705298 0.002351554 0.16046526 0.9776726 0.009739214 0.027906653 -0.2816493 -0.10050016 -0.022065988
1375 0.49654472 0.3686099 -0.11381685 0.4833216 0.08218305 0.19875789 -0.3457386 -0.0959312 1.062514 0.4660503 -0.5422336 0.5170738 -0.3861361 -0.20647392 -0.0039680046 0.29193947 0.15030803 0.11446165 -0.05889771 0.41206378 0.3022103 0.25007257 0.62479043 0.5048429 0.12229587 0.0785625 1.1187648 0.022553176 0.14289425 0.08361835 -0.39737716 -0.9727481
1000 0.5595105 0.1707618 -0.19353281 0.51698893 -0.0148218 0.17937672 -0.33761755 -0.134654 1.0306964 0.36467016 -0.42960146 0.51173854 -0.6778071 -0.12703134 0.13228695 0.34028867 0.17292473 0.28603762 -0.04991702 0.5964724 0.21965444 0.09303375 0.8587179 0.36649004 0.23227297 0.1050044 0.9294149 -0.028404338 0.11735997 0.10122794 -0.46657294 -0.76183116
5640 0.7787356 0.48245117 0.2940973 0.15483353 -0.15844913 -0.39649075 -0.35884374 -0.11447281 1.044917 0.63082254 -0.33749527 0.06699702 -0.025075741 0.17184073 -0.51831156 -0.27463043 0.043267347 0.35118204 -0.11110641 0.011124357 0.27212393 0.645469 -0.3775644 -0.14176515 -0.28869575 -0.14054635 0.33515665 0.19595197 -0.33058676 -0.64753234 -1.0491381 0.2733846
6397 0.30917957 -0.24430087 -0.49023294 0.4763222 -0.54925555 0.029094974 -0.16400158 -0.45110494 0.7125743 0.012407105 -0.38256744 0.116551094 -0.85132617 -0.1471399 0.39637503 0.121801436 0.077328056 0.6555718 -0.19045164 -0.040320165 0.32341403 0.037027147 0.60111314 0.2998758 -0.26910478 0.12583567 1.5193958 0.021195099 0.3220211 0.22932631 -0.83155966 -1.2808903
4512 0.8615427 -0.8402142 0.31062737 0.06537967 -0.39638537 -0.5921628 -0.22237352 0.2615259 0.8046881 0.5767653 -0.025872624 -0.545444 0.5265626 0.6754094 -0.38828093 -0.030472804 -0.5284528 0.795195 -0.17070901 -0.08463683 0.010254111 0.6675712 -0.063109174 0.6041634 -0.55410206 -0.25106958 0.14578669 -0.33063126 0.117197625 -0.3136706 -1.0023569 0.2600935
1958 0.5458518 0.30657187 -0.29737344 0.6650662 -0.32068595 -0.2987923 -0.50269794 -0.028059356 1.1262885 0.36023808 -0.312911 0.5967997 -0.22381353 -0.33780116 0.25456598 0.23879886 0.062289197 -0.07666214 -0.12510921 0.48558775 0.4668016 0.09625458 0.49945354 0.77225417 0.5393028 -0.0408519 0.73631704 -0.08010304 0.32743007 -0.06837447 -0.5493332 -0.90663534
527 0.56317466 0.46382943 -0.4569552 0.80216366 -0.32275996 -0.3570167 -0.41637716 0.030108534 0.9053188 0.15815274 -0.18618916 0.73825353 -0.3268406 -0.29929274 0.099304035 0.4039471 0.069638245 -0.080315575 -0.05975016 0.40299055 0.3399411 0.24537636 0.44092292 0.62615484 0.22958826 0.2742523 0.7587137 -0.22807217 0.21324886 -0.0106161265 -0.62145287 -0.55438924
8008 0.51728404 0.3665672 -0.347895 0.71939397 -0.36564934 0.04722796 -0.3997483 0.056290347 1.0587974 0.21672668 -0.4417701 0.5328662 -0.26873824 -0.14206886 0.15929525 0.46340814 0.09009502 -0.07120739 -0.04460592 0.27249253 0.16180037 -0.036899835 0.66365033 0.7433162 0.20747295 -0.021525683 0.976596 -0.20434245 0.35637155 0.126109 -0.5271103 -0.9327568
6500 0.7140852 0.27697352 -0.4186587 0.6606586 -0.092712104 0.02039234 -0.18105164 -0.07864876 1.0665543 0.13286667 -0.41900617 0.7225814 -0.29869187 -0.13362662 0.12263851 0.37806445 0.3084032 0.012687567 -0.19954875 0.31060466 0.39401364 0.2582145 0.60445017 0.6016244 0.06947704 0.06897934 1.0519855 0.13825242 0.21350327 0.07056771 -0.47393706 -0.87539524
5056 0.479805 0.5224345 0.08437616 0.05740667 -0.16779476 -0.35725564 -0.3700988 -0.12784432 0.9689931 0.7116073 -0.41666263 -0.059773248 -0.14330558 0.09196926 -0.7306776 -0.068595864 -0.13780458 0.19504401 -0.13348486 0.0024207812 0.17044531 0.5678859 -0.40463495 -0.13475016 -0.09501204 -0.20077409 0.5110495 0.11396885 -0.28217036 -0.82320493 -1.0073106 0.38232026
3265 0.5710262 0.059262093 -0.41542184 0.5048895 0.27772686 0.066048585 -0.41340664 -0.092432 1.0230194 0.26551658 -0.45895135 0.70315856 -0.49054137 -0.28429016 0.14699496 0.45030946 0.19073194 0.23882559 -0.09145203 0.42293027 0.27901533 0.12089865 0.6802384 0.58907175 -0.0072483714 0.24511127 0.95493084 -0.07194859 0.33172402 0.032539915 -0.46100554 -0.8593734
644 0.5902301 0.36060706 0.37954867 0.41050225 -0.2669428 -0.4444197 -0.187039 0.07581418 0.6303765 0.8802079 -0.6244493 -0.33348227 0.15426652 0.025703136 0.0061394344 -0.23266745 -0.1407767 0.5887806 0.03230333 0.046236005 -0.014386728 0.65238327 -0.67359847 0.100121185 -0.2346156 0.3053813 0.49511135 0.29788604 -0.19013868 -0.4543917 -1.1864574 0.728424
6833 0.45531702 -0.8901336 0.00735938 0.11574202 -0.564855 -0.2313417 -0.09725878 0.36525434 1.0283955 0.6629172 0.15123905 -0.32015178 0.74535215 0.48014116 -0.34348592 -0.4092511 -1.1173109 1.110376 -0.60002595 -0.330416 0.13577572 0.70422935 0.6019596 0.57173496 -0.549993 -0.23843046 0.01109299 -0.15187466 0.32171556 -0.26399195 -0.79707336 0.28290287
4827 1.1437552 0.62020624 0.041786667 0.22380075 0.11181003 -0.38700756 0.05737159 0.23350015 -0.11134701 1.035296 -0.7322838 -0.083510704 0.50970405 -0.19812699 0.04795713 0.6604135 -0.77599186 0.48841602 -0.06848737 0.5980533 0.22153407 0.61543536 0.61583626 0.53814423 -0.37474078 -0.24749641 0.5456173 -0.021343749 -0.6294977 0.009954119 -0.30349773 -0.2831613
7045 0.73199224 -0.046385292 0.038807996 -0.3012166 -0.30465502 -0.53412306 -0.35278288 0.2151546 0.7571406 0.68811303 -0.6283532 -0.19537607 0.19622798 0.61558646 -0.46232653 -0.03237511 0.24528879 0.62340003 -0.108095884 -0.07755652 0.04020721 0.55983454 -0.5239936 0.100014135 -0.15023285 0.24360695 0.20129451 -0.44930953 -0.10862082 -0.8614226 -1.0925012 0.43945953
2671 1.3376063 0.89675575 -0.41003123 0.2521064 0.13327911 -0.460394 0.22932684 0.15091588 0.06437539 0.74602056 -0.5495505 0.49574885 0.2858934 -0.20453359 -0.19099908 0.3285525 -0.104387976 -0.15248476 -0.3202315 0.4152443 0.33928582 0.33622995 0.43992588 0.15027161 -0.4362336 -0.18901578 0.89910465 -0.2325488 -0.50346833 0.009352989 -0.3444046 -0.06716953
2310 0.4902351 0.47883874 -0.45676023 0.7793347 -0.44301933 -0.23713408 -0.17676209 -0.0569807 1.0371192 0.2165252 -0.36361697 0.54622203 -0.12363636 -0.44743413 0.12753898 0.47894543 0.12397585 -0.14561048 -0.12750894 0.10772002 0.4744237 0.21741387 0.5321701 0.6307163 0.5014694 -0.08256565 0.75441843 -0.16777535 0.20526972 0.055753555 -0.72714436 -0.72351664
2342 0.8635869 0.16328934 0.20895277 -0.20285554 -0.21456003 -0.42258185 -0.5019312 0.0049171937 1.0889089 0.8455879 -0.76230395 -0.21933138 0.33499864 0.31263047 -0.116096914 -0.20495063 -0.031661794 0.43491167 0.04164525 -0.09371815 -0.0054950477 0.7095866 -0.43677235 -0.056055102 -0.26260635 0.13947102 0.2393525 0.09831276 0.04465554 -0.7413772 -0.8779393 0.619263
8201 0.589041 0.115455166 0.1093809 -0.1214757 -0.3736857 -0.65196824 -0.3611903 0.12869494 0.8131964 0.8988552 -0.47504207 -0.35808775 0.20417923 0.32095346 -0.28931606 -0.087653376 0.04518679 0.43746537 -0.012933637 -0.017422006 0.010188106 0.6012677 -0.4575829 0.08214697 -0.045735925 0.12179126 0.20335363 -0.11391872 -0.04076668 -0.7895927 -1.1555389 0.44175056
3485 0.8207097 -0.14596516 0.12931971 -0.27855277 -0.50095785 -0.5776689 0.058817416 -0.10613519 0.85154265 0.27203715 -1.1478928 -0.12453966 -0.072911866 -0.13827184 -0.16173649 -0.30036047 -0.0990544 0.2532857 0.29408726 -0.08798136 -0.016396454 0.03170944 -0.76676005 -0.38749117 -0.08260381 0.34859902 0.42961916 0.10202053 -0.19944015 -0.6497011 -0.64058805 0.31004816
4476 0.74269485 0.40330732 -0.14822151 0.63362074 -0.08532981 -0.024293022 -0.28068018 -0.01376331 0.9778912 0.22355421 -0.38895747 0.6378725 -0.48893878 -0.22832933 -0.10295953 0.18474266 -0.051744815 0.13848063 -0.2806924 0.6210177 0.40295234 0.29830945 0.6720163 0.4565316 0.36273316 0.32026982 0.8019506 -0.35232925 0.16800827 -0.091439076 -0.29404044 -0.7915101
563 0.5457685 0.14439547 0.21309309 -0.32418266 -0.2655399 -0.45513865 -0.55914336 0.46072116 0.89916205 0.80563647 -0.6338096 -0.120953195 0.4194 0.1528115 -0.35831627 -0.30694854 -0.007135396 0.7097363 0.17538221 -0.09989688 0.05171708 0.73670524 -0.51728284 0.14354827 -0.010686849 -0.17997007 0.009579888 -0.04189725 -0.028143356 -0.54678774 -1.2662493 0.45923
598 0.49532363 0.10446004 0.2706109 0.042240884 -0.16274378 -0.28079435 -0.45116046 0.22032903 1.0316483 1.039951 -0.51606965 -0.3271974 0.37561277 0.22123016 -0.3739026 -0.11045542 -0.010304084 0.5870368 -0.14424434 -0.122313134 -0.049030527 0.5854088 -0.50436914 -0.036560398 -0.14091076 0.036465593 0.19455476 -0.16651773 -0.074260585 -0.604836 -1.1920261 0.34824947
1131 0.92612606 -0.6657753 0.22865486 0.029804192 -0.78332293 -0.2521646 -0.09920468 0.31539035 0.7674008 0.69535524 -0.27400768 -0.7079331 0.44131374 0.8014635 -0.043056875 -0.095611066 -0.8600148 1.1222243 -0.4098644 0.08870243 -0.07757643 0.45977378 0.6993687 0.87935835 -0.7487973 -0.52611786 -0.032278445 -0.05014125 -0.19592518 -0.2419869 -0.53436786 -0.07379262
4349 0.57713956 0.5327383 0.034181412 0.09680022 -0.36112273 -0.18997745 -0.64725757 -0.09586835 0.9933815 0.67438954 -0.22689201 -0.11022119 -0.10768098 0.08223582 -0.67241025 -0.13816385 0.12668398 0.40130317 -0.05585313 -0.015677605 0.32430643 0.4803113 -0.30447108 -0.30930388 -0.22876078 -0.2347677 0.3705865 -0.0030833553 -0.33723015 -0.6323527 -1.2072581 0.45217398
3652 0.53613394 0.19137129 0.083044454 -0.46322498 -0.20265323 -0.41877347 -0.74140054 0.22188485 1.0704995 0.84229964 -0.6333394 -0.22152786 0.2685626 0.305094 -0.33314437 -0.18035774 -0.13362367 0.54891115 0.048950788 -0.10258561 0.14145494 0.5465076 -0.54188526 0.176169 -0.11503772 0.09363653 -0.0041176598 -0.023746194 -0.17562798 -0.33935747 -1.2230623 0.4039416
6849 0.49406996 0.008401706 -0.077491045 -0.3614537 -0.31865823 -0.44879183 -0.57875866 0.038994018 0.907411 0.7520393 -0.84831405 -0.4244145 -0.22068024 0.23446216 -0.46848786 -0.25262472 0.2911907 0.53713626 0.024566907 0.07573249 -0.18780833 0.63904136 -0.48492298 -0.012840897 -0.19327782 0.24685049 0.37915257 -0.16483968 0.0667638 -0.7697382 -0.8676459 0.44193715
7094 1.3015523 0.530936 0.122569144 0.41235137 0.2185307 -0.5266978 0.06832555 0.14284065 -0.22625998 0.8092499 -0.73507 0.054810572 0.7327635 -0.13239908 0.012169948 0.5902184 -0.78420323 0.42570275 0.053473942 0.5605743 0.26810753 0.50912136 0.4878725 0.6288978 -0.25987205 -0.035851073 0.49336436 0.016316736 -0.7999706 0.037826464 -0.54223573 -0.36645484
6457 0.576442 0.3240641 -0.15331778 0.44653964 0.00686489 -0.0350105 -0.21746716 0.08147807 1.0735154 0.45620492 -0.4009844 0.54511106 -0.3797446 -0.28690287 -0.060104243 0.22923246 -0.043589048 0.040165517 -0.16359425 0.6332889 0.18588373 0.35364446 0.65941155 0.56263596 0.24245705 0.20820625 0.79182816 -0.21792215 0.17707111 -0.018518241 -0.5079799 -1.0624143
703 0.90786994 -0.22736329 0.02176918 0.5028237 -0.29998928 -0.33028802 0.18752289 0.119826846 0.6384576 0.82856 -0.060166273 -0.10594338 -0.22994459 0.030338582 0.007944777 0.24916303 -0.20383248 0.6901858 -0.2783995 1.0817529 0.023631368 0.58563703 0.52682763 0.9961383 -0.28587618 -0.07743951 0.3035251 -0.46975002 -0.7788471 -0.20063475 -0.10857164 -0.57097
4801 0.69939613 0.3080968 -0.222463 0.6172338 -0.16490959 -0.09486831 -0.3243636 0.0006251434 0.82925826 0.361376 -0.22933643 0.57237977 -0.39957196 -0.3097402 0.033575173 0.24373251 0.1833499 -0.06266881 -0.24031673 0.48656654 0.27924702 0.21038386 0.65822375 0.55062383 0.27631387 0.28004685 0.8789008 -0.37199128 0.20173608 -0.22678223 -0.54325837 -0.8402535
3340 0.5822885 0.2519586 -0.13050257 0.6308334 -0.026255973 -0.067216426 -0.2102934 0.079461455 1.1564711 0.1746528 -0.4925899 0.6356367 -0.38299495 -0.3414852 -0.19723612 0.2299558 0.06106879 0.0077209803 -0.2884811 0.45882106 0.26544306 0.11474628 0.53413343 0.58454037 0.24423406 0.09271349 0.8684102 -0.26674658 0.28562066 0.051840525 -0.547881 -0.91612816
8305 0.89990866 0.28034228 -0.07783079 -0.063182004 -0.18353401 -0.5322704 -0.2924218 -0.031897347 0.77204037 0.74430966 -0.7751387 -0.1968933 0.14011835 0.5106927 -0.26407668 -0.24587315 -0.032985706 0.5224325 0.082030356 -0.14539877 -0.27625802 0.51397526 -0.4484568 -0.27307823 0.020838289 0.24761854 0.1870451 0.07737233 -0.15937105 -0.7503892 -1.0159184 0.43837717
8278 0.38667837 -0.30212957 -0.29707342 0.18799455 -0.033161063 -0.16838536 -0.7106256 -0.2895929 0.75344664 0.47203007 -0.2866617 0.2875519 -0.49784103 -0.7104944 -0.29704168 -0.062645614 0.18232507 0.11001278 -0.20965451 0.47482195 0.25332946 0.22579338 0.34140086 0.54779845 0.052885264 0.27057713 1.2337359 -0.30241084 0.047762953 0.07905104 -0.480329 -0.9880644
7451 0.43974957 0.078611515 -0.64742357 0.70753175 -0.35011804 -0.12151352 -0.5652232 -0.28677028 1.1020224 0.3387463 -0.156276 0.37683323 -0.69491714 -0.16275527 0.34712765 0.6569463 -0.22821213 0.10886527 -0.33901048 0.11441351 0.13610628 -0.20728089 0.5452833 0.68465513 0.32383215 0.11114187 0.9502103 -0.017153071 0.3387693 0.22115433 -0.80884063 -0.84620863
5234 0.46971548 0.1725343 -0.57531136 0.73935413 -0.57641584 -0.23229687 -0.3992502 -0.26936695 0.83769095 0.39941618 -0.39527446 0.3138428 -0.6616809 -0.38605845 0.4881032 0.4407516 -0.18192953 -0.14646342 -0.22282478 0.15531445 0.20336288 0.15692002 0.54650325 0.720636 0.2993443 0.074741945 0.88328713 0.3686198 0.50223845 -0.08058508 -0.6992711 -1.1180387
874 0.7122242 0.34714276 -0.023108227 0.44548884 0.060938586 0.016014855 -0.30911604 -0.24087 1.1673614 0.3377368 -0.44724417 0.54140496 -0.31970623 -0.15687285 -0.2373583 0.37063184 0.29541728 0.10621181 -0.15409987 0.59405094 0.30909264 0.23108436 0.6103842 0.6818401 0.19195604 0.17245102 1.020354 -0.03914836 0.16372441 -0.061527386 -0.3784122 -0.9729166
579 0.53182894 -0.16568938 -0.43843248 0.22184959 -0.54547155 -0.00046865433 -0.7823507 -0.49056235 0.4923085 0.18543942 -0.26470968 -0.097220965 -0.42916062 -0.3826899 -0.054857682 0.21752712 -0.22548878 0.19508521 -0.47428918 0.03125486 0.05215161 0.07194528 0.4593254 0.408196 -0.20232294 0.41687948 1.6884097 0.019089848 0.283895 0.29483435 -0.49959004 -1.4015245
4444 0.599543 -0.22564979 0.28731856 -0.19275618 0.13269778 -0.4819055 -0.7499565 0.3248561 0.66405255 1.0007302 0.029527059 -0.4919058 0.28635025 0.16662641 -0.46882218 -0.40460724 -0.50883734 0.33930752 0.015480746 0.21424884 0.4674339 0.616748 -0.26768753 0.17401539 -0.2735599 0.44099233 0.25120652 0.26842326 0.11059717 -1.108068 -1.1672088 0.4093692
8046 0.6720076 0.23984072 0.3026939 0.012469444 -0.4971123 -0.45829475 -0.54910815 0.45544884 0.7224825 0.80150384 -0.43932724 -0.18590745 0.1143883 0.48697278 -0.26985514 -0.018944757 -0.16977656 0.4758572 -0.083209105 -0.11919197 -0.07420561 0.796298 -0.38932973 0.16521879 -0.18683259 0.11688365 0.16464692 0.14134541 -0.06906199 -0.6887044 -1.0699253 0.59505713
8007 0.5908847 0.34475678 -0.15216054 0.77394986 -0.29910523 0.07896026 -0.05888972 0.0683873 1.107364 0.25619185 -0.2839463 0.5002929 -0.23413369 -0.28364998 -0.22754537 0.29695326 0.06163696 -0.014078687 -0.23822287 0.5977937 0.26414487 0.14158835 0.5213276 0.6293389 0.24158324 0.30247307 0.81328356 0.0048963283 0.12605691 -0.055270478 -0.53601867 -1.0023917
4197 0.7433474 -1.1981059 0.07441886 -0.03994131 -0.4334279 -0.3322986 -0.07874245 0.12311811 1.0190234 0.87729347 0.08728523 -0.47519577 0.590553 0.14157748 -0.1610844 -0.26769254 -0.8223498 1.4368379 -0.40858394 -0.16094595 0.09231716 0.5822861 0.46206298 0.54060364 -0.46043375 0.016278664 -0.28607073 -0.27225178 0.4845719 -0.18815252 -0.7517164 0.05577984
7282 0.70431215 0.49710885 0.13788314 0.027019795 -0.4114524 -0.57780737 -0.41100922 0.11341121 0.6629334 0.7267021 -0.62388235 -0.2680696 0.010419441 0.21641855 -0.39543048 -0.2998834 -0.24269545 0.5330057 -0.0765321 -0.2677177 0.06627538 0.6892808 -0.5854222 0.045540083 -0.12588759 0.19776388 0.21231627 -0.08107419 0.14031461 -0.76403654 -1.0660716 0.46398133
6247 0.7102587 0.06425761 -0.33551145 0.58249974 0.029025536 -0.3742863 -0.23684688 -0.020691324 0.81996995 0.22995378 -0.44932747 0.23519057 -0.4859294 -0.7112023 0.35792372 -0.06473083 -0.13400365 0.27754164 -0.09181194 0.6545228 0.27572066 0.46808156 0.78040314 0.21117134 0.580888 0.5085446 1.0045811 -0.20275192 -0.08709292 -0.46744442 -0.3474104 -0.98510605
8139 0.52532655 0.52342963 0.27899033 -0.059564997 -0.23159729 -0.41321188 -0.4927794 0.16407318 0.8164377 0.855556 -0.684503 -0.09411254 0.10470204 0.5363364 -0.41872674 -0.2800685 -0.17194381 0.4880365 -0.072135955 -0.13159531 -0.13982081 0.69757533 -0.45106 -0.0055509987 -0.1424872 0.10518877 0.24655388 0.11470044 -0.081540465 -0.6048755 -1.3307779 0.50564975
6668 0.6365019 -0.14065489 -0.23792988 0.48805782 0.32087815 0.06550434 -0.38641393 -0.27631068 0.7720637 0.5380108 -0.696591 0.37221915 -0.50884545 -0.23417239 -0.018581888 0.23756552 0.24182856 0.15351023 -0.2859358 0.63355297 0.26302022 0.29373574 0.43840525 0.5941808 0.32023466 0.23005791 1.0593686 -0.22888751 0.19712853 -0.07840139 -0.5097459 -1.0996642
2403 0.75822854 -0.14692384 -0.41311613 0.44613966 -0.730486 0.33713272 0.25616243 0.118268214 -0.029021904 0.484608 -0.8434386 0.3579412 0.3078401 -0.059921373 -1.2060912 -0.5577901 -0.11501161 0.875843 0.38141295 -0.49357376 -0.2377158 -0.69078135 0.8542855 -0.17696825 0.3043531 0.3798975 0.63108194 0.32509753 0.585693 -0.15611972 -0.31670755 0.43992794
5008 0.31031522 -0.3107161 -0.41133627 0.5219707 -0.1031243 0.40865326 -0.63689446 -0.29216033 0.8610916 0.40817457 -0.5428823 0.35284668 -0.5879985 -0.39267436 0.104602 0.48822498 0.19601266 0.2968675 -0.31102225 0.26440263 0.10735865 0.08196355 0.75828755 0.68138546 0.0124804415 0.13273717 1.2447883 0.10552452 0.25778624 0.21705092 -0.5442625 -0.9501359
1581 0.48380032 0.015968278 -0.27959743 0.4733572 -0.39802238 -0.12862559 0.32822052 0.16215092 0.44347465 0.26747012 -1.3986678 0.5300074 0.49008736 -0.22099732 -1.0044482 -0.35896417 -0.047451492 0.15035409 0.078223936 0.10085814 -0.29574066 -0.48464456 0.3910961 0.068182506 0.12344884 0.39413798 0.6864095 0.5542946 0.34777966 -0.10948976 -0.23055068 0.64487904
7465 0.571595 0.19016376 0.050783504 0.4724601 0.28279895 -0.17400633 -0.29942092 -0.21932848 1.008822 0.5806089 -0.36084858 0.36387336 -0.4799877 -0.22753279 -0.13852951 0.15109363 0.1571628 0.23147234 -0.1594422 0.55597395 0.3318465 0.0836017 0.7488363 0.3834107 0.4037072 0.260035 0.91500777 -0.26669508 0.119911425 0.0047740266 -0.43914875 -1.063101
3370 0.8978999 0.25347453 0.6030355 -0.1005891 -0.3630669 -0.6162394 -0.622752 0.08271845 0.8077473 0.4906813 -0.2623143 -0.6305551 0.16439065 0.290017 -0.16194034 0.16452971 -0.23883314 0.76568204 0.50501764 -0.22616048 -0.030852972 0.4044666 -0.2648022 0.002506506 -0.47537383 0.024496697 0.2567882 0.14883766 0.06666678 -0.908866 -1.0624816 0.15280637
2804 0.5439528 0.0973376 -0.38635182 0.4870296 0.22855498 0.2552992 -0.49218616 0.0938395 0.97866064 0.48816487 -0.46056595 0.4411616 -0.4464497 -0.42779237 0.08105002 0.29119736 0.13807623 0.13909943 -0.18681304 0.41174266 0.09213136 0.13162442 0.5201787 0.37925145 -0.016789092 0.25183418 1.1754184 -0.20875187 0.38724366 -0.08441754 -0.5035456 -1.0514114
8041 0.57748115 -0.027307972 -0.31285405 0.50437295 0.24541269 0.24447998 -0.43399602 -0.086431116 0.99132484 0.50357836 -0.46981487 0.44033068 -0.48736253 -0.29013017 0.07832228 0.3799003 0.18399562 0.16652861 -0.07731985 0.39008865 0.31564367 0.1671831 0.6438085 0.54461193 0.16994807 0.18025333 1.0837604 0.05114949 0.22576393 -0.010376862 -0.5047966 -1.0858779
1575 0.43449202 0.49662077 0.31821048 -0.37688303 -0.39608613 -0.36205617 -0.60881275 0.13955736 0.96537876 0.8658866 -0.5823982 -0.07076091 0.22220828 0.28040785 -0.42676502 -0.1980534 -0.02662566 0.691255 -0.18591616 -0.029232742 0.12875573 0.5538614 -0.580593 0.1663699 0.15085554 -0.122634314 0.10097803 0.0964094 -0.07333859 -0.443886 -1.3234895 0.4039047
3501 0.9561488 -0.739019 0.06382605 0.030222276 -0.7655921 -0.41016966 -0.17042008 0.25913623 0.56843156 0.54356647 -0.29764137 -0.68940514 0.69964975 0.56150866 -0.04631391 -0.09855253 -0.6957005 1.1714473 -0.5007634 0.2839697 0.10234552 0.59500563 0.636396 0.83951557 -0.65073395 -0.52843195 0.029383674 -0.108525604 -0.17394179 -0.29453087 -0.45649606 0.00040341585
1163 1.223598 -0.4936544 0.1528606 0.2113847 -0.6262268 -0.4093086 0.3361421 0.40961364 0.16829741 0.91935927 -0.11217455 -0.6497612 0.86043876 0.53395087 0.05978986 -0.15306273 -0.7065925 0.96894455 0.018673724 0.45925292 0.4826024 0.6151039 0.6975638 0.6001649 -0.4951807 -0.63826656 0.39675245 -0.35885835 -0.26285204 0.013427834 -0.5771345 -0.14935361
1198 0.50971025 0.20277241 -0.27190515 0.6492225 -0.09479902 0.19208072 -0.43972772 -0.16897075 1.1352963 0.30847165 -0.45497182 0.6877568 -0.37450615 -0.07995793 0.36901847 0.33990878 0.29701668 0.081932016 -0.16336206 0.2986744 0.27794495 0.095910735 0.82496613 0.62246424 0.033701573 0.13926432 0.94870585 0.16960767 0.19677989 0.061475158 -0.62561435 -0.9388652
828 0.38026798 0.26297602 0.17311797 0.73074126 -0.33997905 -0.31688014 -0.70315874 -0.6428268 0.8314671 0.29613858 -0.68514776 0.4160986 -0.74454856 -0.28249866 0.14265987 0.549728 -0.38857403 0.29806045 -0.3017871 0.48264372 0.4942032 0.011507253 0.5443792 0.83756185 0.49292982 -0.053432714 0.75225043 -0.1729542 0.37964723 0.07728181 -0.41214478 -0.9343655
4642 0.6546653 0.26957437 -0.48270452 0.51105773 -0.21142098 -0.22199172 -0.37709028 -0.10716583 1.0923743 0.412336 -0.5071425 0.5319905 -0.3506597 -0.37928057 0.11362242 0.49497023 0.15811986 -0.022440296 -0.053660482 0.4990022 0.43709722 0.030805122 0.48671967 0.6837281 0.36915243 0.014094091 0.7096602 -0.14867942 0.48298147 -0.07337877 -0.54812014 -1.0022439
3052 0.32101694 0.38861182 0.36900944 -0.026612556 -0.20710957 -0.2901154 -0.5216151 0.27919185 0.8080055 1.0910854 -0.5879608 -0.22267884 -0.03409773 0.16813722 -0.24626002 -0.16796856 -0.4829801 0.60794944 -0.052307043 -0.20126493 -0.099553175 0.65370476 -0.50906426 -0.002758489 -0.056879915 0.21028641 0.30607724 0.23846458 -0.307202 -0.4792216 -1.1264561 0.5174242
6061 0.682878 -0.35795224 -0.37247577 0.4655473 -0.045514617 0.18243547 -0.6666767 -0.21865101 0.6414916 0.5223313 -0.40485725 0.19284841 -0.8931399 -0.437137 -0.081552096 0.6144574 0.34500974 0.32988167 0.10365334 0.44650882 0.2763468 0.013810405 0.5287813 0.54994273 -0.096681066 0.38419634 1.170785 -0.1871158 0.15675958 0.22755696 -0.45295984 -0.8885666
7976 0.514871 0.3119841 -0.527193 0.860508 0.0636326 -0.104638614 -0.31378135 0.071386226 0.95048577 0.112891905 -0.43316662 0.50292385 -0.1993959 -0.2266177 -0.047186133 0.08472172 -0.08108397 0.14154278 -0.42870155 0.62603587 0.53125393 0.368658 0.5017676 0.5865265 0.36506823 0.4598319 0.73956174 -0.051365767 0.32063946 -0.083761334 -0.5128164 -1.082112
6410 0.6743644 0.16705115 0.27632263 -0.062377565 -0.28110582 -0.26665983 -0.41824555 0.26410395 0.732384 0.57028544 -0.56604534 0.032786675 0.26714274 0.42084745 -0.49070856 -0.09319027 -0.13366877 0.60597163 -0.17003995 -0.078173555 -0.20498893 0.54719055 -0.82271147 0.041706562 -0.4427518 -0.007098696 0.44888932 -0.20655206 0.1645197 -0.49489105 -1.1021885 0.5706725
7988 0.61323196 0.6067007 0.4932001 -0.7064616 -0.5366398 -0.4130217 -0.34383386 0.24094556 0.94567966 0.44020805 -0.33849567 -0.48910615 0.031089706 -0.117984995 -0.0038141967 0.16109262 0.27342907 0.58790046 -0.46607745 0.005016953 0.31254858 0.5451966 -0.32064748 0.45147485 -0.49059072 0.727847 0.62238693 -0.12963043 0.49610886 -0.5794404 -1.072857 0.42361137
5354 1.2810748 -0.4438764 0.3640986 -0.13389309 -0.66331 -0.63435787 -0.08296916 0.5790456 0.519457 0.6464317 -0.02618777 -0.5265435 0.11448862 0.52892864 -0.10133749 -0.38974014 -0.48876473 0.8572739 0.024581892 0.25245765 0.14380378 0.8360341 0.12731722 0.41510457 -0.62152064 -0.41302508 0.12968956 0.04817103 -0.15305401 -0.45569685 -0.7066584 0.2312115
8122 0.61247516 -0.16563147 -0.31698194 0.24667183 -0.24791059 -0.12694879 0.12868318 0.30916038 0.18042608 0.2787245 -1.3274627 0.45759463 0.47495148 -0.33698452 -1.0208927 -0.4679014 0.01716021 0.67712355 0.04627915 0.101413 -0.20737274 -0.64886755 0.30216706 0.013836258 0.029182203 0.5733369 0.20700985 0.5716322 0.23208864 -0.23092102 -0.446802 0.4281891
927 0.6067437 0.43120182 -0.14068818 0.64477056 -0.14911129 0.040940676 -0.2502316 -0.01265579 1.1173098 0.48464313 -0.2234204 0.40981263 -0.25545552 -0.35750735 -0.22797947 0.18951711 0.08812558 -0.012612922 -0.2506125 0.5898617 0.27985176 0.10208015 0.5372758 0.49714318 0.36087188 0.35984132 0.79926413 -0.18341045 0.31075203 -0.1296798 -0.45359823 -0.9546766
7522 0.55286175 0.10796149 -0.21750233 -0.13695525 -0.34612048 0.13206331 0.17114222 0.262725 -0.0041985903 0.3971576 -1.2568029 0.47243866 0.5416152 -0.16059904 -0.8558256 -0.17682852 -0.0067673945 0.68722034 0.106823504 -0.19080745 -0.27917933 -0.5764013 0.17153929 -0.122390956 0.23983839 0.5228071 0.50749505 0.6940421 0.6866212 -0.5611078 -0.58994603 0.46305358
7137 0.79657984 0.29669058 0.07711289 -0.1556795 -0.15815131 -0.49987334 -0.48804867 0.115586676 0.8556528 0.87375003 -0.61204773 -0.17422152 0.10397566 0.23526546 -0.08265779 -0.24178237 -0.12660185 0.58992946 0.048608806 -0.13820238 -0.07092755 0.84960586 -0.4122518 -0.10516296 -0.13634653 0.010937787 0.20026958 0.0989246 0.17014669 -0.8365388 -1.1678334 0.58746576
1430 0.71017474 -0.2956132 -0.39648744 0.3506743 -0.55435246 0.23833945 0.1419815 0.18533483 -0.11036291 0.6791303 -1.0383316 0.52573156 0.40122387 -0.109454654 -1.0143337 -0.28056404 -0.08486654 0.7313933 0.28230676 -0.33481374 -0.19367221 -0.80806065 0.4650329 -0.22660594 0.0067840344 0.547791 0.61647475 0.3403743 0.74127626 -0.38826808 -0.2785271 0.4419807
1299 0.5252802 0.48653254 -0.008964937 0.0092641525 -0.34169608 -0.32191908 -0.4255736 0.12377797 0.7476617 0.89407945 -0.72233045 -0.2576519 0.09383207 0.25621787 -0.53838134 -0.23499794 -0.089439735 0.5734223 0.010964473 0.026327636 -0.120295405 0.77736413 -0.5151438 -0.15563662 -0.2690714 0.24111848 0.057520043 0.030193722 -0.10095925 -0.6624617 -1.145336 0.17947675
5064 0.71609724 0.10089305 -0.40762618 0.031784616 -0.46499437 0.30866784 0.19143836 0.24881703 0.30758306 0.25787947 -1.0696747 1.2001817 0.31328958 -0.6075577 -0.79359895 -0.13446316 -0.095959574 0.532115 0.051267195 -0.095547006 -0.4891176 -0.68231815 0.5120507 -0.007167079 -0.11107482 0.31337875 0.2421538 0.3820122 -0.021904126 -0.13440722 -0.5492761 0.29579982
1779 0.67936283 0.20239402 -0.39721188 0.69716907 0.05543539 0.2663122 -0.5042518 -0.0687183 1.0320352 0.33145624 -0.35162222 0.53174764 -0.4712078 -0.32074308 0.13585179 0.06920681 0.2614929 0.046616342 -0.2725328 0.42292088 0.34201595 0.18001887 0.65447104 0.6405136 0.025591068 0.078777514 0.9718946 0.10590855 0.26178142 0.076035894 -0.6547992 -0.933796
3167 0.7179367 -0.09427752 -0.2488047 0.05329684 -0.45571727 -0.044953004 0.26047787 0.26170367 0.19584255 0.30357575 -1.3422883 0.4458785 0.20755494 -0.34675682 -0.9890866 -0.5609609 -0.20585704 0.3129781 -0.044006288 -0.10563544 -0.2334101 -0.7089331 0.3588036 -0.09096419 0.19427939 0.5327392 0.49554098 0.4365263 0.2975887 -0.32963634 -0.5890232 0.50474423
572 0.26059407 -0.42257932 -0.6173187 0.39033905 -0.122593954 0.22710143 -0.632847 -0.25329077 0.83662826 0.37419477 -0.5036708 0.2386506 -0.7218413 -0.47186062 -0.114745595 0.34107444 0.33625808 0.24529725 -0.15020756 0.36665288 0.2681421 0.10383932 0.7393213 0.70795953 -0.07125027 0.21157433 1.2912912 -0.06791262 0.23314154 0.15324506 -0.55746746 -0.88590455
4125 0.7145922 -0.23521817 -0.39336205 0.24448843 -0.60999364 0.33623266 0.2688463 0.088613726 0.077180125 0.7524366 -1.0287514 0.4099043 0.5081189 0.02937399 -1.010884 -0.26246393 -0.034381237 0.7698404 0.35316554 -0.3498208 -0.20914158 -0.87531066 0.53266126 -0.284926 0.25699288 0.6583716 0.8193603 0.28476724 0.7406413 -0.31787884 -0.27993274 0.48639828
5424 0.57961905 -0.19363785 -0.22204857 0.06641469 -0.5128053 0.1914191 -0.08642365 0.29954454 -0.04567767 0.7706505 -1.0313259 0.34263346 0.28889593 -0.18381044 -0.98728895 -0.40446514 -0.41195342 0.46516576 0.25425398 -0.062470052 -0.11014983 -0.7156693 0.5374826 -0.13154338 0.02117856 0.77596974 0.2778917 0.26824373 0.93228173 -0.43938652 -0.071713015 0.39745423
2876 0.6117995 0.0721527 -0.14463621 0.6231269 0.14484935 0.268705 -0.115040176 -0.06552631 1.0685066 0.49176276 -0.45550257 0.37600762 -0.4829578 -0.15696846 0.14421652 0.35140607 0.29147995 0.27368632 -0.20680632 0.4811479 0.09777036 0.10409427 0.73458385 0.72410023 -0.008836631 0.22982684 1.0476576 -0.050313093 0.27929702 -0.089473404 -0.43730846 -1.0349135
6966 0.7334369 -0.35352805 -0.4244875 0.31785065 -0.6756974 0.29371083 0.13278608 0.24565923 0.08425258 0.6206238 -0.86028606 0.58963907 0.3649251 -0.10034082 -1.1044154 -0.41361597 0.026705144 0.7198408 0.21284425 -0.46639875 -0.18626083 -0.8539516 0.44915128 -0.2435726 0.0863302 0.6789434 0.7927229 0.39188206 0.5250669 -0.25526157 -0.32368147 0.5069997
574 0.53305364 0.32848823 -0.26163688 0.6210748 0.160607 0.11081868 -0.1599301 0.104866646 1.1400427 0.41839805 -0.32804075 0.64481056 -0.30361116 -0.32819963 -0.007227223 0.15650187 0.02905357 -0.10149951 -0.2917073 0.33178243 0.36794063 0.2549916 0.70104116 0.5239621 0.17318098 0.21541941 0.8660935 -0.1119518 0.39912683 -0.10419298 -0.5385809 -0.9431603
5361 0.67252856 1.0710472 -0.0048768357 -0.2182256 0.11655545 0.2875625 0.29962802 -0.19255674 0.71500075 0.18191221 -0.60968965 0.60196096 0.36294988 -0.25719318 -0.056079403 0.7115399 -0.50711685 0.16967963 0.087320775 0.45852712 0.30699706 0.15796132 0.39852786 0.5086303 0.07890646 0.08508745 1.0511501 -0.4944372 -0.51344246 -0.16678274 -0.7015715 0.19789055
3813 1.4137509 -0.23361349 0.064764015 0.2863983 -0.44391936 -0.5323737 0.13280165 0.4500521 -0.066516 0.86333764 -0.35286123 -0.36729938 0.5810348 0.12958235 -0.18100768 0.15848896 -0.9090756 0.7086003 -0.083774716 0.6904682 0.29600236 0.37413672 0.87313664 0.7381623 -0.8993716 -0.68675256 0.16382265 -0.2879295 -0.50483745 0.12142962 -0.4313508 -0.39836076
2849 0.33786044 -0.28616208 -0.4574102 0.27886447 -0.27807558 0.14515121 -0.6738899 0.0076362723 0.6629399 0.393684 -0.62886727 0.20849508 -0.6269397 -0.6942203 -0.037706226 -0.086143166 0.106137305 0.2386833 -0.4154528 0.19053791 0.21463452 0.32618234 0.22857146 0.5083756 -0.08561759 0.2422624 1.4069906 0.050814245 0.36764568 -0.006950502 -0.34444958 -1.3004879
4870 0.7009373 -0.47436744 -0.32536468 0.14441039 -0.53197306 -0.3157493 -0.029504571 0.019582123 0.20236078 0.51918006 -1.3903158 0.31380725 0.45498794 -0.29063004 -0.8888093 -0.25965703 0.015108199 0.41956833 0.008847092 -0.04841233 -0.24658084 -0.8685162 0.28360674 -0.33873215 0.15089901 0.5522128 0.23992324 0.6052488 0.12213571 -0.3315331 -0.4726778 0.48274708
654 0.5037541 0.45174122 -0.45867413 0.94419 -0.21102528 -0.07763858 -0.16702364 0.0732825 1.004571 0.079944946 -0.5396901 0.55777454 -0.31983006 -0.23192146 0.21988711 0.43140173 0.20239562 0.042682964 -0.22522835 0.18741348 0.3642403 0.29940635 0.63432807 0.63281417 0.16754057 0.27533543 0.9001691 -0.14211734 0.20357883 0.20235062 -0.71709365 -0.7835172
1120 0.64830977 -0.31645828 -0.21260329 0.13190788 -0.64417356 0.007143881 0.34922773 -0.01998177 0.06269518 0.19474028 -1.2927308 0.37431312 0.6097494 -0.20660406 -1.0670837 -0.36139384 -0.1337079 0.51649797 0.10319149 -0.22562084 -0.39616653 -0.7230923 0.4363721 0.022444226 0.46073574 0.44299567 0.51848024 0.33593833 0.5508591 0.13764885 -0.7633873 0.40652224
1262 0.5989807 0.15444362 0.12806927 -0.07738573 -0.17583454 -0.10223489 -0.59277266 0.20565088 0.89275 0.95311755 -0.71468 -0.21722056 0.07764109 0.20278846 -0.16735227 -0.22442947 -0.20389621 0.6632038 0.022023968 -0.21483088 0.21078137 0.8924143 -0.5041875 -0.20278886 0.0007495482 0.06078213 0.2892787 -0.062245615 0.04792411 -0.9918141 -0.89868 0.44269446
3021 0.32198015 -0.113832034 -0.41717356 0.37875473 -0.41317615 0.0543227 -0.5833393 -0.39349467 0.617947 0.27038854 -0.38870344 -0.07396098 -0.9377865 -0.08467735 0.13733557 0.18566146 0.15241842 0.46051803 -0.29152408 0.11136751 0.01395308 -0.15347235 0.82664186 0.65444756 -0.04696549 0.3215057 1.3443905 -0.15641803 0.1429256 0.06550264 -0.74061704 -1.2373387
167 0.4693378 0.38551894 -0.26988584 0.61798424 -0.12742557 0.10614195 -0.3624698 0.0322616 1.2262489 0.36519203 -0.39389542 0.6481783 -0.13694125 -0.20199837 0.078155614 0.21304293 0.11344129 0.06254407 -0.2540875 0.4805497 0.25411847 0.4097722 0.4015325 0.62910753 0.29851314 0.1004563 1.009177 0.025754359 0.24827081 0.082312405 -0.53179467 -1.015639
4696 0.5350665 0.40662608 -0.48465258 0.82619315 -0.029230393 -0.3994089 -0.2079826 0.040373597 0.8632512 0.06377851 -0.28453583 0.48871538 -0.24906255 -0.12911221 0.0092536295 0.3621571 0.14434066 0.2684254 -0.17967628 0.7041366 0.14503884 0.37348056 0.58308446 0.38197523 0.16619514 0.37919372 0.930151 -0.44065598 0.25935033 -0.121400364 -0.5779986 -0.8439447
6103 0.65333277 0.5189429 0.14112432 0.11896744 -0.011416118 -0.16164412 -0.29568565 -0.044131853 0.9704791 0.64122343 -0.48707104 -0.083481066 -0.1216244 0.12886235 -0.8778172 -0.07323979 -0.009194909 0.26195487 -0.20301579 0.14738831 0.057753693 0.23350862 -0.330131 -0.37886408 -0.18480992 -0.20023641 0.40512764 0.26040488 -0.28466737 -0.70665073 -1.0184615 0.25459975
3528 0.46964604 -0.12612826 -0.54615706 0.1703479 -0.3762203 -0.076725185 0.2225058 0.47680292 0.23427494 0.37253785 -1.2681556 0.36595538 0.42262134 -0.12632267 -0.8742899 -0.54919773 -0.380663 0.23860824 -0.09988926 -0.05146644 -0.23320621 -0.7795208 0.44937328 -0.16369057 0.3575883 0.35190034 0.24531145 0.85314727 0.32340202 -0.17576478 -0.795537 0.47799686
1889 0.7511276 0.0054807956 0.31468928 0.17491747 -0.21765749 -0.5773708 -0.32210383 0.4578008 0.9559237 0.8405968 -0.5621545 -0.17355953 0.18860099 0.4662774 -0.4807675 0.11979835 -0.27039573 0.3988792 -0.2429079 -0.11129606 -0.09185485 0.27860212 -0.5647115 0.072042175 -0.3191261 -0.08187977 0.080199085 -0.13578898 -0.13692956 -0.6416687 -1.0952209 0.44865033
729 0.5580593 0.6050323 0.27201498 -0.5668955 -0.48603818 -0.37691182 -0.45727617 0.48084676 0.9161853 0.3726198 -0.49731064 -0.27938613 0.1451533 0.47549826 -0.005201742 0.1498089 -0.0065173507 0.6883443 -0.031536277 -0.18948993 0.25726116 0.69463974 -0.43992308 0.45496953 -0.20305197 0.29205725 0.56162417 0.21941034 0.12460171 -0.9310359 -1.0888221 0.5229487
8070 0.3289617 0.2633393 -0.13431002 0.29072678 -0.10685846 -0.008376704 -0.39082322 -0.22857447 1.036796 0.75690985 -0.40520847 0.6480566 -0.64776045 -0.16893634 0.03372213 0.22508378 0.13744853 0.26841897 -0.11581289 0.63090277 0.13832553 0.48372805 0.7653893 0.5702657 0.28407472 0.29281998 0.77960473 0.0041618464 0.30614296 0.16948774 -0.3915714 -1.0602685
5139 0.5565551 -0.29187363 -0.39598775 0.19991095 -0.49390292 0.098201714 0.19418536 0.14203519 0.14222927 0.24852805 -1.2458884 0.5157515 0.5031887 -0.169931 -0.9210579 -0.5744219 -0.09179454 0.5435248 -0.0042050155 -0.008233609 -0.26599512 -0.7314155 0.37139422 -0.028109368 0.2698579 0.5105249 0.49213877 0.5679584 0.4368469 -0.25057998 -0.6854623 0.49104622
5544 0.83620864 -0.13326828 -0.43446 0.041470915 -0.54210305 0.25048977 0.0933802 0.14642997 0.20499484 0.2742804 -1.367711 0.5705846 0.15394661 -0.25580734 -0.85899055 -0.2942982 -0.23322727 0.24922018 0.08835594 -0.1302595 -0.29029652 -0.87036395 0.26585597 0.03850295 0.26363242 0.33925813 0.27065593 0.45166293 0.1945182 -0.24384132 -0.7277003 0.43935788
521 0.61298764 0.3773535 0.26609772 -0.03175501 -0.50475854 -0.39799616 -0.45645937 0.2922659 0.86846066 0.7013125 -0.3169024 -0.41521633 0.233026 0.49762818 -0.40991133 -0.09977563 -0.12592937 0.5838838 0.20835292 -0.14375694 -0.057608727 0.6772964 -0.40585926 0.1775259 -0.3715327 0.13713989 0.33964038 -0.094673425 -0.038092054 -0.632646 -1.0946873 0.42100218
6621 0.559318 -0.3414343 -0.63367474 0.41308033 -0.49147448 0.18540128 -0.5185614 -0.21904203 0.5157198 0.14056383 -0.35522276 0.08701143 -1.0634149 -0.110888354 0.37566254 0.1428637 -0.07498959 0.18273234 -0.2502465 0.06500001 0.20773877 0.06554884 0.8057773 0.5137205 -0.17733021 0.12928097 1.5591196 0.34772655 0.43080097 -0.038060017 -0.6376213 -1.2223209
1312 0.37901375 -0.0067235795 -0.6154964 0.71126956 -0.18683514 0.018419622 -0.361772 -0.1334348 0.9589747 0.2602545 -0.30467847 0.3460606 -0.83313715 0.022386283 0.31476575 0.52977407 0.1272243 0.20971479 -0.12976827 0.1825236 0.17787144 0.057582524 0.70987654 0.58106023 -0.11209824 -0.0012703304 1.2147086 0.077009805 0.38281694 0.28120264 -0.8867964 -0.95165855
3309 0.84994245 -0.3658448 -0.35235965 0.11227091 -0.66293234 0.4200515 0.29676694 0.22472234 0.0007784585 0.5338659 -0.8759523 0.45547718 0.3650432 -0.11172382 -1.0458021 -0.33151457 -0.22477938 0.80767536 0.30373615 -0.13875541 -0.17101446 -0.60896426 0.55632603 -0.35165173 0.12392508 0.6576175 0.6933407 0.36012998 0.7332614 -0.24779251 -0.20857233 0.48952752
6199 0.5569477 0.40617734 0.26229954 0.12803401 -0.2803574 -0.38835657 -0.33158344 0.006183832 0.6622489 1.0692027 -0.49089694 -0.31677234 0.052440494 -0.08895379 -0.13848874 -0.27249295 -0.25375128 0.6980047 -0.03308771 0.06742303 -0.17389907 0.50822026 -0.54511505 0.11854844 -0.27649063 0.36290345 0.30286703 0.21854608 -0.30153164 -0.5173234 -1.2409741 0.7138619
3270 0.38605788 -0.45464227 -0.5099157 0.46145093 -0.11833928 0.51344275 -0.9125558 -0.36397195 0.8677289 0.41871673 -0.57552654 0.20399633 -0.6013026 -0.260366 0.13423802 0.5372496 0.42636707 0.18382265 -0.261196 0.30331686 0.33215502 0.08140786 0.7186039 0.6317301 -0.077671885 0.27332318 1.2891387 0.0019837033 0.248683 0.2157554 -0.5196942 -0.76549286
3375 0.16221571 -0.1336896 -0.32603776 0.40913305 -0.21387719 -0.062275667 -0.430989 -0.44570485 0.82445335 0.59024847 -0.4318511 0.1877443 -0.8998604 -0.20191263 0.3027947 0.24602163 -0.32673028 0.52685416 -0.3918238 -0.1310761 0.36568055 -0.38276753 0.3763454 0.5069663 -0.03778975 0.2857993 1.4903824 -0.22995324 0.3021313 0.0465572 -0.5030631 -1.3053669
1535 0.94017893 -0.44041145 -0.4542074 0.21921474 -0.49162227 0.61024034 0.28404972 0.19087252 0.32016397 0.46588245 -0.45508212 0.3534957 0.41291514 -0.22896206 -0.9540866 -0.7751151 -0.5331063 0.9972318 -0.1419789 -0.22216088 -0.089575745 -0.75459474 0.42929217 -0.12641835 0.099701956 0.44004774 0.57623696 0.055595584 0.8088863 -0.48208 -0.21585505 0.8330221
6471 0.90288496 -0.76900566 0.011458707 -0.07061656 -0.73128325 -0.49262223 0.23046266 0.3107077 0.53634727 0.77272874 -0.18189232 -0.6009847 0.50010717 0.61843276 -0.09946711 0.002928025 -0.5399399 1.2232388 -0.29020944 0.2744583 0.38605347 0.7700622 0.627655 0.8644483 -0.6720947 -0.3575284 -0.07152806 -0.15429401 -0.02644275 -0.12908572 -0.588222 0.03469376
1340 0.81331956 0.3264131 0.03861016 -0.19702385 -0.31538162 -0.5044824 -0.3665297 -0.16520809 0.8882157 0.90418625 -0.782379 -0.33081278 0.11329163 0.42330438 -0.44584203 -0.273177 -0.10244692 0.41842648 -0.003870449 -0.13182043 0.114910156 0.6426307 -0.52438337 -0.09501741 -0.10296062 0.15443109 0.14471784 -0.019736102 0.046398357 -0.6905695 -0.9926137 0.47398135
3815 0.70495725 0.24757962 -0.03325535 0.223139 0.051712718 -0.11008912 -0.3346237 -0.070974596 0.965449 0.35137987 -0.4395164 0.43360654 -0.5787137 -0.18416238 -0.20680635 0.1871348 0.2587853 0.060984403 -0.11956492 0.56085294 0.4542346 0.15169835 0.6270579 0.62558305 0.21541324 0.07200455 0.98605126 0.05063929 -0.022054864 -0.020465156 -0.37992272 -0.97267795
7939 0.6811539 0.6849867 -0.55929893 0.52374786 0.13512287 -0.5517248 0.12171634 -0.2150855 0.75547105 0.36209223 -0.5641488 0.7917475 -0.15056066 -0.50372463 -0.37173212 0.4135133 -0.024105974 0.19439143 -0.1545551 0.28210288 -0.039167102 0.020360732 0.46098712 0.48204654 0.041995972 0.059409462 0.7368737 -0.004302118 -0.22426039 -0.24331535 -0.11207842 -0.36196283
3772 0.6735924 -0.32360646 -0.4682081 0.15020475 -0.36562175 0.23613265 0.15308422 0.3689649 0.031229248 0.5533437 -0.9248211 0.45070446 0.42925143 0.1420985 -0.98912656 -0.22761245 -0.30043808 0.61626965 0.25525662 -0.14830886 -0.36315012 -1.0429165 0.4974907 -0.109585695 0.10552824 0.7455839 0.5423606 0.22345558 0.60309976 -0.12502676 -0.45413688 0.4622345
4346 0.4371876 0.29024276 -0.58380395 0.6476645 -0.3699228 -0.1489064 -0.28387666 0.09017498 0.98129797 0.4304465 -0.5365624 0.6392843 -0.35372537 -0.4639469 0.24862061 0.37656158 0.080128245 0.06675778 -0.08362677 0.42309657 0.64063334 0.122603334 0.41320416 0.64921385 0.38858256 0.011012853 0.8580799 -0.23344532 0.4628661 -0.22355315 -0.5426516 -1.0573951
3189 0.74611795 -1.000356 0.026711972 -0.09707582 -0.50603014 -0.19830467 -0.22963877 0.10942573 1.003785 0.9143024 0.11884072 -0.5667306 0.77907836 0.13409849 -0.14557494 -0.30589464 -0.84279495 1.3673002 -0.4708122 -0.1781157 0.13054584 0.4897739 0.3739216 0.6854879 -0.59913397 0.022569317 -0.28710714 -0.1716951 0.3181662 -0.03262619 -0.83154553 0.08413938
4540 0.75751 0.4277196 -0.45021743 0.6749246 -0.1669101 -0.27504715 -0.11515486 0.012900468 1.0181885 0.05028501 -0.31213528 0.58577454 -0.47561795 -0.30917677 0.16583204 0.26476052 0.1043349 -0.053648822 -0.097137176 0.2863744 0.36298013 0.31228697 0.5331715 0.4458914 0.24531075 0.21992405 0.8637726 -0.2764117 0.10659363 0.1206645 -0.6077677 -0.5014103
738 0.68317497 -0.40579072 -0.36145467 -0.031977482 -0.5818526 -0.053611886 0.18889385 0.13746683 0.019232579 0.2859528 -1.2746315 0.46583498 0.24807626 -0.18613747 -0.99884564 -0.4063598 -0.06995167 0.65757054 -0.03268702 0.029163474 -0.23673254 -0.94630295 0.37424347 -0.14109005 0.21655586 0.43451995 0.42658696 0.57401323 0.44191065 -0.18378162 -0.692506 0.3949341
7884 0.84362596 0.2280597 0.51923215 -0.043847412 -0.18980761 -0.3607429 -0.5239142 0.16069484 1.0339429 0.7734712 -0.48586217 -0.11651364 0.25701573 0.34679922 -0.38029903 -0.5088922 -0.2430777 0.49624348 -0.050024115 -0.24862555 -0.034060694 0.758483 -0.38985196 0.06336395 -0.5465194 0.217416 0.19198889 0.045002602 0.06095469 -0.6277596 -0.90412146 0.3914268
280 0.32409737 0.07492879 -0.47091544 0.49302748 -0.0052611525 0.13980772 -0.45279527 -0.1359621 0.9057857 0.4512739 -0.40584543 0.4544185 -0.5473968 -0.06932919 0.24350144 0.5560675 0.13478318 0.22043389 -0.19937404 0.1621772 0.25463367 0.011760807 0.5408521 0.7325064 -0.037183467 -0.0672554 1.3673081 0.115640774 0.4811235 0.0406255 -0.5266907 -1.0067397
8331 0.92533517 0.075339004 -0.592061 0.015197485 -0.65945214 0.15813328 0.17084558 0.23731053 0.2254622 0.20515785 -1.1602688 0.91419375 0.26761067 -0.34395486 -0.9806886 -0.23783123 -0.1572516 0.5337444 0.097767614 -0.037751026 -0.5206425 -0.64165604 0.27705368 0.15368977 0.2894536 0.35308892 0.18572024 0.27170193 0.094385706 -0.19929269 -0.4550694 0.23247917
3540 0.6510116 -0.02479649 -0.32715392 0.41680285 -0.3189904 -0.14275348 0.31218675 0.21311018 0.32075274 0.13752034 -1.2523676 0.42349818 0.2630153 -0.4698329 -0.87639374 -0.10651743 0.20089872 0.28602618 -0.09395283 0.3943773 -0.38713717 -0.54535556 0.5722322 0.072652735 0.22837597 0.14792039 0.9318934 0.6137017 0.28349525 -0.03854099 -0.18593661 0.7420043
3196 0.8208378 -0.14883868 -0.048119005 0.14017716 -0.21098834 -0.6773076 0.06378833 0.44914937 1.1731035 0.090813585 -0.3709871 0.43116024 -0.47632733 -0.17389964 0.07736855 0.6261287 0.04375433 -0.48491737 0.24764037 0.5097165 0.3945027 0.10480261 0.50471896 0.09299234 -0.26107988 1.430126 1.0702926 -0.41382006 0.18690732 -0.16864838 -0.4610992 -0.74068314
488 0.87341696 -0.8529763 0.16063067 -0.10126628 -0.49122807 -0.019925356 -0.04617837 0.49613714 0.5667832 0.9919573 -0.06407677 -0.43979028 0.58761656 0.32069468 -0.018287295 -0.25491494 -0.73135114 1.2518474 -0.41301638 0.008459574 0.31860468 0.5527143 0.668781 0.6984841 -0.72622347 -0.4968274 -0.0031323368 -0.23856394 -0.23831464 -0.5178042 -0.59632313 -0.033461157
3648 0.4177075 0.19624999 -0.7563631 0.7647161 -0.058250483 -0.29807797 -0.43836394 -0.0983485 0.8749115 -0.2063822 -0.6998534 0.5363432 -0.19006462 -0.23682524 0.37467134 0.39861098 0.06116943 0.30673683 -0.28113833 0.65435314 -0.05340603 0.6408768 0.7064265 0.16459002 0.016130988 0.31437284 0.8093708 -0.12461124 0.3604523 -0.0968365 -0.8000217 -1.1281351
7728 0.9810287 0.12516092 0.5267014 -0.16662624 -0.36426196 -0.41620156 -0.672692 0.3329568 1.0106012 0.81086946 -0.36477768 -0.30298775 0.18923852 0.085319065 -0.23899956 -0.23634075 -0.18802212 0.27642214 0.18432757 -0.22530185 0.097638786 0.7719852 -0.36326113 0.352854 -0.45432624 -0.09310759 0.276204 0.17056602 0.24162434 -0.7446045 -1.0488272 0.6685466
1147 0.773329 0.29974926 0.46333215 0.03458475 -0.3028407 -0.48599735 -0.5992799 0.39307758 0.8986559 0.7526387 -0.4428595 -0.36817965 0.2638631 0.41813347 -0.34671113 -0.36072636 -0.30882785 0.5225737 0.08237526 0.071715 0.11003597 0.6097557 -0.37788674 0.124739714 -0.39984095 0.09895531 0.21014148 -0.006548047 0.048767883 -0.7001844 -1.0059392 0.5087398
5138 0.29296523 0.069184385 -0.51847917 0.6601621 -0.3946911 0.013285896 -0.6010666 -0.17354247 0.71052283 0.30622336 -0.40156955 0.21434973 -0.8124847 -0.1604531 0.25953594 0.37203792 0.06691691 0.09679854 -0.109130435 0.08283645 -0.04500421 -0.12129267 0.83048475 0.49187627 -0.21491739 0.007869116 1.2897114 -0.028269203 0.22890091 0.33546206 -0.8927885 -1.0984867
2958 0.6731887 -0.29158702 -0.44948292 -0.039170153 -0.73840123 -0.037525576 0.2157936 0.2890042 0.17226587 0.32489097 -1.3215528 0.47090334 0.54215574 -0.29460555 -1.0383108 -0.47116056 -0.05824272 0.66683817 -0.13799734 -0.029127847 -0.23223951 -0.9036934 0.39372328 -0.15415558 0.3114104 0.47460604 0.54791194 0.41191563 0.3518533 -0.22736323 -0.5521338 0.42856908
5838 0.9833899 0.015295676 0.47645307 0.24655597 0.007666894 -0.57750285 -0.18789473 0.38866782 0.32794487 0.59017205 -0.335321 0.07464206 -0.32408127 -0.5071698 -0.2013718 0.8021821 -0.18886629 0.355832 0.13524824 0.8366373 0.14077109 0.06272504 0.38536727 0.56529194 -0.07212611 0.14068434 0.6058242 -0.38117096 -0.6565041 -0.15084666 -0.2671835 -0.7815973
5654 0.5146814 0.12339253 -0.20778129 0.33143333 0.08341563 -0.14917399 -0.2879291 -0.042591106 1.065911 0.4748323 -0.42710817 0.51932836 -0.5746478 -0.26902086 -0.15438695 0.0872153 0.052957457 0.23624018 -0.1659437 0.82505476 0.20674707 0.12687926 0.66294914 0.4167088 0.49617442 0.30748165 0.8462405 -0.35471532 -0.010300483 0.041668206 -0.50562376 -0.9735043
1842 0.59772885 0.509608 0.12694387 0.012192656 -0.09480327 -0.40756983 -0.5161556 0.16231064 0.73710626 0.9257496 -0.7727987 -0.22241719 0.06018847 0.41588435 -0.38572833 -0.25230244 -0.3407093 0.49838734 -0.14191733 -0.08358807 -0.07472477 0.56932247 -0.54164743 0.036140714 -0.122406445 0.17311276 0.094879255 0.05918764 0.09666724 -0.7265298 -1.1259887 0.42756617
4655 0.67487913 0.27382216 -0.08236615 0.40425214 0.19724526 -0.07612346 -0.327286 -0.23101598 0.86266965 0.6373107 -0.49681193 0.3860625 -0.6785727 -0.092693344 0.013642501 0.22382928 0.22715633 0.25791 -0.13615091 0.5646261 0.27645308 0.008441786 0.63652915 0.52691495 0.23493324 0.3825364 0.8951411 -0.308672 0.024627034 -0.047876738 -0.32084358 -0.8806418
6193 0.418203 0.2575335 -0.25559804 0.6735323 -0.060368955 -0.053695276 -0.26769212 -0.0038838359 1.1317183 0.37503666 -0.39566272 0.66871494 -0.22065164 -0.23689905 -0.012118085 0.18654901 0.13601176 -0.12434179 -0.36810598 0.3927358 0.39181072 0.27913383 0.45659086 0.60091347 0.28027424 0.24919225 0.9960367 -0.042433154 0.44129062 -0.037191477 -0.64079744 -1.0527196
1099 1.2695227 0.8757629 -0.44500908 0.23886752 0.06489036 -0.5819255 0.26611197 0.21489993 0.14498074 0.8708202 -0.71859914 0.27098182 0.5445027 -0.35908544 -0.06550813 0.6448325 -0.32015222 0.33428696 -0.17109336 0.33833236 -0.08115668 0.06678333 0.41754213 0.5682298 -0.42021137 -0.23192409 0.63913065 -0.111449175 -0.48778823 0.3126627 -0.115076564 -0.15912472
5753 0.96284056 0.25280634 0.26395553 -0.1437593 -0.44730237 -0.07458366 -0.7725085 0.2485136 0.9245717 0.559569 -0.3417347 -0.43721813 0.22771405 0.28694504 -0.24657814 -0.22404751 -0.15180154 0.32653558 0.35492817 -0.44982648 0.0041522845 0.82078445 -0.30182463 0.22740729 -0.50611436 0.25165513 0.1178968 -0.029067485 0.070260204 -0.60385895 -1.294693 0.4703099
2266 0.713789 -1.1501467 -0.06756379 0.19974265 -0.52410346 -0.5261538 -0.08041069 0.46432585 0.82457966 0.65947104 -0.16252178 -0.37956178 0.45526028 0.5869272 -0.04102534 -0.46796405 -0.43795118 1.2681427 -0.5375711 -0.15000334 0.2567143 0.8424835 0.2906823 0.85379106 -0.65253156 -0.333979 0.083841644 -0.007303347 0.08834183 -0.019323794 -0.62714624 0.3130577
7983 0.5953046 0.41309342 0.094363116 0.038570505 -0.16509998 -0.06197901 -0.71133554 0.32416672 0.8273389 1.0547644 -0.5805296 -0.3702648 0.12565427 0.30973622 -0.30130574 -0.21723397 -0.33130598 0.23464221 -0.30826738 -0.34948102 -0.05646272 0.55238146 -0.48461792 0.041155767 -0.24828088 0.09192184 0.2529246 0.2222786 -0.0069022975 -0.85927737 -1.06229 0.3745273
1511 0.4168029 -0.41037217 -0.30816725 0.5032752 0.012111682 0.3355832 -0.5557551 -0.34398827 0.90291935 0.4152075 -0.6138678 0.5172743 -0.56669307 -0.42440626 0.11247905 0.5381443 0.3352951 0.3105632 -0.17685239 0.27134812 0.23249699 0.22658858 0.7299863 0.666528 -0.10478516 0.41284972 1.0175525 -0.019850004 0.24510664 0.23344512 -0.6081344 -1.0381738
1171 0.74806184 -0.09379559 -0.2343216 -0.12016586 -0.62061983 -0.09529859 0.08510398 0.21754096 0.4288285 0.12336207 -1.2455009 0.5016997 0.49913365 -0.36044806 -0.90198666 -0.39147535 -0.08644338 0.4369745 0.20158812 0.028863871 -0.22807132 -0.95065486 0.02571992 -0.14411794 0.07784402 0.74925995 0.5176219 0.44252717 0.2419776 -0.06213581 -0.4417138 0.19030961
9 0.41401693 -0.023702368 -0.51215255 0.4318165 -0.36536238 0.28136864 -0.35775155 -0.41098097 0.8035864 0.15891625 -0.32839164 0.15224999 -0.780572 0.2211269 0.32148927 0.13146013 0.0996374 0.6541501 -0.22190735 0.012860884 0.13967438 -0.27027118 0.7149116 0.6523677 -0.07815168 0.2791165 1.4087228 5.6722227e-05 0.037389923 0.20461725 -0.66079724 -1.2882116
2241 0.7902499 0.47989428 0.13274251 -0.13166621 -0.50209856 -0.6385246 -0.33739895 0.102895066 0.7540946 0.909843 -0.5972401 -0.12588562 0.006302603 0.38134786 -0.3465634 -0.121006176 -0.18950196 0.39842117 -0.23146 -0.058865264 -0.19231503 0.44612402 -0.49393418 -0.095176175 -0.22113733 0.09926369 0.06391705 0.12338442 -0.01912872 -0.75251716 -1.2164093 0.34059927
448 0.4783527 0.4240267 -0.41702226 0.63141805 -0.35897484 0.011263933 -0.2967224 0.028282164 1.1540823 0.3481237 -0.42275643 0.6352608 -0.29927316 -0.13557032 0.22873075 0.32657042 0.25981638 0.048442002 -0.12179289 0.4440734 0.1287362 0.39521614 0.6652792 0.61704767 0.20505698 0.16619284 0.9421654 0.053592905 0.2965673 0.21388574 -0.6508515 -1.042986
1857 0.55800325 0.18649086 -0.034510963 -0.10534663 -0.43915147 -0.51162446 -0.39861712 0.2677034 0.8336801 0.85474366 -0.56105614 -0.3948233 0.2701275 0.36557186 -0.46231145 0.054141976 -0.09672261 0.5925297 -0.061749298 -0.11163724 -0.056689348 0.5808823 -0.47582254 -0.050560854 -0.27214113 0.015765157 0.1451721 -0.15162311 -0.029509338 -0.6887448 -1.0823799 0.48871252
1989 0.82674944 0.22056508 0.27869424 -0.026227208 -0.3272658 -0.5305729 -0.47964898 0.6210213 0.61482006 0.79351574 -0.2864316 -0.13191363 0.35369003 0.37976053 -0.58503705 -0.09575647 -0.091230154 0.51209474 -0.13044012 0.04046152 0.041496314 0.7871827 -0.48510742 0.07107164 -0.48699278 0.17122093 0.29815352 -0.029699914 -0.076099314 -0.70460916 -0.99305177 0.41354716
2978 0.7942839 -0.5315536 -0.8132183 0.29145738 -0.6588094 -0.18148515 -0.050756168 0.23311448 -0.750176 0.47780654 -1.1322812 0.1597969 0.15124099 0.057201713 -0.67787325 0.23149373 -0.57277596 0.4196596 0.3254045 0.16111098 0.16228116 -0.7341359 0.55914193 0.2106644 0.16945209 0.17357105 -0.112315185 0.78822213 1.5222895 0.19583017 -1.3364649 0.058255307
6883 0.6020445 0.06458972 -0.35613903 0.39856723 -0.23869273 0.3511261 -0.057865825 -0.42185518 0.508114 0.45810932 -0.41991764 0.15383269 -0.8181709 -0.22027688 0.038859796 0.29340413 -0.1596668 0.3874555 -0.22537337 0.21417819 0.1572907 -0.101606354 0.74121994 0.53419906 -0.16199706 0.3425016 1.3415787 -0.23944944 0.12717593 -0.11533266 -0.4802309 -1.3553121
5309 0.767081 0.13153528 0.26721752 0.038658086 -0.3639429 -0.5132437 -0.49722153 0.31334376 0.7831434 0.81407636 -0.4303166 -0.24328099 0.11931559 0.52034163 -0.290792 -0.014153051 -0.21594273 0.3849209 -0.19932203 -0.18538588 -0.16424069 0.59719074 -0.578857 -0.12392044 -0.24133803 0.08082672 0.31790996 0.10663825 -0.041391253 -0.6534074 -1.2578633 0.4428441
5277 0.6673966 0.28393784 -0.43135837 0.583762 0.084860474 0.01637584 -0.42635027 0.019446308 1.0906385 0.16025469 -0.5082587 0.48570552 -0.5388273 -0.1837481 0.07207881 0.21933313 0.2983656 0.20492506 -0.07538566 0.48949042 0.1526501 0.24584618 0.47422484 0.61892885 0.056849275 0.0645639 1.0660279 -0.2800179 0.3249788 0.03239122 -0.6345842 -0.95479107
4506 0.55321974 -0.42040133 -0.485608 0.24916552 -0.582834 0.34733596 0.33554313 0.22483723 0.066877 0.5260493 -0.95850456 0.36897218 0.46519625 -0.00545531 -1.0525545 -0.27482453 -0.24070683 0.7980952 0.21054287 -0.3474682 -0.2540456 -0.78451097 0.51646614 -0.12443906 0.035533205 0.69384 0.6482564 0.38291782 0.5567685 -0.20992866 -0.35903877 0.44350287
74 0.5249012 0.4006394 0.20606267 -0.14505188 -0.3772822 -0.35261708 -0.6000246 0.29088047 0.93999064 0.83556145 -0.5450478 -0.3181319 0.08160564 0.38404498 -0.2952907 -0.23566888 -0.2718594 0.4768445 -0.14626357 0.053046938 -0.034565955 0.7031423 -0.5412413 0.1590097 -0.053648412 0.111864604 0.16143875 0.119763695 -0.113225244 -0.6553453 -1.3265278 0.31042066
2622 0.8247884 0.27837113 0.3625829 0.4289192 -0.14320342 -0.38165292 -0.6072813 -0.32176307 0.613401 0.719552 -0.7925957 -0.05038463 0.008958977 -0.073859684 -0.025082868 -0.39249316 0.057162497 0.6489775 -0.18300334 -0.1617586 -0.071583286 0.5518782 -0.6088347 0.102403946 -0.58046144 0.42986715 0.32706544 0.38100824 -0.3483634 -0.47730556 -1.1509407 0.8892821
5910 0.6493663 0.2993596 -0.43633938 0.016658135 -0.4720118 0.43763107 0.042732615 -0.057955492 0.17915207 0.3924282 -1.1376681 0.8824434 0.517865 -0.31855565 -0.832185 0.0029052964 -0.27434245 0.8952617 0.32987595 -0.2229601 -0.37803838 -0.5810352 0.57380146 0.14170222 0.2261158 0.35591063 0.2785375 0.13836157 0.15611792 -0.5022433 0.020178944 0.27957293
4411 0.89112 0.064163625 0.23578884 -0.323138 -0.25885138 -0.20104799 -0.6980788 0.06830909 1.001903 0.853556 0.25548694 -0.30408645 0.76177824 0.08621224 -0.28188384 -0.16085643 -0.19716631 1.1144611 -0.13077816 0.05992795 -0.07450573 0.16026245 -0.44654155 0.11164405 -0.49883878 0.38034904 0.32771257 -0.28558016 0.18759654 -0.74627066 -0.7637918 0.6674316
8092 0.6878822 -0.53136486 -0.59441847 0.4705051 -0.7159633 0.2875916 0.32980138 0.39293382 0.0894679 0.50441986 -0.9161232 0.51584595 0.37770256 -0.08702111 -1.0820426 -0.44128996 -0.028343732 0.9447334 0.17544825 -0.31859988 -0.19363244 -0.679653 0.5372466 -0.24719079 0.023635639 0.49302164 0.58245873 0.34383938 0.41952047 -0.26434177 -0.2522505 0.43560836
6676 0.44699544 0.3057417 -0.31851935 0.7664563 -0.28060853 -0.46592364 -0.41148663 -0.08080867 0.97643614 0.37295935 -0.2907676 0.28772572 -0.5557814 -0.2855509 -0.030141016 0.68311846 -0.31823885 -0.00821526 -0.34629586 0.3305335 0.6438594 -0.2182497 0.4006196 0.7662107 0.42613047 -0.23782928 0.81502867 -0.24038061 0.5304919 0.0382185 -0.6910711 -1.0128309
5452 0.20492014 -0.41793835 -0.46888533 0.5704266 -0.0740783 0.391747 -0.88920176 -0.39798608 0.76650476 0.4800797 -0.60003084 0.26358885 -0.6008338 -0.31325734 0.048700053 0.50131285 0.49170667 0.31412956 -0.14759614 0.21533537 0.21453883 0.12682423 0.8350792 0.63454145 -0.12345778 0.3012431 1.1847084 0.031686038 0.14979075 0.08721154 -0.6358419 -0.9987745
7013 0.749066 0.27523386 0.42638692 -0.06844805 -0.40341434 -0.5961595 -0.3553153 0.13545728 0.7884826 0.8438736 -0.34767377 -0.17788328 -0.14058618 0.33600777 -0.24166498 -0.19001186 -0.21088085 0.4885234 0.062091775 -0.07797103 -0.027046533 0.6099294 -0.59057987 0.18633388 -0.46462435 0.044904463 0.33637795 -0.0030564826 0.18549949 -0.8552076 -1.2229594 0.40444398
4658 0.6895946 -0.89133394 0.11904858 0.20190686 -0.5587601 -0.5587964 0.093362264 0.3771721 0.9048017 0.7857946 0.031341847 -0.68990505 0.5382365 0.97335523 -0.11372681 -0.26241514 -0.8872915 1.0387971 -0.096705504 0.43203744 0.03254235 0.44827557 0.8034644 0.6720274 -0.3132475 -0.5970224 0.28264606 -0.21972592 -0.009783319 0.054396976 -0.814789 0.26694897
5420 0.344201 -0.8151481 -0.124965645 -0.007288587 -0.22043644 -1.1975634 -1.073875 0.42874417 -0.09158721 0.68892455 -0.9310595 0.3441856 0.30670252 0.12243693 0.7170791 -0.104743816 -0.52549344 0.67117596 0.06155598 -1.3363274 0.821552 0.4724383 1.9999409 -0.29371467 0.50461966 0.26876134 1.0256783 0.58982414 0.21149512 0.77309483 -1.1177646 0.3705989
5906 0.6747868 0.44254503 -0.11875823 0.5077074 -0.15495951 0.11506595 -0.31725493 -0.07849486 1.2218367 0.39558512 -0.48587146 0.6028079 -0.26228297 -0.19063257 0.17965268 0.12681289 0.20051387 -0.23381624 -0.29924583 0.3164924 0.31725183 0.2609308 0.7061008 0.6897155 0.20465323 0.048394747 0.8788053 0.12556039 0.24624316 0.05860097 -0.580097 -1.0451208
5783 0.6777165 0.8550117 0.10768892 0.20184821 0.16749501 -0.52322996 0.069863975 0.13183595 0.33112648 1.3341343 -0.9443305 -0.2616157 -0.07369274 -0.10520373 0.032886922 0.1391475 -0.30189282 0.53612566 -0.1716588 0.2612116 -0.2031146 0.47255367 -0.42949063 0.3070917 -0.14891642 0.25203478 0.24113606 0.26611024 -0.5650365 -0.31677794 -0.7198197 0.08220244
573 0.71617335 0.24303268 -0.61098856 0.8018403 -0.39699987 -0.18556769 -0.356742 0.07025701 1.1695203 0.23184705 -0.28234118 0.61085415 -0.2112246 -0.21004936 0.26450312 0.3586818 0.23730816 -0.18897854 0.02715545 0.35754812 0.39297935 0.046550293 0.49306187 0.8908931 0.3715554 0.037973784 0.7551418 -0.1958597 0.41795018 -0.08000897 -0.7106697 -1.0011678
8270 1.0901035 -0.8187543 0.12540102 0.17049204 -0.8233304 -0.37211683 -0.19217025 0.16808686 0.36866605 0.64899004 -0.22563 -0.58711755 0.59335697 0.6537212 0.0148282675 -0.24807858 -0.56884545 1.056356 -0.3339517 0.27310365 0.20488401 0.60337996 0.70630664 0.684047 -0.6770115 -0.58336675 -0.11853282 -0.23089898 -0.2844743 -0.15036383 -0.74352217 -0.11546958
6530 0.635365 -0.303593 -0.42943457 0.17813823 -0.5079075 -0.05084046 0.22974293 0.29303822 0.15371655 0.35594606 -1.0789132 0.5742872 0.4714589 -0.23932622 -1.0475813 -0.42736205 -0.17532423 0.4129207 -0.13252167 -0.12648042 -0.13623692 -0.9120803 0.3888333 -0.20765492 0.38716513 0.68171173 0.4743015 0.5498585 0.37455767 -0.1714097 -0.7527432 0.44546357
6186 0.60742277 -0.30465674 -0.196304 0.6240305 0.09837094 0.19494782 -0.41573226 -0.05013037 0.9600854 0.4274959 -0.31075358 0.38853532 -0.4702222 -0.619119 0.043454856 0.46573633 0.33266982 0.2990557 -0.12546808 0.56946874 0.29775724 0.1730648 0.7488666 0.50581723 -0.016162906 0.2329421 0.91281885 -0.14486435 0.055069126 0.13810186 -0.6107421 -0.8739096
4488 0.10245063 0.022801867 -0.6367209 0.63632894 -0.3324823 -0.23703302 -0.4560798 -0.1900572 0.96360075 0.46638593 -0.31695962 0.13145815 -0.761165 -0.4222089 0.21285243 0.5487232 -0.37947676 0.0520636 -0.118563525 0.089034304 0.16292353 -0.0084571885 0.6026144 0.52136695 0.06914683 -0.090254664 1.2462755 0.07455251 0.5143296 0.03352487 -0.6851058 -1.0472535
4819 0.62344086 -0.21809469 -0.48199326 0.10523939 -0.5735226 -0.012849413 0.150157 0.041532055 0.23238406 0.49123412 -1.2823452 0.41932237 0.48621106 -0.25288957 -0.96469676 -0.42457348 -0.15364622 0.4201518 0.15203115 0.04124274 -0.26533034 -0.77444386 0.46968892 -0.12375857 0.116592325 0.5354003 0.32354668 0.61143804 0.36988905 -0.14877962 -0.490102 0.5623176
627 0.62561506 -0.14819987 -0.4301887 0.2631109 -0.63118863 -0.009172804 0.06451897 0.31678087 0.068964034 0.45693588 -1.263057 0.5320922 0.55392087 -0.25217763 -0.9509419 -0.5527119 0.04127907 0.48918077 -0.027754541 0.08829185 -0.049217828 -0.8233258 0.24513146 -0.23319665 0.23796101 0.45554698 0.37059465 0.6134117 0.40533796 -0.15873314 -0.67410153 0.4686263
6837 0.5723759 0.60493857 -0.60208744 0.7414562 -0.018103683 0.09475181 -0.28653476 0.05628484 0.9473836 0.04442182 -0.65653604 0.35570306 -0.5466463 -0.17734812 0.17564838 0.5061313 0.16764797 0.17621355 -0.18658979 0.18103637 0.65673923 0.32785538 0.743465 0.6964019 0.19825788 0.2267993 0.7656058 0.03841621 0.3210545 0.2889255 -0.79555386 -0.90822166
589 0.7958039 -0.44125038 0.12482385 -0.2336952 -0.5092429 -0.5100514 -0.35983154 0.1441282 0.9145759 0.701019 0.06410716 -0.4956191 0.4201658 0.44545177 -0.6773558 0.11071528 -0.35196617 0.9843731 -0.37991098 -0.21208788 0.20872563 0.6376276 -0.03036171 0.52020633 -0.71083236 -0.14494549 0.042095847 -0.042167418 -0.21522842 -0.45539883 -0.8206628 0.45558777
1257 0.92906064 0.111139625 0.50423753 0.09553551 -0.18638702 -0.407792 -0.3767639 0.28364342 0.84887713 0.70965326 -0.75122994 0.03155686 -0.12450064 0.4282206 -0.17616017 -0.16906977 -0.1787361 0.4293934 0.036940847 0.019489499 -0.03936683 0.59248626 -0.61207604 0.10166085 -0.4727782 -0.12130241 0.10451503 0.27379242 0.06938673 -0.78277344 -1.166323 0.30075583
6827 0.64114106 0.46944758 0.35759428 -0.7011559 -0.65979207 -0.4192149 -0.40122616 0.5392152 0.9032801 0.36379382 -0.254144 -0.4346241 0.089689255 0.21404573 -0.027568147 0.061013002 0.2212877 0.6949581 -0.3493111 -0.13637215 0.22155942 0.58806777 -0.33087873 0.21567786 -0.16455582 0.4806861 0.679864 0.068459794 0.36458278 -0.77099425 -1.254217 0.5486697
3767 0.52656287 -0.05776725 -0.35170737 0.18464097 -0.21040058 0.012163016 0.12806167 0.32871693 0.06696086 0.31772614 -1.3555534 0.27411765 0.2014891 -0.33096492 -0.9802552 -0.39610037 -0.24948846 0.37958878 0.18971622 0.23535454 -0.30769932 -0.6461299 0.1648069 0.15005438 0.46091413 0.29090813 0.55998206 0.70814013 0.43396142 -0.19360791 -0.72426224 0.62551016
6422 0.7284549 -0.04210816 -0.5490302 0.17905046 -0.48494968 0.090653405 0.00055740675 -0.04793552 -0.14293803 0.2388338 -1.2423782 0.33524427 0.35775134 -0.14046618 -0.8191941 -0.07530733 -0.34003624 0.6132751 -0.040903665 -0.17273605 -0.2515422 -0.9541585 0.4279606 -0.13106911 0.092663504 0.38684127 0.17415954 0.92819476 0.59334326 -0.040202416 -0.6978937 0.28289494
7896 0.37316367 -0.68846923 -0.22054002 -0.38268927 -0.6779707 -1.0442024 -1.3269697 0.28713524 -0.08632472 0.7587387 -0.6077543 0.3824268 0.5224779 0.19826138 0.44960564 -0.2732532 -0.24543385 0.39556825 0.14803056 -0.556033 0.92284185 0.44726634 1.8669723 -0.2235682 0.3389858 0.6500413 1.1713443 0.52351487 0.108550884 0.8713991 -1.1163561 0.6117495
7100 0.19677402 0.24641708 -0.55221605 0.83407253 -0.70507765 -0.32860968 -0.23244785 -0.18629083 0.73910755 0.63473046 -0.4087855 0.21405883 -0.73380095 -0.5767948 0.46101177 0.2656331 -0.16251568 0.0030961807 -0.08733373 0.055238917 0.47310728 0.020044345 0.4841689 0.6733109 0.15425152 0.03165757 1.0265514 0.40554532 0.54326314 -0.0039288215 -0.671639 -1.2166936
2356 0.5964722 0.011479425 0.6628387 -0.34049475 -0.42053816 -0.6735454 -0.5653159 0.20387669 0.7868275 0.7876461 -0.48055264 -0.113546856 0.386849 0.26988623 -0.41048485 -0.53849846 0.061556526 0.83757824 0.24980167 -0.40733096 0.08497422 0.6126143 -0.65825635 0.35646832 -0.85497904 -0.21078782 0.56460315 -0.07924639 0.083262615 -0.5753848 -0.99499977 0.21380824
2462 0.72548604 0.46596205 0.5622717 -0.47361726 -0.28357625 -0.17763159 -0.43731338 0.38741902 1.0479964 0.08395705 -0.49046004 -0.30822006 0.27492598 0.081380986 0.1573899 0.043399222 0.14989075 0.68593264 -0.26858923 -0.11869926 0.21763276 0.6329998 -0.31370038 0.346186 -0.40884578 0.38493425 0.62656826 0.27639803 0.46884176 -0.8801751 -1.1869032 0.49209645
3893 0.5942686 0.34980115 0.26698372 0.042401176 -0.45317635 -0.44550082 -0.31716657 -0.16862132 0.73431325 0.8513418 -0.66627645 -0.28114212 0.16840364 -0.20686503 -0.32318717 -0.28818798 -0.23500822 0.5531418 0.26875454 0.13715766 -0.18119691 0.44478264 -0.5915417 0.2745164 -0.36934194 0.35571733 0.08317229 0.040787835 -0.3177266 -0.40967658 -1.1363313 0.61321324
1832 0.62075794 0.42439568 -0.05107666 -0.15515906 -0.3744354 -0.48848203 -0.31356955 -0.0069538997 0.7034071 0.98308504 -0.7762335 -0.19304165 0.015294622 0.41748893 -0.38074332 -0.11868957 -0.03984175 0.5244702 -0.07644368 -0.09201394 -0.15923409 0.7814821 -0.45310518 -0.1760511 -0.110226594 0.13249438 0.119602725 -0.07903829 0.06388837 -0.63332236 -1.2028134 0.45735162
1326 1.0210861 -0.112565495 0.22415964 -0.14363645 -0.35598236 -0.41488776 -0.55294967 0.17233525 0.97557503 0.62380666 -0.8344082 -0.27604023 0.20838429 0.37668395 -0.14905639 -0.23841724 0.057619058 0.14996229 0.19877401 -0.28791526 0.10244118 0.79687405 -0.35886657 0.027816586 -0.2134399 0.074165724 0.21543397 0.133819 -0.1521649 -0.83048695 -0.8661765 0.5717312
2286 1.2986772 0.92166865 -0.28330332 0.3606189 0.10627971 -0.19605577 -0.10166769 -0.15425049 0.12361497 0.7801287 -0.5515357 0.45410094 0.13722432 -0.22273795 -0.23515794 0.65721375 -0.16161303 0.10472366 -0.080162585 0.50557625 0.16372554 0.51343036 0.41425952 0.21749869 -0.029188354 -0.19229901 0.8705619 -0.122172415 -0.6801049 -0.1252445 -0.384851 0.02657098
6531 0.40817392 -1.0412284 -0.007008895 0.15859818 -0.82652766 0.05274428 -0.2361617 0.5024625 1.08406 1.184391 0.03457179 -0.14132343 0.7752092 0.30880058 0.21268497 -0.32402566 -0.69617236 1.1489347 -0.45468363 0.047707524 0.31734553 0.5399145 0.42950842 0.41107458 -0.99198294 -0.24345618 -0.21782617 0.085586265 0.20868568 -0.52741385 -0.8257 0.054726
7003 0.62058806 0.6874234 -0.39436448 0.38821128 0.07217008 -0.5425349 0.2649884 0.043395903 0.47309428 0.5722879 -0.5982375 0.52078056 -0.0045749987 -0.39502573 -0.0050514103 0.2465809 -0.014914652 0.24908951 -0.07250794 0.5355832 -0.08135303 0.14465061 0.28939515 0.81419545 0.21898483 0.062850766 0.84145325 -0.15289615 -0.6363241 -0.20007621 -0.25620568 -0.13471507
4996 0.65023667 0.3718541 -0.22530583 0.47042313 -0.016151108 -0.075561546 -0.32855678 -0.020664126 1.0541769 0.44401503 -0.35165748 0.8424577 -0.5634079 -0.20522808 0.15413593 0.4365098 0.32708392 0.17326452 0.123212956 0.20311366 0.03880969 0.4038527 0.4947166 0.6920533 0.2094331 0.10437629 1.1567906 0.20577373 0.32519194 0.2881873 -0.42324528 -0.8382917
4688 0.43988267 -0.3906081 -0.670549 0.23093635 -0.51425856 -0.26073712 -0.31760752 -0.52016926 0.6211241 0.1883673 -0.15479957 -0.22649989 -0.7982029 -0.25937864 0.22966824 0.10353244 -0.33425733 0.2738807 -0.49805206 -0.08314562 0.30838266 -0.069821335 0.4944972 0.5248859 -0.023093348 0.5407124 1.7243676 0.25475147 0.4651446 0.12212676 -0.5131162 -1.236432
1908 0.58519053 0.53984284 -0.057804145 0.78939146 -0.30868554 -0.21812959 -0.35192713 0.17841168 1.0221785 0.018358182 -0.30129334 0.62515384 -0.32469755 -0.49142796 -0.10466951 0.17327419 0.06632397 0.062019166 -0.21760653 0.5073783 0.27455273 0.1386849 0.4020082 0.3989404 0.33537728 0.20094638 0.90435314 -0.34074455 0.23137414 0.103821434 -0.6257965 -0.65954417
4653 0.5970453 -0.06957137 -0.47662696 0.17002645 -0.50964504 -0.10796928 0.0217086 0.19965799 0.081127726 0.0896633 -1.4384229 0.46085447 0.35870472 -0.19465661 -1.073136 -0.4454319 -0.25511965 0.5419763 0.037364878 -0.026506893 -0.21151361 -0.65222615 0.4740035 0.09618571 0.41669467 0.5204739 0.30323732 0.5641114 0.41483837 -0.33465084 -0.44796574 0.45891014
1783 0.54146826 0.589337 -0.51165533 0.5552295 -0.04771889 -0.27344465 0.00079065404 0.12564081 0.92711014 -0.19957244 -0.5549533 0.47052386 -0.22231363 -0.22673024 0.07627838 0.61022 0.18033625 0.23304068 -0.021996286 0.39448783 0.35497674 0.36564186 0.55794585 0.4693651 0.1478046 0.35624623 1.0106542 -0.5689283 -0.078608796 0.32509091 -0.6944236 -0.39003372
3230 0.4522469 0.16882573 -0.4070602 0.6233243 -0.30977115 0.48031405 -0.3999693 -0.29885304 1.0623507 0.44297928 -0.5267208 0.35628802 -0.45812517 -0.04059763 0.2298763 0.50853264 0.21337046 0.1293687 -0.12170582 0.4332873 0.20003709 0.26214862 0.8765174 0.61349666 0.052037627 0.16761069 0.8973747 0.18322372 0.1924107 0.349811 -0.70835567 -1.0271863
3539 0.61718345 0.18011963 0.04780431 0.49065015 -0.14374253 -0.14142902 -0.41632694 -0.055536468 1.0109174 0.17550212 -0.4094885 0.49734738 -0.3538183 -0.3781012 -0.23572534 -0.060123183 0.08605563 0.08240457 -0.21808854 0.74605596 0.24788412 0.15492028 0.5954981 0.5546733 0.23149587 0.16109744 0.7903355 -0.35329273 0.09380208 -0.06817624 -0.6060402 -1.1943817
1248 1.078714 -0.17786479 0.25383356 0.22320221 -0.8227612 -0.6554609 -0.09420403 0.48055977 0.53454155 0.7700796 0.20191942 -0.5933042 0.18138772 0.6862887 -0.25861168 -0.33064598 -0.046398416 0.6779439 0.012525387 -0.03763531 0.09839883 0.7792568 -0.15318732 0.18685547 -0.34411833 -0.16854641 0.31678537 -0.21847722 -0.23045878 -0.52109694 -1.0162988 0.32143357
2144 0.89785045 0.29832202 0.18010446 -0.23120242 -0.1778678 -0.4841528 -0.4164615 0.009602271 1.000224 0.6965905 -0.8452599 -0.30930445 0.14547953 0.37967557 -0.24739462 -0.38118136 -0.09296101 0.425508 -0.03874797 -0.2592064 -0.013895133 0.7078807 -0.3993287 -0.08606711 -0.140502 0.029784702 0.20971598 0.13430674 0.06124176 -0.8242438 -0.989349 0.3284778
1916 0.71249247 -0.23323418 -0.46065924 0.118618466 -0.5886133 0.22203554 0.23513842 0.23473752 0.1284714 0.547476 -0.82705575 0.44791344 0.5947366 -0.10269111 -1.0036949 -0.36957014 -0.19869849 0.7563999 0.16819894 -0.20145583 -0.159231 -0.8951124 0.33063406 -0.086349696 0.043094583 0.66327184 0.512402 0.24272814 0.7534835 -0.18868071 -0.36171904 0.52248704
8353 0.6775881 0.13582104 -0.55483204 0.5337975 -0.29518867 0.17485152 -0.25595477 -0.3170443 0.8224992 0.22686966 -0.30897403 0.38328567 -0.8292504 0.068235695 0.34440562 0.25037742 0.14771001 0.43053177 -0.17334385 -0.018968878 0.11599665 0.0018608118 0.7117331 0.6749306 -0.16105044 0.10986036 1.144814 0.14757058 0.28629354 0.21249408 -0.72410184 -1.342619
2529 1.058543 0.20126909 0.40069914 -0.27115992 -0.25536755 -0.31587234 -0.59683496 0.13018934 0.858202 0.6054366 -0.28588054 -0.07858432 -0.03869595 0.16349082 -0.2696735 -0.23904447 -0.5181498 0.54530066 0.28093916 0.026169153 0.0843652 0.7097537 -0.7148766 -0.005647154 -0.5200199 -0.05862478 0.41121727 0.28636625 0.3272954 -0.57355773 -0.94285876 0.47400728
1818 1.148431 0.099386744 -0.3159142 0.14791809 -0.44084063 -0.756754 0.35809147 0.39176217 -0.13056445 1.1307597 -0.2836151 -0.3236831 0.875749 0.12823094 0.015275028 0.64843696 -0.5902332 0.62279874 0.15223359 0.7219264 0.4072512 0.31272846 0.89020693 0.602477 -0.7415689 -0.46312243 0.53793603 -0.3718802 -0.5609408 0.15373847 -0.52161354 -0.2410759
3710 0.9727335 -0.77173775 0.18536356 0.087500535 -0.7491962 -0.26828355 -0.13376446 0.24406531 0.40526944 0.70415413 -0.2389184 -0.61693054 0.49245206 0.6039133 -0.13427384 -0.26589516 -0.60160846 1.1639205 -0.42702395 0.20711763 0.14002411 0.67306906 0.7905462 0.8653003 -0.8706146 -0.40998855 0.0031416663 -0.06003249 -0.36687225 -0.28533763 -0.53469086 -0.06063188
341 0.80888873 0.536325 -0.48117295 0.16794857 0.18995564 -0.42113605 -0.45980513 -0.12771305 0.81512636 0.24763219 -0.26914006 0.07204702 -0.69842345 -0.83790916 0.121451445 0.16845877 -0.11908408 0.46435744 0.17238116 0.5647958 0.18269692 0.16325635 0.31085765 0.4777736 0.029718861 0.025386255 1.0264851 -0.13761115 -0.01821331 0.13700123 -0.55746365 -0.77256054
4695 0.6004342 -0.24457984 -0.3828117 0.13627861 -0.52389765 0.11103131 0.14063764 0.14388283 0.2253928 0.322193 -1.4079295 0.48676142 0.6196011 -0.270677 -1.0209864 -0.50117993 -0.07293149 0.49503618 0.0022052035 -0.20345846 -0.31918845 -0.6932141 0.29195365 -0.055561434 0.17407194 0.33192378 0.5989811 0.7413516 0.4052631 -0.41983572 -0.5013314 0.43801057
4953 0.5009261 -0.31185415 -0.42360222 0.31785154 -0.8001608 0.33125764 0.28152415 0.12777738 0.05510388 0.76778 -0.9604715 0.54993504 0.5722628 -0.2762942 -1.0595068 -0.2226123 -0.18725684 0.6579307 0.20842093 -0.20561486 -0.23312089 -0.7605674 0.5392325 -0.2995266 0.29950574 0.57687724 0.82609844 0.3567504 0.6478402 -0.46622193 -0.3359356 0.50871223
4588 0.6323651 -0.31160808 -0.18523999 0.21146256 -0.41324207 0.04419547 0.28051302 0.17824607 0.17984425 0.47818896 -1.4247487 0.2995164 0.3424561 -0.40494165 -0.9218359 -0.6571137 -0.122985385 0.4581068 -0.04317237 -0.053307913 -0.21347535 -0.76726997 0.48714083 -0.15737475 0.14710037 0.56954867 0.48687747 0.590998 0.14691511 -0.29203805 -0.48861104 0.40474695
6454 0.41385546 0.2946649 -0.343061 0.92091966 -0.228669 0.010325314 -0.2844563 -0.004901328 1.0335078 0.19612926 -0.394168 0.6025932 -0.677262 -0.021481175 0.17011581 0.46257 0.070396625 0.15961987 -0.020790016 0.2867678 0.21291175 0.093820885 0.69109595 0.57876354 -0.10223939 0.07924993 1.0947918 -0.08347909 0.27016336 0.08483633 -0.6552297 -0.91628665
1203 0.6308371 0.40981483 0.3791139 -0.104431644 -0.45341313 -0.62694645 -0.58052 0.16752996 0.89680684 0.8037462 -0.39703748 -0.27237144 0.17988098 0.28862435 -0.2454859 -0.19170663 -0.16262631 0.57591414 -0.041820634 -0.13954005 -0.07628397 0.57577825 -0.47675517 0.058400694 -0.2696726 0.028931756 0.3859159 -0.16018982 0.033489563 -0.7178552 -1.2109126 0.5789755
6003 0.93317 0.705681 -0.09589765 0.36475444 -0.16308755 -0.3924561 -0.23748282 -0.190507 0.41962004 0.4369969 -0.76068074 0.56379634 -0.36669654 -0.115553536 -0.13313293 0.38273305 -0.006574756 -0.012037631 -0.31664857 0.5165221 -0.08484341 0.2883933 0.57452345 0.19481376 0.013227782 -0.15274385 1.0371767 -0.3838389 -0.7947996 -0.33332613 -0.26521578 0.07072689
5950 0.8313442 0.24139227 0.6033466 -0.17156337 -0.28074896 -0.51365 -0.49009436 0.12748641 0.84736216 0.88083243 -0.5599009 -0.18618509 -0.046271347 0.24001455 -0.31129965 -0.32304844 -0.31706563 0.41140842 0.076417886 -0.048550803 -0.112446345 0.71820533 -0.5784962 0.06369566 -0.3929938 0.14664274 0.25666487 0.2907694 0.009039002 -0.32812333 -1.120627 0.41979817
4922 0.61021614 0.22874692 -0.19819357 0.42924005 0.1161406 -0.08643632 -0.5287196 -0.12070536 0.68825436 0.28320384 -0.5161915 0.24886347 -1.0107614 0.027185831 -0.2010484 0.21901363 0.07746851 0.05270978 -0.03625651 0.88837 0.2564989 0.113984294 0.6436743 0.65096563 0.13212112 0.05855962 1.0556494 -0.3751372 0.2016149 0.17582342 -0.7546927 -0.80335724
923 0.61423224 -0.3336833 -0.42687792 -0.07856751 -0.38662106 0.11396216 0.027589178 0.1754497 0.20121753 0.29584315 -1.416151 0.335749 0.18166542 -0.049210697 -0.8815322 -0.3180068 -0.14650317 0.5300395 0.29680082 0.10504725 -0.20910619 -0.9637505 0.38395807 -0.104815245 0.18827522 0.38056475 0.21004069 0.765609 0.25623876 -0.07046529 -0.83145106 0.50375855
1217 0.5417648 -0.35077977 -0.54184645 0.34316042 -0.69740295 0.27014545 0.081168786 0.034301344 0.24697119 0.35443404 -0.8426513 0.4802534 0.3680069 0.087211326 -1.1385692 -0.47935835 -0.22818168 1.0721786 0.11113819 -0.26661775 -0.29820067 -0.7863946 0.44058466 -0.03297174 0.23005438 0.6860777 0.50488096 0.17129907 0.51395893 -0.3028109 -0.23235498 0.5832625
3670 0.603704 -1.0715506 0.124931954 0.11215522 -0.4833141 -0.29193413 -0.12228405 0.306289 0.9715349 0.9180808 0.0091769025 -0.54995644 0.47309467 0.5782905 -0.43128657 -0.23568456 -0.7008505 1.2403569 -0.43972334 -0.15915 0.18144526 0.71010303 0.62361443 0.31301355 -0.6509875 -0.3001771 -0.058326278 -0.27544034 0.13641603 -0.2546348 -0.88341653 0.1920406
1268 0.7705058 -0.3159468 -0.40322262 0.26193872 -0.64611524 0.3572068 0.33829725 0.28146976 0.014880884 0.5615763 -0.79512805 0.55527496 0.3953847 -0.12190072 -1.0573894 -0.31567344 -0.19330814 0.8873921 0.21941647 -0.27675167 -0.056117427 -0.6041494 0.6605099 -0.35928133 0.20227242 0.64082223 0.6894515 0.387831 0.64397603 -0.30721134 -0.22137299 0.516998
2600 0.5466311 0.16352302 -0.2920427 0.34618744 -0.011723843 0.30074358 -0.61139953 0.0052803312 1.0495782 0.36458683 -0.4688076 0.48610976 -0.6272999 -0.30695444 0.2793018 0.25890338 0.22383712 0.18608288 -0.044745978 0.45831406 0.2675298 -0.09231179 0.65070283 0.48078218 -0.068425626 0.21689366 1.0063018 -0.11400759 0.14359148 -0.1054245 -0.5831752 -0.89178747
5828 0.33643457 -0.32284966 -0.5145385 0.23422937 -0.30639553 0.23694363 -0.5990353 -0.15832785 0.796868 0.74783427 -0.36558312 0.27431038 -0.6974374 -0.6411743 -0.00025176437 0.09602869 0.094662555 0.05568408 -0.43170965 0.16712865 0.32078582 0.32483992 0.22087133 0.5087391 -0.17441505 0.32777408 1.4024745 0.09560535 0.29432157 0.046432756 -0.34530944 -1.0616342
3044 1.0338557 0.70286614 -0.25520927 0.12988487 0.09244961 -0.35555378 0.1932606 0.11640225 -0.105421826 0.98131144 -0.6456668 0.36526537 0.76646847 0.0066144783 0.052569903 0.885167 -0.50710064 0.23788564 -0.32379988 0.77721655 0.29589656 0.34747103 0.40362218 0.31949207 -0.36188707 -0.12081377 0.92880726 -0.18240993 -0.6278526 -0.047104295 -0.60836565 -0.09328818
8219 0.8035646 -0.97692376 0.04840933 0.15833196 -0.5340296 -0.6253291 -0.23878135 0.40050465 0.85918736 0.6480201 -0.00091304816 -0.40065333 0.49804997 0.72893554 -0.5644089 0.17096674 -0.59473646 0.8936283 -0.45750535 -0.05803651 -0.107224576 0.81133103 0.0052441885 0.5257744 -0.62758505 -0.19382124 0.048391044 -0.09711747 0.011317954 -0.24250722 -0.90695345 0.31570116
3844 0.7037631 0.3679212 -0.03327818 -0.29895866 -0.38353837 -0.50990915 -0.44733396 0.014127546 0.7839894 0.83456975 -0.88242525 0.017589834 0.17946836 0.42714438 -0.11423355 -0.20328389 -0.026879387 0.5295982 -0.09669267 -0.07245447 0.0073160264 0.6847706 -0.5535635 -0.15320167 -0.23033854 0.1772467 0.052855417 0.020315886 0.08940484 -0.7663512 -1.1481024 0.39296642
1404 0.5170307 0.4932001 -0.49994436 0.46153986 0.20666315 -0.2115803 -0.36850598 0.2481844 0.98026645 0.08657084 -0.36181626 0.40390238 -0.37090006 -0.30238113 0.014651016 0.25481725 0.09374463 0.23388053 -0.14579663 0.20282432 0.3494949 0.31796986 0.8741134 0.50578606 0.62511367 0.41640308 0.9493598 0.066049464 0.069587104 -0.04959537 -0.4282775 -0.9207095
3715 0.71037084 -0.26601633 -0.15344925 0.023622792 -0.5432634 0.047280267 0.18539838 0.36692786 0.1637461 0.49685287 -1.3893529 0.41134605 0.19774713 -0.4804628 -1.032195 -0.6427916 -0.076804794 0.2837465 0.08110576 0.020261567 -0.22603697 -0.7103263 0.5461479 -0.114602044 0.17406504 0.58360696 0.39221647 0.5602522 0.17286547 -0.1976526 -0.647979 0.5723233
5672 0.84834796 -0.66225684 -0.7569463 0.18403971 -0.48082617 -0.38741422 -0.23300044 0.36926445 -0.72020674 0.4119599 -0.88330674 0.2362639 -0.20091727 0.046936583 -1.0299369 0.19407108 -0.5586033 0.41315785 0.15523857 0.27973795 0.12901217 -0.7791341 0.7286241 0.20748125 0.23040979 0.26520538 -0.1435503 0.6116646 1.5411047 0.3298247 -1.4315987 0.17193131
1056 0.8703569 0.23532335 0.40863463 -0.16685735 -0.5615958 -0.6667318 -0.57752085 0.50021553 0.7679256 0.7920311 -0.14586134 -0.15932192 0.25779268 0.26130074 -0.47410345 0.1703424 -0.1741501 0.43432316 -0.0013541281 0.10023885 -0.11614122 0.8164503 -0.37192094 0.11765945 -0.40165207 0.1031732 0.25272322 -0.04872623 0.05216075 -0.7397526 -0.95845115 0.4407253
7338 0.7585418 0.4542978 -0.15775926 0.4158531 0.046756122 -0.052659996 -0.5116968 -0.031204604 0.8599151 0.23877123 -0.5163109 0.41372207 -0.58895546 -0.3580438 -0.00603971 0.15135884 0.062363952 0.20717347 -0.223842 0.71616054 0.24553822 0.31233612 0.4215968 0.7619195 0.2456599 0.21169452 0.9276628 -0.35665983 0.24177213 0.063973606 -0.44140297 -0.80724394
1465 0.4258206 -0.24584696 -0.51035744 0.53856283 -0.4631113 0.0033430303 -0.3240351 -0.5031309 0.49338737 0.3920061 -0.13049883 -0.009805802 -0.8919198 -0.44145316 0.085183054 0.34442735 -0.38533548 0.5828023 -0.43584767 -0.31050563 0.22823723 -0.16283579 0.51890934 0.36237553 -0.2336842 0.1984927 1.5910517 0.0008049835 0.44746935 0.11938617 -0.6628797 -1.341297
2738 0.7842017 0.3824586 0.32097483 -0.188179 -0.5534014 -0.47551835 -0.68710643 0.30740198 0.84140605 0.6304367 -0.37307942 -0.3274067 0.10698706 0.27463096 -0.2358143 -0.21894439 -0.1929703 0.3484443 0.078218766 -0.15205756 0.013403717 0.70236 -0.3786312 0.29471 -0.43187988 -0.071056455 0.33591676 0.105306685 0.0995345 -0.7087593 -1.0603272 0.61263573
7843 0.31754184 0.23510836 -0.5738629 0.4983774 -0.22883004 0.06245709 -0.46483886 -0.15536287 1.123815 0.61286896 -0.5632865 0.6806864 -0.5067531 -0.15452752 -0.09023323 0.62098217 0.24056084 0.03869515 -0.07317665 0.19340588 0.052449834 0.40708005 0.6277422 0.6522495 0.22914009 0.16667421 0.91678363 0.25083783 0.26497862 0.3876184 -0.40180096 -0.9994102
4951 0.6789969 -0.6177632 -0.13505517 0.08275422 -0.48521218 -0.83929354 -0.22152151 0.31967938 0.8934175 0.6670584 -0.0054141195 -0.7924475 0.40095362 0.7048345 -0.5982107 0.104341775 -0.27638584 1.0980723 -0.36571243 -0.2797297 -0.0044599455 0.52785355 0.08218657 0.705436 -0.6681613 -0.2748343 -0.078218065 -0.08402617 0.15883791 -0.2567638 -0.9310656 0.33911735
6460 0.4182544 -0.24562532 -0.5393464 0.60272753 -0.28567132 0.010214023 -0.2899816 -0.40065777 0.6592451 0.15407948 -0.3456213 0.012903066 -1.0703601 -0.22555454 0.4566994 0.1397382 -0.048319086 0.4812586 -0.19522648 0.11556406 0.06583845 0.07947199 0.85612464 0.4999641 -0.21475728 0.096116535 1.4600507 0.24425676 0.25295162 0.051020406 -0.76446044 -1.0776571
4508 0.71958125 0.5888114 -0.5190061 0.47778666 0.30510375 -0.24646701 0.19086175 -0.0008253465 0.85620314 0.33012497 -0.8940747 0.5779342 -0.28278682 -0.45288593 -0.18959098 0.33782962 0.057048883 0.07565389 -0.15165009 0.22514947 -0.13690355 -0.17898087 0.69333565 0.59063214 -0.2123943 0.18445584 0.6952134 -0.0926251 -0.093962975 -0.2000522 0.02839432 -0.32634303
6289 1.1575104 -0.84227735 -0.1956351 -0.056560088 -0.60042 -0.2656197 -0.024391325 0.32254592 0.4641323 0.7549944 0.13226014 -0.54979765 0.55988383 0.59873515 -0.13731976 -0.06208835 -0.53521866 1.1055784 -0.1153391 0.3526525 0.42318514 0.5847438 0.7090105 0.86091 -0.86969906 -0.44616726 0.044671748 -0.1856121 -0.26968658 -0.2618459 -0.66541433 -0.05806083
7646 0.6998193 0.17658135 0.49074003 -0.0960521 -0.44847184 -0.6400221 -0.64005274 0.4694612 0.8181568 0.5513158 -0.4153243 -0.3489737 0.11797258 0.11320028 -0.32252148 -0.19194011 -0.30467615 0.44345465 0.15150459 -0.20791724 0.147105 0.72094846 -0.3898621 0.21830976 -0.5800698 -0.0007089619 0.3764801 0.02054865 0.080292806 -0.75270003 -1.1992708 0.59565943
1190 0.5817178 -0.14342467 -0.2639542 0.45244908 0.08443864 0.44231272 -0.29429498 -0.018409053 0.9832533 0.6483427 -0.15709762 0.39409915 -0.62892324 -0.44023067 0.17538662 0.4235803 0.11532056 0.3076696 -0.05128795 0.5415507 0.27292576 0.08539074 0.7048628 0.48358205 0.1215503 0.33442435 1.118932 -0.086567685 0.16083851 -0.2160222 -0.59312 -0.9896682
5081 0.7793964 0.2422641 -0.22014086 -0.12263487 -0.18400124 -0.6486553 -0.43431586 0.060716245 0.76148814 1.0474981 -1.1285828 -0.28155014 -0.057677567 0.4050077 -0.3400847 -0.14156346 0.12473181 0.5079124 -0.15291288 -0.048862293 -0.11114029 0.7190072 -0.596666 -0.24085183 -0.09343088 0.26146474 0.14794657 0.029412398 -0.005679494 -0.78068614 -0.91692775 0.25586966
210 0.7178128 -0.08089854 -0.31654817 0.08884653 -0.72206646 -0.017810134 0.07314394 -0.038625956 0.17982061 0.22235449 -1.2300993 0.472792 0.46664143 -0.021035314 -1.1648 -0.36940822 -0.13422868 0.6442408 0.08181583 -0.097122885 -0.40889558 -0.7186601 0.28975853 -0.10257181 0.20804802 0.43462408 0.45566794 0.5285011 0.26841378 -0.23536468 -0.50210464 0.46209764
2164 0.40356588 -0.5168305 -0.5769606 0.14509454 -0.7325618 0.09493609 0.27313825 0.107505634 0.1876532 0.352727 -1.0101403 0.47863087 0.51269764 -0.13693385 -1.0801469 -0.23224297 -0.37890193 0.5865928 0.051301416 -0.17081757 -0.33320904 -0.6641275 0.39545104 0.024616988 0.13585685 0.45633125 0.1695328 0.4963779 0.45119518 -0.07309874 -0.6959061 0.5764376
48 0.025512943 -0.6052555 -0.16759072 -0.23234141 -0.70761514 -0.82885057 -1.4089329 0.42615578 -0.18333462 0.5112755 -0.62034893 0.51116526 0.32419023 0.23334646 0.15025525 -0.29807368 -0.63218975 0.57727003 0.16871639 -0.76570284 1.0635053 0.4889874 1.728843 0.15992142 -0.009118516 0.52703726 1.3145735 0.34962463 0.12475587 0.920605 -0.9468844 0.63085407
5371 0.5482493 -0.1315242 -0.20596457 0.11159112 -0.48944634 -0.23781799 0.39568722 0.38460425 0.253136 0.5783724 -1.1321203 0.41348183 0.4914372 -0.52909654 -1.1895162 -0.3376893 -0.17866294 0.30329093 -0.071363844 -0.12336379 -0.26529187 -0.6640187 0.46283114 -0.15991671 0.29113692 0.6791347 0.36866593 0.7629694 0.09379769 -0.35127044 -0.6198321 0.33623463
4310 0.61063623 0.34787878 0.43318734 -0.35363317 -0.38695973 -0.28224793 -0.7707198 0.22180733 0.8975973 0.7304599 -0.40786573 -0.060257185 0.09280063 0.32903484 -0.32651424 -0.3816222 -0.18133324 0.67289954 0.24097684 -0.023293318 0.15775459 0.77440053 -0.33634698 0.39494064 -0.3784708 0.055281673 0.21625149 0.10711845 0.0610222 -0.77481633 -1.1459388 0.6832319
4652 0.79521316 -0.29299167 -0.24094705 0.6106659 -0.7089854 0.18205963 0.30279803 0.41925547 -0.16637245 0.7170852 -0.79663074 0.73816353 0.42953008 0.06589408 -0.8991946 -0.51308537 -0.3738603 0.9333183 0.2931939 -0.33826992 -0.077502735 -0.6313242 0.78268236 -0.26100403 0.3475401 0.7048243 0.38514614 0.54368836 0.8631307 -0.47706774 -0.15723044 0.11977728
4526 0.6656434 0.45716158 -0.17572011 0.13413446 -0.09960936 -0.068712465 -0.26346833 0.12220459 0.9576413 0.13453606 -0.53293484 0.72011405 -0.36781487 -0.46553218 -0.09744222 0.41774225 -0.042557184 0.0895506 -0.16170554 0.65553635 0.4585548 0.2146929 0.48279646 0.44286615 0.6074039 0.16833036 0.90555036 -0.19301622 -0.10799648 0.18118808 -0.61741835 -0.7240951
7941 0.53051084 0.57242 0.32964784 0.03448585 -0.33224836 -0.57124585 -0.42644325 0.2267984 0.97224796 0.88278574 -0.64652896 -0.40098652 0.10673747 0.45571634 -0.2570687 -0.15997908 -0.2957398 0.51520616 -0.00726751 -0.18911436 -0.051716577 0.6212199 -0.42475647 0.07412946 -0.24976133 -0.053994924 0.2723577 0.28292435 0.09243415 -0.69754493 -1.0958382 0.43259445
649 0.47556528 -0.08654514 -0.24279068 -0.16909824 -0.40212142 -0.09329791 0.3838804 0.52950066 0.33051053 0.20318109 -1.1033316 0.41868976 0.34441575 -0.3071222 -1.06884 -0.16977517 0.035264928 0.49410996 -0.09431405 -0.068340935 -0.32174644 -0.50603867 0.23108171 -0.28172708 0.53576577 0.3648928 0.7197748 0.7634422 0.45170197 -0.41999373 -0.8704498 0.556783
3685 0.42156622 -0.061251283 -0.49969667 0.49867085 0.07797685 0.2471633 -0.5495024 -0.0322127 0.81996995 0.2926225 -0.38050273 0.40999612 -0.6784754 -0.28189453 0.18278661 0.046219006 0.045320433 0.0786827 -0.28586665 0.18528393 0.07695668 0.12500834 0.7486981 0.50399137 -0.18645377 0.1409495 1.268612 -0.0026849862 0.19909227 -0.014105227 -0.8636451 -1.2357045
