123 32
104 0.22637676 0.006399951 0.15091749 0.14036563 -0.100837484 0.009920845 0.0059323832 -0.14110515 0.12564695 0.2046232 -0.39143214 0.01765847 0.04398215 0.3033534 0.3015666 0.10875088 0.34687656 -0.2416506 0.14974238 0.00637355 -0.043141592 0.072835095 -0.41999143 -0.26248455 0.16984122 -0.22665775 0.09261813 -0.053020224 0.17644693 -0.13807258 0.22428058 -0.3554098
103 0.34622487 0.08982437 0.13517848 0.08500259 0.1021274 0.06344808 -0.085261405 -0.013591162 0.11671857 0.24394755 -0.44740742 -0.1222672 -0.039117042 0.2742366 0.29285815 -0.02029743 0.28870016 -0.13614076 -0.0075561167 0.05848818 -0.008701279 0.2274097 -0.12608753 0.026779406 0.17433774 -0.16285972 0.09973723 -0.21395338 0.29503587 0.027656011 -0.07729336 -0.092037074
76 0.4089439 -0.059875645 0.1422662 -0.0011430803 -0.012089239 -0.012846326 0.09314975 -0.11948285 0.11332375 0.12906927 -0.3132381 0.025067734 -0.05379878 0.17738086 0.15996148 -0.040116005 0.44374895 -0.2118302 -0.09603699 0.049766686 -0.012449822 0.0802986 -0.22376134 -0.013183856 0.23914175 -0.18586472 0.15950182 -0.20514303 0.2902309 0.12728234 -0.11477421 -0.13443314
99 0.17688182 0.018623585 0.27118772 0.17973813 0.039534554 -0.091584526 -0.09472435 0.23171604 0.08763641 0.41586488 -0.35167277 0.008115268 0.075093076 0.12670936 0.052677315 -0.15397921 0.29568288 -0.05756805 0.085790195 -0.07711542 0.006526703 0.31300703 -0.28126806 -0.06468758 0.1934414 -0.0025419127 0.07250358 -0.130334 0.17750117 0.27148485 -0.13284089 -0.013130887
118 0.37917876 0.10486051 0.13891761 0.09168903 0.07394359 -0.14443533 -0.16149563 0.04224906 0.22687389 0.32897153 -0.19804633 0.10724049 -0.05026501 0.067909926 0.06702513 -0.081893556 0.42438766 -0.023502888 0.06557391 -0.040778402 0.030791087 0.25066996 -0.30079377 0.046939436 0.15024887 -0.16218437 -0.049736854 -0.27010491 0.16572765 0.25401175 -0.20808701 0.1441342
75 0.26458403 0.12685049 0.043993484 0.13377884 -0.28126633 -0.069205984 -0.026233407 0.07385582 0.09151483 0.038760554 -0.23174548 0.093898326 -0.03657634 0.06751963 0.12341603 0.006225498 0.7188449 -0.11058634 -0.13466664 0.104995884 -0.13881062 0.07706116 -0.35886118 -0.1562564 0.16708341 -0.22932036 0.34723622 -0.19205286 0.13947856 -0.16554807 0.17154847 -0.17821392
77 0.15952688 0.2754243 -0.022521242 0.32541028 0.21110334 0.01598211 0.19305684 0.011134683 0.19470508 0.11259621 -0.28180197 -0.032085963 0.16443922 0.24880548 0.14823262 -0.003650834 0.46931297 -0.25725862 -0.09771658 0.026563855 0.04936832 0.055941176 -0.2525533 -0.04595632 0.08955144 -0.074977495 0.2948933 -0.17452781 0.15073459 -0.016357748 0.23285867 -0.0937799
97 0.22654283 0.17536324 0.08591022 0.13680542 -0.0080215745 -0.083507285 -0.2035211 0.2528349 0.16573775 0.28084508 -0.3537206 0.013801999 0.09770873 0.1716128 0.094601564 -0.141514 0.3119258 -0.15278706 0.0001435862 -0.12057527 -0.035957836 0.3182126 -0.18017614 0.043744218 0.2479953 0.05175405 -0.047193162 -0.16955611 0.17791323 0.259596 -0.076430105 0.040449854
116 0.29114276 0.16932629 0.17211245 0.22072673 0.14609861 -0.034346614 0.0655584 0.02565421 0.1960419 0.27476412 -0.40614825 0.11282664 0.22503527 0.09573591 0.062296957 -0.07034333 0.28674084 -0.027964855 0.056564458 -0.109242536 -0.076078996 0.23079982 -0.3513094 0.048182502 0.27549127 -0.0014387205 -0.0705694 -0.038011294 0.07254554 0.22562507 0.04237619 0.05733264
29 0.25889978 0.16442946 -0.07471497 0.19794896 0.051734153 -0.17807746 -0.08373347 0.09729382 0.24375059 0.3636828 -0.2246634 -0.0084857885 0.100801274 0.24419151 0.06222234 -0.28602016 0.29288435 -0.1277332 0.0811551 0.03176532 -0.021523213 0.2654761 -0.24785715 -0.041247915 0.2537351 0.16610204 -0.08712157 -0.1559481 0.08177507 0.2714177 -0.11565944 0.021303002
45 0.14320081 0.16041952 0.26702592 0.18393202 0.09762841 -0.2157596 -0.052156463 0.19638363 0.32608593 0.32953167 -0.4032082 0.028102774 0.17940103 0.13744375 0.0086319735 -0.15734896 0.23729616 -0.11155228 0.116471484 -0.007505938 0.0376764 0.24611108 -0.1862496 0.006684605 0.22507365 0.08346049 0.06126608 -0.101853386 0.048250113 0.26882464 -0.2382477 0.0369358
46 0.13024268 0.1314547 0.19249845 0.13301775 0.1061768 -0.18139622 -0.06433411 0.14902486 0.20590231 0.28227976 -0.25629538 0.08365215 0.174702 0.25705677 0.03110842 -0.16717616 0.33430523 -0.2101289 0.103388384 -0.039523836 -0.0647525 0.30941057 -0.07531944 -0.04408918 0.25697523 0.18591338 0.049573008 -0.16878527 0.24783659 0.32713515 -0.2279526 0.003252357
117 0.23255147 0.18780732 0.040836077 0.27495015 0.20126626 -0.25242606 0.09096756 0.08444457 0.3457405 0.254566 -0.279253 0.09984468 0.13601817 0.16940737 0.09093942 -0.19916826 0.26865867 -0.09898889 0.085207686 -0.14427862 -0.014489409 0.2554025 -0.2319823 -0.025748024 0.16591829 0.11142233 0.010084334 -0.15038578 0.15753853 0.29990003 0.011994582 -0.11542642
74 0.32111058 0.06174301 0.2132373 -0.12262341 -0.20180836 -0.09056746 -0.093315355 -0.0104394825 0.19959362 -0.016120812 -0.5126039 0.10236763 -0.17378058 0.04510569 -0.0068799527 -0.013338903 0.46901184 0.001396851 0.003894874 0.04629787 0.06957684 0.115012586 -0.23935708 -0.09910784 0.36922792 -0.14800106 0.1309879 -0.30084202 0.22462502 -0.14746594 -0.13124193 -0.09543545
41 0.1564371 0.22587366 0.17153332 0.19259818 0.10626958 -0.022156067 -0.017225504 0.2233044 0.27278057 0.2703263 -0.3632251 0.027001439 0.23464164 0.18014432 0.08309866 -0.17105575 0.16929778 -0.08346629 0.048786875 -0.04540369 -0.08278413 0.15805623 -0.3384412 -0.022637764 0.2609686 0.024496168 -0.09184266 -0.03802517 0.19521333 0.15105303 -0.06420776 0.14801756
59 0.08936559 0.0935388 0.15467602 0.21757822 -0.023762485 -0.118073925 0.06472217 0.15728402 0.24317592 0.27961847 -0.27731964 0.067649476 0.162113 0.19997397 0.04253723 -0.14225575 0.4304149 -0.06362332 0.14414345 0.010097547 -0.0567275 0.11486309 -0.2516718 -0.014857548 0.3156619 0.01835199 -0.031249939 -0.18566835 -0.013039743 0.25368696 -0.0427975 -0.042400304
60 0.2192657 0.08880911 0.11039688 0.14943206 0.041781228 -0.13735877 -0.013159694 0.20055439 0.25851327 0.27710527 -0.28752944 -0.03661999 0.1981041 0.24119814 0.12614119 -0.19793911 0.32365087 -0.0380327 0.18401931 -0.050948307 -0.02262002 0.14198887 -0.18255186 0.022553658 0.29767296 0.09046657 -0.1514595 -0.26099813 0.056274913 0.23191698 -0.015837366 0.064782
100 0.17272224 0.20039245 0.10971236 0.2591352 -0.08986222 -0.11037538 -0.14744876 0.2060104 0.07423644 0.24027084 -0.2975381 0.033244442 0.16644917 0.29820815 0.05456148 -0.2667576 0.25789267 -0.15799545 0.12479324 -0.09343294 -0.08030629 0.18461107 -0.27488548 -0.00953691 0.274461 0.17263767 -0.05879768 -0.15387587 0.068130784 0.15543598 -0.1190204 0.08188976
64 0.14713119 0.059788823 0.1819831 0.1818551 0.0660257 -0.091172636 0.0055268607 -0.0044367 0.20594776 0.25554243 -0.36961764 0.0014627094 0.14899299 0.23538385 0.04760717 -0.19543286 0.3481767 -0.12802927 0.049454115 -0.08876874 0.022772906 0.21359116 -0.22332175 0.008034839 0.25096336 0.3272573 -0.13425122 -0.14930686 0.13422899 0.21011569 -0.16808067 0.14058363
73 0.3182301 0.12828729 0.16028427 0.108630165 0.11746247 -0.16742305 -0.16475528 0.18823694 0.20666757 0.15147899 -0.40660575 -0.15869354 0.04652338 0.041734558 -0.050362732 -0.13731274 0.40304136 -0.3221961 0.044116337 -0.19719586 0.011047839 -0.0500733 -0.1867179 -0.10155756 0.20983423 0.13564228 0.043962684 -0.13962443 0.079323314 0.18705851 0.0088399295 -0.010695982
63 0.29243907 0.20746668 0.157327 0.35181385 0.08465027 -0.09054861 0.1656054 0.14846237 0.118292205 0.19104053 -0.35908768 -0.001881329 0.1887353 0.25617954 0.076789536 -0.10414517 0.22785778 -0.13061967 0.116196215 -0.06226432 0.04134872 0.15781938 -0.2430457 -0.063795604 0.18932937 0.13230285 -0.0027652627 -0.10240117 0.1455288 0.2819218 -0.07728104 0.04040397
98 0.052666746 0.17229135 0.217763 0.07243365 0.02845281 -0.10622179 -0.2298563 0.11830486 0.15233327 0.2909239 -0.39529663 -0.044398937 0.05708387 0.20169558 0.2559748 -0.103593 0.3212028 -0.122684635 0.06913056 -0.18229048 0.00022067274 0.25800213 -0.349563 0.08044991 0.26334327 -0.08303768 0.03336602 0.15122356 0.162721 0.30910772 -0.29567814 0.0029565895
48 0.32784775 0.04353044 0.23462652 -0.05038714 0.0055048307 -0.08489039 -0.13586263 0.15026015 0.18816109 0.080572575 -0.28704756 -0.027419327 -0.23856376 0.080642454 -0.13017154 -0.054621406 0.63429296 -0.093108885 0.03483384 0.062419564 0.021321498 -0.00082817295 -0.17565629 -0.06377061 0.21115404 -0.06760425 0.13753115 -0.3578079 0.21662885 0.17735407 -0.22400337 0.020656819
36 0.33722794 0.09987955 0.15828364 -0.1299778 -0.01738684 -0.25040278 -0.21341163 0.032452144 0.14262606 0.08654953 -0.30707234 0.13745785 -0.1927449 0.07534067 -0.050212078 -0.056974165 0.46854487 -0.2855146 -0.0417278 -0.16516504 -0.08155271 0.015002959 -0.1989678 -0.08708412 0.34215316 -0.050261386 0.05355306 -0.27360007 0.31158412 0.09695157 0.047445912 -0.12490768
31 0.29125074 -0.08458147 0.12724406 -0.038668808 0.08182154 -0.14468217 -0.33636293 0.034440875 -0.019486675 0.27388304 -0.42065647 0.012633316 -0.09797966 0.29651546 0.19104546 0.043974403 0.54764944 -0.030466683 0.03392195 0.1278328 -0.01241188 0.16261363 -0.2544912 -0.0093337605 0.07330268 -0.2268989 0.20831728 -0.052045643 0.29948172 0.108748 -0.1621671 0.16454858
68 0.39555296 0.15626451 0.20923863 -0.0745747 0.09804901 -0.11766657 0.01915095 -0.05410154 0.21701337 0.19721009 -0.33908117 -0.07958916 0.2312074 0.081559755 0.0151135065 -0.06770093 0.19885556 -0.2683922 0.1794209 -0.078014605 -0.054727767 0.10693429 -0.23759215 0.062572844 0.39938474 -0.04866949 0.024933355 -0.22225663 0.068214126 0.33678517 -0.061120875 0.20961145
121 0.05154385 0.3387948 0.07529967 0.34278667 -0.22336827 -0.060162134 0.3244391 -0.059459165 0.17690746 0.11778519 -0.31067413 0.14170069 0.061309554 0.08746984 0.03664364 -0.046830647 0.4299943 -0.14694533 -0.103374586 0.12887225 -0.077944644 0.12965684 -0.3331323 -0.21007483 0.292177 -0.053133387 0.22747526 -0.17829525 0.24821246 -0.35117576 0.20055959 -0.15909907
105 0.18185791 0.11112227 0.0603434 0.03965953 0.1724421 -0.09501614 -0.077444084 0.104165316 0.03178138 0.24377345 -0.44311112 -0.27170244 0.0163517 0.34211582 0.16912161 -0.0016930089 0.36970827 -0.082737535 0.0669496 -0.20922573 0.058435634 0.08880958 -0.33369678 0.037514 0.24128869 -0.25248733 0.06717438 0.17093672 0.21765247 0.32270744 -0.060018703 0.07347177
71 0.36864665 0.24559717 0.07636152 -0.04428403 -0.14452356 -0.073612824 0.026861077 0.074503474 0.08199665 0.010452047 -0.26414144 -0.08615558 -0.09247221 0.14433195 -0.056030348 -0.079845086 0.5150948 -0.28875864 -0.05515629 0.03664316 -0.14408515 -0.01760897 -0.13379219 -0.14402685 0.21946695 -0.052570257 0.18056917 -0.30228117 0.379363 -0.06763037 0.14900868 0.053657286
32 0.025934998 0.22847909 0.25807574 0.15934092 -0.03626563 -0.122882135 0.33227482 -0.02624932 0.26437294 -0.15745859 -0.2797921 0.20263425 0.0063672224 0.25224188 -0.13961667 -0.07181712 0.34257075 -0.20344798 -0.014799541 -0.030754033 0.069675006 -0.061172888 -0.20915659 -0.036141705 0.2540165 -0.047573775 0.43512818 -0.35780427 0.48969924 0.050186764 -0.11576443 -0.04088392
16 0.22046517 0.11601816 0.33388638 0.12563804 -0.19459623 -0.067581825 0.03660653 0.15526722 0.1714517 0.22992207 -0.26200607 -0.24974824 -0.14957906 0.26268438 -0.11158004 -0.23101139 0.22593068 -0.34515584 -0.06973851 0.017905364 -0.017013745 -0.08685986 -0.21673937 -0.16511098 0.056793746 -0.14686187 0.59824955 -0.27572158 0.26233426 0.123099044 0.065870054 -0.16814573
8 0.2596923 0.051806204 0.11385859 0.15834373 0.021297067 -0.14608832 0.07028383 0.05424006 0.25499335 0.20472823 -0.27356353 0.057741817 0.32956746 0.2947369 0.10726053 -0.13650239 0.3000141 -0.28308082 -0.08722244 -0.04805676 -0.13565682 0.14636509 -0.22925161 0.051617242 0.22166708 0.11475547 -0.1241184 -0.10242291 0.10837313 0.23787385 -0.1356176 0.1621797
47 0.19517185 0.20388846 0.11915614 0.18949822 -0.0139457965 -0.1259843 0.059323896 0.16570254 0.25556397 0.22243643 -0.25702602 0.0305424 0.4436306 0.14118221 0.0750326 -0.23445924 0.31754968 -0.22960249 0.03490836 -0.056922834 -0.0911543 0.12519363 -0.20419662 -0.06761908 0.1981117 0.23775057 0.06797761 -0.05160634 0.029808937 0.16779597 -0.13579996 0.32248968
30 0.3067582 0.29306498 0.12406771 0.09078635 -0.044415753 -0.0016040658 0.045038205 0.14499752 0.13374785 0.3030134 -0.21765898 0.020818686 0.3844438 0.17502347 0.12256837 -0.2580597 0.22161165 -0.1720551 0.13133709 -0.003605905 -0.22508755 0.15682101 -0.2515175 -0.02177409 0.26985925 0.11207963 -0.037538078 -0.16232488 0.063254826 0.2108348 -0.057053797 0.28368846
3 0.29942375 0.16583273 0.0901215 0.16633855 -0.15279198 -0.0073915655 -0.03606074 0.0146792205 0.26120114 0.3519129 -0.19401194 0.20454584 0.29102975 0.18091202 0.14520146 -0.24000108 0.24016134 -0.1384962 -0.030712314 -0.020226123 -0.08066576 0.19661653 -0.270958 -0.08560168 0.19112796 0.16019529 -0.024685785 -0.20045076 0.108095326 0.23463331 -0.13901734 0.1526842
80 0.21224335 0.28286958 0.03063781 0.25561094 -0.33287218 -0.22032262 0.21477456 0.064591095 0.28693897 0.040371995 -0.17227195 0.06488483 0.22183044 -0.058729153 -0.031975728 -0.123209186 0.46509618 -0.122501835 -0.115269676 -0.2399349 -0.19168694 -0.020971367 -0.50676084 -0.30261165 0.19203308 -0.1849531 0.34068316 -0.20411235 0.031346854 -0.23835117 0.18380693 -0.15312503
86 0.19876677 0.04081777 0.15724759 0.0053825653 -0.09107724 -0.18183771 -0.19904983 0.19275054 0.13583694 0.23180977 -0.20327114 -0.0074783973 -0.09968602 -0.046073895 -0.07045923 -0.117657475 0.6359661 -0.017138213 -0.055761844 -0.07425447 0.018191796 0.17086133 -0.1826298 -0.07264274 0.317862 -0.12429192 0.2658543 -0.21893737 0.23326567 0.24286614 -0.06924077 -0.013326918
25 0.06689453 0.17987727 0.20859626 0.18687198 -0.07747856 -0.060610022 0.2980968 -0.0032088072 0.21010184 0.0036346887 -0.36186248 0.14915672 -0.029940372 0.1924574 -0.26271468 -0.12895367 0.39141777 -0.22196011 -0.056190368 0.039523598 0.0032709197 -0.0663019 -0.26525182 -0.06930223 0.20821036 -0.27917567 0.28400162 -0.116086856 0.4650498 -0.0045410283 0.026066342 0.027905181
67 0.21990117 -0.034875188 0.14523768 0.1491247 0.06881133 -0.071956955 -0.020569067 0.108239636 0.2043577 0.2739155 -0.29443115 -0.006097449 0.017258015 0.4083259 0.23036647 -0.16315193 0.29157826 0.05971254 0.14110313 -0.20947728 0.12640223 0.34085906 -0.31661695 0.18312706 0.26532292 0.10954583 -0.070499666 0.11683725 0.3198923 0.31997663 -0.052010685 0.13407384
119 0.36469787 0.31340036 0.022879045 0.024275998 -0.099630564 0.09623797 0.12520652 0.023049498 0.3259592 0.031089537 -0.31197423 0.019154744 0.07876845 -0.005062799 -0.0022184378 0.023614064 0.58307177 -0.22824529 -0.20539021 0.18927243 -0.12325089 -0.08696795 -0.3412612 -0.095083565 0.14166799 -0.42231944 0.19113216 -0.024334954 0.2528983 -0.2559713 0.06349305 0.11393229
24 0.48271275 -0.02407446 0.10533264 0.1212055 -0.18340974 -0.026003396 0.009823014 0.13130172 0.020574698 0.31686673 -0.12792926 -0.20361063 -0.13754638 0.1625684 -0.02311753 -0.26186758 0.36306563 -0.16109888 -0.18933037 -0.08388335 0.019137021 -0.11129234 -0.18891953 -0.0034274932 0.22119182 -0.14299181 0.3475688 -0.414339 0.19941498 0.19766703 -0.060983244 0.04217635
94 0.34588018 0.29435623 0.038887024 -0.1432236 -0.067632645 -0.17493437 -0.16647285 0.16757433 0.32830054 0.15001284 -0.3527697 -0.05003435 -0.08807312 0.068481356 -0.2653045 -0.14088589 0.5108912 -0.1682466 -0.0007243394 -0.09034417 -0.062276304 -0.11652598 -0.21588017 -0.14281772 0.0727478 -0.14942078 0.12776235 -0.18528025 0.18691361 0.15940198 -0.12768897 0.16668206
51 0.18898988 0.1480049 -0.04333871 0.14053117 -0.0173882 -0.21710172 0.32771796 -0.04476007 0.24609727 0.0007195264 -0.22424985 -0.08919454 0.020714734 0.08569502 -0.046281297 -0.15183535 0.47564134 -0.25789762 -0.11482389 -0.031118441 -0.070628114 -0.07919482 -0.28809562 0.0001194987 0.18098104 -0.08937199 0.3188201 -0.37812355 0.20692179 0.04001079 0.15178764 0.20883106
20 0.35302028 0.04954339 0.14537361 0.113088526 0.10008722 -0.19035792 0.2715829 0.07853437 0.17618664 0.28321722 -0.3347142 0.089302905 0.29023764 0.16994847 0.0655045 -0.14883482 0.26935446 -0.3083347 0.047831923 0.07030102 -0.05933919 0.18757273 -0.22282402 -0.14209327 0.18405814 0.103112765 -0.2260346 -0.048878215 0.12844473 0.24549477 -0.17730589 0.11013373
111 0.007119858 0.17012075 -0.059805453 -0.15626363 -0.10292704 -0.023434794 -0.03323074 -0.12788422 0.37468648 0.13097472 -0.026870182 0.07443765 -0.035658345 0.22061254 0.02119768 -0.20297445 0.7231714 -0.26640406 0.125381 -0.17423163 -0.13297208 -0.057280466 -0.21389723 -0.25387618 0.28843677 0.0010724011 0.11056082 -0.08842715 0.3023979 -0.21764354 0.12687366 0.13719875
7 0.1675529 -0.0070840665 0.10805817 0.25885096 -0.038979117 -0.0978551 0.18783133 0.016599117 0.35453254 0.39101997 -0.17634748 0.11459758 0.19763038 0.012301837 0.119745135 -0.3677161 0.42047712 -0.14628796 0.16928886 -0.0068562157 -0.200687 0.15378755 -0.35503697 -0.12075494 0.09338718 -0.021819435 -0.045430187 -0.16171253 -0.105703816 0.13841033 -0.203843 0.1715917
18 0.23453613 0.28029394 0.18030915 0.19842012 -0.08117747 -0.050219845 0.3099206 0.036788933 0.059124053 0.06048743 -0.26120952 0.05008359 0.032592617 0.08430843 -0.1114317 -0.11952273 0.30083913 -0.30344674 -0.1449251 -0.14626873 0.03781194 -0.00094639556 -0.16190669 -0.075106286 0.32301793 0.050874133 0.3452975 -0.22663656 0.42690298 -0.010414307 -0.06229354 0.10607231
114 0.1962785 0.01753761 0.13433687 0.2939887 0.069668606 -0.079926826 -0.01588381 0.24560691 0.18388103 0.36943647 -0.31738022 0.030205866 0.031118779 0.47025803 0.37099168 -0.098585345 0.16780789 -0.027974257 0.22726959 -0.10894275 0.25795627 0.33813876 -0.32422274 0.11972141 0.12540264 0.146491 -0.0785641 -0.08393581 0.22679119 0.11932945 0.0656758 0.09825902
53 0.0359439 0.21041104 -0.10455715 0.07604489 -0.04659275 -0.08055197 0.068154894 0.014519268 0.3276147 0.07850634 -0.035706986 0.015508289 -0.010570959 0.23028214 -0.17018776 -0.14693719 0.78180885 -0.33759624 0.0571386 -0.09178578 -0.12297013 -0.15077099 -0.1589806 -0.24540997 0.27004954 -0.043003183 0.04147399 -0.13484561 0.22166182 -0.20118631 0.21418257 0.167821
50 0.17868866 0.16494264 0.33127877 0.024410777 0.032136053 0.058896277 0.42012542 -0.114518 0.14954297 0.114120536 -0.46131715 0.03427409 0.019503225 0.11421909 -0.20149092 -0.13214144 0.18961258 -0.2684838 -0.0037082094 -0.04250683 0.1079783 -0.03254291 -0.21628779 -0.1772175 0.28666398 -0.47828946 0.3262044 -0.2830796 0.35151577 -0.09744276 -0.053166945 0.11947823
78 0.38097954 0.009247649 -0.017239919 0.20085174 -0.27138424 -0.12144946 0.21399723 0.12555698 0.2892319 0.13572791 -0.21111143 -0.14397886 0.017532151 0.11306083 -0.2225023 -0.28248233 0.5605704 -0.039752003 0.17804305 0.059693176 -0.18123212 -0.14223012 -0.18262959 -0.14476162 0.15367928 -0.13369411 0.051299926 -0.09672062 0.2769509 -0.09426458 0.024363283 0.047569107
107 0.30231085 0.038353242 0.09043215 0.25806883 -0.118765526 -0.27345356 -0.032089405 0.11449985 0.14596461 0.22512771 -0.3814814 0.03583631 -0.007848752 -0.16905762 -0.11753923 -0.3253219 0.4815719 -0.1705558 0.11493369 -0.117606565 0.0756526 -0.08259987 -0.15163296 -0.030224828 0.27435145 0.18394288 0.10536962 -0.2578929 0.024197873 0.2380439 0.11517879 0.08742681
83 0.011013432 0.12589411 0.084188215 0.2089368 -0.27206755 -0.055507418 0.086249664 0.13199982 0.2568383 0.09430954 -0.15296665 -0.008864307 0.0044012913 0.06026426 -0.0031826636 -0.29348063 0.4692176 -0.18993306 0.04490661 -0.31019175 -0.23507564 -0.048098966 -0.11896698 -0.15167873 0.25067866 -0.21211205 0.2055099 0.03570243 0.54701275 0.08938121 -0.08403381 0.25377265
62 0.28291184 -0.058749907 0.10147588 0.1987233 -0.01411239 -0.23846029 -0.007510546 0.24573398 0.037410505 0.3114385 -0.41407675 -0.06497512 0.15657395 0.4976819 0.32555208 -0.13264513 0.17519319 -0.10301472 0.22682852 -0.21885036 0.098984 0.19470051 -0.37208855 0.13355887 0.14863342 0.28407648 -0.075384684 -0.007873683 0.14022613 0.4452258 -0.092166096 0.11902779
57 0.15179236 0.089634426 -0.047011502 0.37725344 -0.0029285415 -0.06746573 -0.14570163 0.08447393 0.29460308 0.29240817 -0.31481788 -0.08294051 0.02428195 0.44069254 0.46390194 -0.10618751 0.24838503 -0.08813342 0.100151055 -0.30283672 0.27013594 0.2626773 -0.3286657 0.23689769 0.23738688 0.24307966 -0.13131103 0.04399681 0.12720658 0.109785974 0.002780421 0.1319439
106 0.08930984 0.2475026 -0.027428504 0.30082104 -0.08292423 0.039412707 0.31974173 -0.06891117 0.27935755 0.15415466 -0.5184831 -0.029984841 0.19952592 -0.067124136 -0.063168004 -0.05064657 0.4858464 -0.29551008 -0.26844406 -0.060657945 -0.05212272 -0.1697141 -0.3491161 -0.23380782 0.06748838 -0.2754285 0.3714563 -0.38352874 0.012856773 -0.35061136 0.098855846 -0.06401392
82 0.03447379 0.22313067 0.057702508 0.13503021 -0.05975975 -0.17077157 0.25169036 0.17719853 0.13307121 0.05713319 -0.24906762 0.13492692 0.025121827 0.19257067 -0.2820899 -0.15774894 0.4854515 -0.07739599 0.13468876 -0.17946193 -0.13897672 -0.090171926 -0.23988988 -0.18131047 0.35995945 -0.24833764 0.21549329 -0.025142904 0.39330077 -0.0044606267 0.02634368 0.09006773
58 0.19939409 0.075234525 0.16153193 0.33119893 -0.05504517 0.017981395 -0.045924935 0.17257209 0.24810062 0.2920831 -0.2258396 -0.016780678 0.135909 0.50056636 0.34889793 -0.039173987 0.25281295 -0.11462431 0.11321129 -0.24108781 0.291477 0.2929075 -0.19831367 0.17819065 0.25822917 0.22842175 -0.2020349 0.06910468 0.2862013 0.3016119 0.0105280075 0.14676252
33 0.36526138 0.10951949 -0.27367824 0.21179025 -0.30976343 -0.18273129 0.37601498 0.1353029 0.22111006 -0.045749478 -0.2715287 -0.050061714 0.059407085 0.13814549 -0.13461259 -0.24297537 0.61404806 -0.117996976 0.16281597 0.06114737 -0.20749646 -0.05538194 -0.19673467 -0.05236752 0.20381477 -0.11625806 0.010559493 -0.046557933 0.22957164 -0.0551844 0.113372974 0.059678584
54 0.18284783 0.22081125 0.1975376 -0.05514076 0.091148995 -0.08371565 -0.12848848 0.10435915 0.023817027 0.349404 -0.10508212 -0.09356027 0.18604907 0.3461866 0.39981183 -0.13922374 0.44466788 -0.22075696 0.20864975 0.09828661 0.09664937 0.13373038 -0.36949903 -0.013151216 0.2657569 0.0033636615 -0.10613683 -0.11896337 -0.08718192 0.09189507 -0.0023700516 0.11749579
112 0.22179192 0.22957231 0.16927682 0.21351002 -0.04509529 -0.14677218 0.2594336 0.09273941 0.032694075 0.1285348 -0.2341366 0.07280414 -0.06349794 0.16533789 -0.30733696 -0.29460686 0.5330074 -0.09293041 0.09966671 -0.030340007 -0.037496835 -0.0112619195 -0.20463122 0.038339455 0.28271767 -0.29009637 0.07111497 0.056588024 0.32872713 -0.1381566 -0.09725114 -0.0012216219
115 0.11455832 -0.015780432 -0.016225513 0.35591257 0.0143982675 -0.054888777 -0.05138807 0.1303863 0.16935289 0.33124822 -0.42443413 -0.08250382 0.014639164 0.47659117 0.39337543 -0.107890144 0.2722884 -0.052242443 0.10008064 -0.2950491 0.2852287 0.22270311 -0.1992553 0.155102 0.12389848 0.1545703 -0.03734341 -0.13832203 0.17114633 0.288009 -0.00023575805 0.2042154
37 0.21484317 0.18145125 0.013598011 0.04830858 -0.03851263 -0.28239745 -0.0036226707 0.13870998 0.37088436 0.055132642 -0.296054 0.086575486 -0.11043381 -0.038812578 -0.19165657 -0.2165121 0.50020975 -0.30876324 -0.021178167 -0.1409472 0.050773785 -0.02107768 -0.2983569 -0.005447992 0.18156949 0.2107 0.13479213 -0.21530123 0.13867366 0.13794342 0.12969646 0.15412457
108 -0.026345057 0.018644134 -0.008271684 0.06494793 -0.29055652 -0.29051286 0.07081933 -0.033910193 0.11159552 0.11693142 -0.36650273 0.04548676 0.15861876 -0.017711641 -0.15669164 -0.35989147 0.41326573 -0.29851273 0.20822239 -0.31908843 -0.18866807 0.04304085 -0.34181246 -0.2452116 0.45308676 -0.17830259 0.18594989 -0.08072973 0.08702798 -0.35310894 0.31632054 0.19818716
44 0.31456345 0.02636172 -0.06778548 0.22835992 -0.14885104 -0.10728253 0.4822996 0.11279569 0.13020377 0.008047072 -0.33855152 -0.18398708 0.1023116 0.22041678 -0.1441327 -0.17576179 0.63607794 -0.069521695 0.19217375 0.11115327 -0.21389338 -0.08712875 -0.01948238 -0.12162564 0.23081966 -0.19030797 0.053827252 -0.0023417347 0.32198206 -0.124912925 0.047151018 0.075221494
19 0.17713726 -0.1336368 -0.03279424 0.20945245 -0.053229235 -0.14481659 -0.1520331 0.082948804 0.20528303 0.4234737 -0.28083795 0.055836212 -0.052106198 0.4697395 0.47061825 -0.17352799 0.28081992 0.008253067 0.042128786 -0.25690284 0.22456545 0.36296085 -0.2602034 0.121335916 0.19098172 0.08796365 -0.16594936 0.020487383 0.31836426 0.38093492 -0.070856184 0.19541374
109 0.1832048 0.23829293 0.14898439 0.024722787 -0.05537538 0.26320893 0.07321663 -0.05714191 0.24466279 -0.0056321854 -0.59153867 -0.09400892 0.22755277 0.004545723 -0.07022854 -0.1194859 0.46942934 -0.10094903 -0.20852281 0.12409004 -0.24189 0.031632815 -0.31616184 -0.3518278 0.23280142 -0.23742978 0.2816449 -0.23635787 0.2785088 -0.5827989 0.020261457 -0.11095606
38 0.079018064 0.1157191 0.13474871 0.31450513 -0.00014926487 -0.141819 -0.091572195 0.13336357 0.29812473 0.2900848 -0.25393152 -0.093360156 0.15805379 0.38059425 0.40132976 -0.19240656 0.29580006 -0.053793196 0.07146212 -0.18765518 0.20393446 0.15992655 -0.27842003 0.19410399 0.14654763 0.20156847 -0.10488732 -0.08711274 0.12017344 0.2146304 0.006753598 0.17021823
42 0.42491475 0.26811635 0.16592628 -0.31960234 -0.08569238 -0.104135215 -0.26057523 0.050483126 0.060334437 0.1974547 -0.2978341 0.013710958 -0.23805082 0.067527525 0.025467528 -0.084951274 0.43644455 -0.30017403 -0.048682436 0.044558633 -0.037308715 0.003533685 -0.24567154 -0.045478884 0.29686767 -0.40912852 0.13508026 -0.20236728 0.28294432 -0.04803754 -0.052933518 0.0040807356
49 0.34097376 0.27808318 0.24745543 0.0056200293 -0.019691484 0.09278717 -0.17553423 -0.100212865 0.34957513 -0.0626773 -0.4473758 -0.008124461 0.08773509 0.145365 -0.11191811 -0.18226151 0.4224472 -0.17708647 -0.32978383 0.30265093 -0.13933256 -0.13582097 -0.32519022 -0.13308924 0.008174225 -0.27440158 0.17895079 -0.22850548 0.37935728 -0.38496724 -0.040443167 0.07336188
28 0.109113775 0.1518076 0.12073091 0.32371023 0.04860674 -0.112687804 -0.14727636 0.1285749 0.25181293 0.35727572 -0.24900739 -0.048099548 0.15924545 0.504718 0.3779905 -0.15194614 0.29496476 -0.07665452 0.14468867 -0.19084024 0.23450097 0.23628424 -0.19761242 0.14810553 0.20105931 0.2961407 -0.18888971 0.060258362 0.18961792 0.20250876 0.042709164 0.051080048
96 0.20451395 0.22225687 0.15660544 -0.001939428 0.08558607 0.01913123 0.040000416 0.038107008 0.33200908 -0.025811628 -0.6617469 0.053263076 0.19329913 0.008466617 -0.14181052 -0.1618286 0.31401905 0.03197639 -0.18784928 0.19161782 -0.15471148 -0.024479784 -0.43467817 -0.4120217 0.15983923 -0.2932845 0.17872837 -0.22968785 0.42276478 -0.54006106 0.027881226 -0.21194187
90 0.18172644 0.075375326 0.23728894 0.1699877 0.13466915 -0.15546027 -0.09541112 0.20639616 0.31278098 0.2224338 -0.25130853 -0.13586403 0.11486678 0.61228096 0.45842445 -0.17038606 0.0829295 -0.010286158 0.3723924 -0.20323502 0.28304923 0.18578732 -0.32935694 0.022023031 0.1691981 0.19670928 -0.10141273 -0.11670541 0.17898908 0.1078817 0.09076957 0.13094163
89 0.16787365 0.019201618 0.16340539 0.34304735 0.048632804 -0.107736416 0.0013718841 0.13339002 0.07789928 0.2643389 -0.3065307 0.10876484 0.21131395 0.5806662 0.3410277 -0.1039709 0.119644135 0.04255073 0.19195694 -0.22789289 0.1974045 0.26549965 -0.42466652 0.21488619 0.21736175 0.23459753 -0.15783414 -0.10896012 0.29975557 0.11736602 0.04225299 0.14112641
110 0.13117333 0.35745054 0.130168 0.08887913 -0.1846903 0.01459251 0.09577229 -0.11988474 0.30329934 -0.13203476 -0.64014274 -0.04834312 0.15543544 0.05323581 0.046494678 -0.19090348 0.4074992 -0.12922986 -0.21060975 0.11685417 -0.14828506 -0.1542154 -0.3109394 -0.34009746 0.17131568 -0.14429489 0.14274266 -0.28327957 0.2546899 -0.5572647 0.059111483 -0.23308055
85 0.3734284 0.097693145 0.14931792 -0.46929213 -0.030889947 -0.15648474 -0.18958744 -0.033862226 -0.03880691 0.17324598 -0.35920525 0.07178604 -0.24516883 0.05132962 0.09617555 -0.1309673 0.5988087 -0.28177363 -0.05949227 0.074961044 0.00788179 0.016889177 -0.13616095 -0.07302519 0.5184638 -0.31146258 0.09323571 -0.24170306 0.23887412 -0.19558989 -0.20735382 -0.24268593
61 0.0754295 -0.0004599487 0.0831266 0.34907272 0.061161425 -0.18053755 -0.070766576 -0.060973193 0.3037909 0.25143206 -0.3080613 0.08929123 0.027181048 0.4409443 0.26198012 -0.24857228 0.2852432 -0.013424195 0.18004571 -0.2130035 0.12799208 0.21601728 -0.42703357 0.12423331 -0.014998844 -0.040051945 -0.19430405 0.03663678 0.24681436 0.35280874 -0.05554886 0.2586149
84 0.074424535 -0.08747845 0.11346803 0.43320858 0.065234534 -0.120279565 0.13621247 0.010685895 0.27910182 0.37465644 -0.29579145 0.009578266 -0.03406215 0.41290215 0.3379527 -0.24838513 0.27905273 -0.013191751 0.24286954 -0.18886758 0.19905347 0.38679475 -0.26372924 0.15438809 0.018295553 0.03326135 -0.095136784 -0.12834857 0.14310272 0.25967243 -0.11850056 0.32442132
72 0.4145823 0.029421126 0.32689297 -0.05722173 0.025159717 0.11837646 0.105993204 -0.14576875 0.20040797 0.040486485 -0.35288066 -0.14832225 0.010630775 -0.0529024 -0.16958483 -0.099676065 0.64165854 -0.32845446 -0.2195764 0.17197673 -0.24923418 0.038208377 -0.15801539 -0.11655716 0.16492657 -0.16250922 0.27220908 -0.2622252 0.3201938 -0.28299022 -0.023813462 0.01942141
22 0.28402078 0.21799813 0.23905669 -0.011138583 0.17992797 -0.014833473 -0.035334084 0.01311682 0.13697802 0.06855254 -0.25437564 -0.014608646 0.27423856 0.38103238 0.28325534 -0.0350092 0.35781887 -0.16738898 0.2540926 -0.32127297 0.10521844 0.13425757 -0.2909753 0.24808125 0.3153093 0.011676623 -0.14802714 -0.10011218 0.020251988 0.2761744 0.05356321 0.3952857
56 0.33753183 0.20453432 0.3058821 -0.04465061 0.14873229 -0.14205675 0.0038140428 0.27605733 -0.0105020255 0.40144864 -0.19975503 -0.3378779 0.107958965 0.23527876 0.40720344 -0.117541805 0.3410697 -0.14615832 0.17798337 0.1959273 0.25695336 0.21763635 -0.36283678 0.09053564 0.32710963 0.011737051 0.27863353 0.116203085 -0.15078226 0.1316089 -0.12947968 -0.0538026
4 0.12282413 -0.058235314 0.08455301 0.21254666 -0.22320393 -0.07406149 0.04146815 -0.0771975 0.005339678 0.4255489 -0.04843472 0.123098835 0.13322577 0.31311846 0.25576797 -0.34961587 0.46144038 -0.1728795 0.25245366 -0.13577579 -0.095121235 0.3615421 -0.25416824 0.06916196 0.16293766 -0.1251258 -0.016284285 -0.09952658 0.0665137 0.1343535 -0.19747475 0.35782957
79 0.15188573 0.2933567 0.123568244 0.41729307 -0.17695224 0.04197298 0.18123822 -0.0677126 0.19658262 0.07375632 -0.54368436 -0.030073283 0.2584601 -0.06275233 -0.10609519 -0.17592534 0.43941575 -0.08415896 -0.33297446 0.20601308 -0.18040387 -0.0108153755 -0.31001502 -0.4824986 0.16793883 -0.23633313 0.44387206 -0.20438592 0.26497194 -0.5028298 0.16072401 -0.2715119
34 0.07854429 -0.014196851 0.03994839 0.32348147 0.076391436 -0.21812245 0.028991006 0.032227576 0.16428201 0.2493515 -0.21735604 0.18131195 0.033530716 0.3523647 0.38090295 -0.12997985 0.35842156 -0.008837028 0.040311832 -0.36988267 0.2596661 0.36291 -0.29814115 0.21773504 0.13803045 0.16556601 0.025970196 -0.2510067 0.23722549 0.2494479 -0.14551479 0.39666083
65 0.005477121 -0.09177484 0.10770336 0.4217138 -0.060028225 -0.08927226 0.134949 -0.044674903 0.17067687 0.30174506 -0.17321776 0.13569345 0.015883401 0.43008804 0.3358177 -0.35020468 0.39402375 -0.11536761 0.13338357 -0.04928215 0.0958553 0.2826258 -0.3159733 0.17836793 -0.0137530845 0.26058137 0.014739895 -0.16318318 0.23902051 0.30052826 0.034354128 0.32843783
1 0.025264185 0.25837722 0.12851381 0.17058541 0.23913847 -0.31186464 0.16836226 -0.035277348 -0.012598143 0.34619167 -0.084789686 0.027026849 0.15628527 0.29516888 0.34535494 -0.2610423 0.46593568 -0.2932067 0.1715772 -0.017752143 0.06061521 0.38916972 -0.22135864 0.13001803 0.22752102 -0.09278726 -0.12707274 -0.13204792 -0.06109628 0.05025081 -0.13737655 0.32975334
102 0.19203752 0.33291045 0.2189638 -0.07002929 -0.13562551 0.19644062 0.09921185 -0.27175313 0.2983413 -0.10191571 -0.47650358 -0.039552465 0.058310762 0.1353883 -0.029379811 -0.17790319 0.5150384 -0.087472975 -0.2525327 0.118906535 -0.24634396 -0.05566233 -0.18143356 -0.20564559 0.19696988 -0.020233661 0.243402 -0.413145 0.39974073 -0.39421278 -0.0942031 -0.07929269
40 0.28868774 0.18462643 0.31453872 0.1369672 0.058356397 -0.029101238 0.099638455 0.24916796 0.33553594 0.20536326 -0.23150985 -0.16836758 0.1115871 0.5992106 0.33103758 -0.10115731 0.12719363 0.029895518 0.4306838 -0.19426884 0.29665312 0.021105113 -0.35844788 0.022011273 0.21852663 0.3321696 -0.0634192 -0.07180101 0.061361074 0.18810472 -0.015452589 -0.0036581042
6 0.31945154 0.12150028 0.24655299 0.30695817 -0.22393663 0.15706943 -0.016958999 0.0926231 0.10193547 0.40021184 -0.1468208 0.0446037 0.20867239 0.45484155 0.46680364 -0.15885557 0.18831372 -0.07021272 0.19391356 -0.20508239 0.2488199 0.21829943 -0.301586 0.17723489 0.13984145 -0.001189452 -0.04824019 -0.11763494 0.04211459 0.38661227 -0.043871082 0.3168175
39 0.3854026 0.07270514 0.112319455 0.15815379 -0.05039082 -0.04311388 0.035394996 0.16027124 0.24861689 0.17860974 -0.27206612 -0.25720567 0.14359298 0.47478026 0.3765209 -0.13479896 0.16334318 -0.08313167 0.49866286 -0.30793372 0.22837466 -0.015208323 -0.30449954 -0.0036574847 0.20488223 0.3016749 -0.045803387 0.0409659 0.19184028 0.21043092 0.05783144 0.06582271
93 0.2577912 0.26361156 0.17695403 0.05295678 -0.020312022 0.018507734 0.0059035756 0.15825942 0.28369975 0.20057914 -0.22644477 -0.18769398 0.4346577 0.3673057 0.4145491 -0.08753485 0.32281327 -0.035380345 0.34348598 -0.15844862 0.09176512 0.27160758 -0.16884048 0.06846377 0.21350455 0.06803731 -0.044750847 0.030471604 0.016649013 0.36034524 0.081517845 0.38897437
91 0.22878875 0.26254475 0.1286219 0.1916142 0.02023464 -0.10375314 0.004308431 0.13731813 0.19632977 0.24479166 -0.25667048 -0.15989442 0.008544549 0.6776339 0.36659834 -0.24230292 0.05892401 -0.053075418 0.28952667 -0.1771062 0.3803786 0.110352114 -0.38337478 0.056886576 0.25740764 0.1970452 -0.06102862 -0.0023361354 0.052841898 0.13245673 0.15552998 0.019341666
9 0.39288214 0.008324023 0.10596213 0.19896878 0.043844797 -0.055804368 0.21713978 0.25307742 0.16802558 0.3718526 -0.24526195 -0.16290458 0.27179393 0.62620777 0.26276612 -0.0013142343 0.14487576 -0.21239959 0.15895535 -0.13773908 0.2365106 0.077700906 -0.23999602 -0.049598705 0.38890034 0.089126356 -0.1600315 0.1954568 -0.0010184096 0.42227405 0.045747425 -0.024832798
87 0.24111226 0.2796417 0.21003045 0.36829376 -0.14277658 0.0013935021 0.19212006 -0.07093531 0.271073 0.032113273 -0.3964916 0.09679968 0.2911358 -0.03207357 -0.15435708 -0.12691747 0.3774736 -0.10846433 -0.25987923 0.14996722 -0.065131925 -0.12269774 -0.38221142 -0.4763769 0.15855964 -0.288449 0.43672594 -0.37178656 0.22168039 -0.5308343 0.2130132 -0.24007237
92 0.3359233 0.13955145 0.34363765 0.06554638 -0.08696024 -0.21590051 0.02958183 0.28099737 0.23787217 0.08457307 -0.3142503 -0.22723386 0.11242467 0.51517266 0.33997488 -0.18258654 0.1581192 -0.1990927 0.48023412 -0.13314947 0.4604915 -0.023010189 -0.33728528 -0.036665443 0.12883832 0.3121407 -0.04983538 0.027407892 -0.015602054 0.06634487 0.071668245 0.13564955
66 0.055734843 0.089829035 0.17122793 0.13807495 0.1752078 -0.18512891 0.39569762 0.13167511 0.23139372 0.29695976 -0.14391184 0.0980931 0.023652155 0.3483409 0.3866983 -0.14205717 0.255075 -0.1249525 0.44289038 -0.16437013 0.25992027 0.38824362 -0.29621097 0.0445447 0.22658212 0.19653203 -0.14145957 -0.29496682 0.2179068 0.19387664 0.10853942 0.18398005
113 0.32053646 0.16521971 0.08942571 -0.3123308 -0.07408122 0.025696864 -0.023496728 -0.071592875 0.27082944 -0.03732642 -0.482266 0.022174476 -0.062190916 0.12968123 0.043828055 -0.32164857 0.22006011 -0.1542455 -0.1409603 0.016741853 -0.22565497 -0.14091592 -0.18539532 -0.2797051 0.48283273 -0.41026226 0.15097691 -0.22211514 0.5414692 -0.49919236 -0.24835272 0.008757449
5 0.10473587 -0.077072755 0.22104943 0.31938195 -0.25735566 -0.06360957 0.1555963 -0.054472834 0.110877514 0.49349886 -0.09868069 0.29013515 0.2959953 0.39189914 0.5455425 -0.3570996 0.32187107 0.03598327 0.19526592 0.07604551 0.18216714 0.22997978 -0.40669423 0.10482094 -0.04339236 -0.17595008 -0.012325514 -0.08274641 0.053600896 0.2390283 -0.1763798 0.35901302
123 0.3957641 0.23790547 0.14788736 0.09236744 -0.114576474 0.31269333 -0.057849403 -0.12341817 0.1590013 0.060395434 -0.35229403 -0.04467891 0.038284924 0.062605016 0.1600426 -0.38776395 0.33442438 -0.17542407 -0.29211792 0.060592175 -0.33762023 -0.14538023 -0.06011607 -0.1384423 0.39177445 -0.45779046 0.16263416 0.062466756 0.6096776 -0.28706256 -0.102695815 -0.08064381
21 0.423814 -0.018443525 0.07756479 0.22449355 -0.11601665 -0.19102642 0.059813287 0.19497481 0.18903562 0.26124334 -0.12188371 0.03303515 0.3245875 0.63025486 0.29618603 -0.06700378 0.26988313 -0.21139356 0.092867896 0.044681977 0.25993153 -0.08107371 -0.48162428 -0.07078401 0.19719078 0.15407288 -0.08385382 0.32060346 -0.05311308 0.31283328 -0.048185892 0.07401608
55 0.20053926 0.26012337 0.21663801 0.06647735 0.13829526 -0.019337695 0.06889111 0.23229448 -0.03579788 0.28366277 0.06498102 -0.16167459 0.3179475 0.5759029 0.4620119 -0.33950165 0.3947119 -0.17542534 0.2284951 0.026399525 0.2201231 0.33601367 -0.105402425 0.30077496 0.38604888 0.191031 -0.16002099 -0.14772615 0.04674587 0.34879747 0.14134528 0.33959955
35 0.35145885 0.16190036 0.14631034 -0.21391982 -0.079864904 0.03460358 0.020903228 -0.3056282 0.3768657 0.075718924 -0.08590148 0.048162363 -0.20293342 0.23227124 0.16911152 0.0059827105 0.55708575 -0.4762155 -0.1881807 -0.008037601 0.044948775 -0.3185075 -0.13228747 -0.2623264 0.34371194 -0.15364131 0.23074506 -0.63066584 0.17474157 -0.2671314 -0.03112943 -0.24367644
17 0.15046075 0.4968106 0.2927151 0.110513344 -0.006513058 -0.11488279 0.19108796 -0.21050721 -0.18637519 0.080247365 -0.6084542 -0.0012053224 -0.16204174 0.09275755 -0.001209781 -0.3958487 0.021622363 -0.30510154 -0.018449334 -0.19130771 0.22541064 -0.17653956 -0.3135891 0.1930451 0.29966804 -0.59375733 0.08714092 -0.16103643 0.2649981 -0.037631363 -0.3206944 0.26460043
2 0.2913369 0.15042886 0.024167826 0.17384765 0.16109331 -0.23921955 0.18530853 0.07462639 0.1669931 0.16900079 -0.032416344 -0.028262468 0.19356903 0.5022181 0.5386748 -0.29318467 0.36014953 -0.15952606 0.15986563 -0.05891952 0.2255785 0.40971652 -0.1919743 0.2242908 0.10978159 0.12608935 0.006423312 -0.062013716 0.07652882 0.16746683 -0.16864917 0.42158884
10 0.22102468 -0.124356434 0.16993709 0.12219888 0.019328013 -0.2290506 0.39880773 0.09222496 0.048972573 0.32468304 -0.18664758 -0.055160627 0.06301532 0.38086724 0.4148765 -0.1510016 0.37863594 -0.22363316 0.20195562 -0.14068682 0.18228644 0.2249318 -0.4264646 0.1033404 0.070180096 -0.047683712 -0.13323455 0.09457175 0.08198735 0.17366093 -0.1727217 0.35290095
15 0.32790965 0.1183702 0.2634895 -0.14620914 -0.086888514 -0.2574458 -0.26466805 0.21597831 0.10367612 0.3530247 -0.18115823 -0.37672177 -0.40164194 0.21067883 -0.058079552 -0.3344522 0.568561 -0.3191714 0.15136823 0.03314254 0.007208778 -0.117704436 -0.107082576 -0.24474603 0.1599686 -0.004123325 0.2330852 -0.1282185 -0.012784714 0.15242979 -0.4477527 -0.13642117
70 0.3662517 0.380158 -0.022467723 -0.11312406 0.09747202 0.040736888 -0.3102557 -0.14982733 0.19986117 0.07245667 -0.5507925 -0.19688897 -0.21271446 -0.010197223 -0.1465782 -0.13055554 0.84428895 -0.21146157 0.0018769022 0.03438009 -0.13141476 -0.25813234 -0.086354464 -0.024521828 0.09499375 -0.50341743 -0.28905377 -0.040604323 0.20489204 -0.11004226 -0.19730583 0.16009553
101 0.14859891 0.35721743 0.1994453 -0.20959675 -0.24928339 -0.22936536 -0.3860716 0.1584107 0.15896632 0.26481086 -0.20169535 -0.07678262 -0.0903868 0.08003249 0.060009364 -0.22948126 0.6330884 -0.23271161 0.11376763 0.0063820127 0.070367604 0.15555748 -0.0041604927 -0.2957595 0.42161757 -0.20394872 0.13536124 0.16989914 0.014904439 0.120973274 -0.20882455 -0.09844283
52 0.48669314 0.03704189 -0.18219022 0.2648668 0.0028041082 -0.032640368 0.3263512 0.0291625 0.1042734 -0.0038128546 -0.58468 -0.2923108 0.2432286 0.149553 -0.11537004 -0.38401958 0.5500835 0.1479272 0.023470435 0.34428057 -0.2690424 -0.15606986 0.124288745 -0.13244654 0.22957464 -0.13987648 0.12295664 -0.050344154 0.62280095 -0.40728846 0.03044234 -0.2213561
81 0.014225673 0.3576518 0.18547556 0.16997041 -0.023283448 0.30526447 -0.12998188 -0.30583358 0.34799978 0.21623395 -0.106685884 0.16156466 0.03154119 0.15238504 -0.24436823 -0.1137057 0.783626 -0.3565435 -0.26530305 0.1401855 0.084971085 -0.109173745 0.1101165 -0.40695468 0.41541064 0.05341228 0.038371097 -0.09494172 0.55669653 -0.46118575 0.22499844 -0.039451253
12 0.38059154 0.19126573 0.0057409373 -0.24515562 0.037980326 0.12780589 -0.014551224 -0.4194563 0.22243105 -0.11799509 -0.35975188 -0.09565733 -0.32156697 0.19393615 0.17537344 -0.11274038 0.657905 -0.5510958 -0.24272302 0.04396147 0.10255397 -0.32610968 -0.16471326 0.0027946346 0.22732642 -0.27549836 0.13215525 -0.46345076 0.31101537 -0.35637245 -0.06310012 -0.03820813
13 0.21565546 0.20778836 0.43563673 -0.026022976 -0.022755917 -0.028669337 -0.19079766 0.19115643 -0.004873087 0.47031853 -0.3277744 -0.49637723 -0.19022915 0.08132389 -0.19139275 -0.18532252 0.52455634 -0.5049298 0.0924189 -0.06548144 0.04681513 -0.20674935 -0.117465004 -0.25298497 -0.18382281 -0.32366297 0.2850304 -0.10502105 0.23165098 0.027353013 -0.27777138 0.11542678
88 0.28612757 0.095578276 0.18664075 0.17776413 -0.32993618 0.20850155 0.24694094 -0.20408571 0.08582469 0.059640262 -0.21735911 -0.06918683 0.21337405 0.16192652 0.13098375 -0.45974734 0.29456067 -0.24744356 -0.19866586 0.047767915 -0.32279763 -0.12975834 0.17091614 -0.3327002 0.49505812 -0.33614781 0.21973139 -0.107723504 0.7861424 -0.44104904 -0.14805247 -0.109892674
14 -0.03514059 0.1436973 0.22048132 0.02801817 -0.14526579 -0.41920146 -0.33570102 -0.024249896 -0.056676693 0.4177255 -0.28579602 -0.3306682 -0.32392806 0.04104317 0.24253136 -0.41541225 0.67312247 -0.3719712 -0.042775076 0.025620777 0.09994071 -0.04620937 -0.1456453 -0.11071052 0.33520517 -0.30116233 0.22231126 -0.07637411 -0.27766278 0.16764885 -0.4969843 -0.3721974
23 0.27899602 0.14255776 -0.03274736 -0.47639108 -0.06915266 0.12100307 -0.040720515 -0.30009568 0.31833968 -0.002265606 -0.3061239 -0.1293086 -0.096053995 0.36163312 0.23205768 -0.27186874 0.38394973 -0.44274512 -0.26660442 0.17047839 0.040994823 -0.33704823 -0.24625671 -0.1931182 0.43182436 -0.24170451 0.01670511 -0.49790224 0.36886138 -0.5400043 -0.1616641 -0.1812504
122 0.30612406 0.57354367 0.26502344 0.34897345 0.16960518 -0.20982227 0.059535988 -0.041986108 0.11007884 -0.00465304 -0.19498135 0.30495983 0.23708579 0.06015677 -0.41202876 -0.5195652 0.4035634 0.18809032 -0.15563066 0.089810416 0.097738974 -0.19321947 0.05991194 -0.1599746 0.43239963 -0.49017724 0.17244308 -0.037304934 0.7338605 -0.3838882 -0.02412227 -0.12583487
11 -0.020778647 0.18721876 0.5693965 0.071814805 -0.053910535 -0.23020627 -0.18760964 -0.016431842 -0.10872835 0.30975536 -0.29000768 -0.060945734 -0.42643437 0.1738445 0.028262442 -0.28820336 0.6131407 -0.39305988 0.167635 0.07878777 0.27886385 -0.09128786 -0.27528885 -0.004339466 0.18018128 -0.07376313 0.041834414 -0.01351756 -0.02572628 0.12756355 -0.3080212 -0.0034105757
69 0.12971707 0.2907601 -0.118172534 -0.15386568 0.021332532 0.012448131 -0.080114126 -0.42418835 0.24601136 0.048238494 -0.533183 -0.374402 -0.46011096 0.24869569 0.077245206 -0.35127288 0.586023 -0.6697318 -0.23099992 0.046468273 -0.02329035 -0.31507754 -0.00898933 -0.009546094 0.20756975 -0.3485195 -0.30405512 -0.4619237 0.18366012 -0.2212672 -0.39268148 -0.103907175
95 0.08868383 -0.16370545 0.06542882 0.3379793 -0.26067343 -0.34066486 -0.18683293 -0.07845505 0.015081792 0.21402594 -0.5098214 -0.00029794656 0.32031766 -0.028442005 -0.09463111 -0.6924708 0.38616738 -0.018371219 -0.23490846 0.07511714 0.041644316 -0.3444318 -0.43817866 -0.49356052 0.4205699 -0.24107255 0.40538687 -0.12062293 0.029075539 -0.6932353 0.46521017 -0.117195405
120 0.1654127 -0.086728506 -0.03513105 0.2673925 -0.2366195 -0.05984599 -0.009272471 -0.2423339 0.0055770036 0.38533217 -0.60690206 0.19451697 0.38762307 -0.15083812 -0.042581297 -0.47627404 0.25225437 0.060394894 -0.21953835 -0.03737397 0.109176986 -0.210692 -0.17077716 -0.38915417 0.75549304 -0.34680414 0.4063151 -0.27923056 0.22087611 -0.8399392 0.24695383 0.004810503
26 0.45844954 0.13734044 -0.22845922 0.47217038 -0.08648328 -0.06617053 0.31331623 -0.15682717 0.54938334 0.09811969 -0.4443427 -0.30217054 0.15553938 -0.013212238 -0.23651615 -0.5627213 0.19310974 0.06301647 -0.21176729 0.37468898 -0.013253262 -0.4546927 -0.08761713 -0.061273575 0.628616 -0.13483818 0.28515813 0.03470662 0.37996054 -0.29272008 0.40598315 -0.15071204
27 0.048750423 0.18444265 0.08412652 0.31129846 0.10428278 0.15209317 -0.14068867 -0.4305713 0.7659053 0.44334388 -0.08806362 0.15864883 0.069817856 -0.085615456 -0.19308726 -0.16600169 0.5941396 -0.22669365 -0.47142982 0.0356564 0.17427216 -0.24492127 -0.16766362 -0.35337752 0.65588844 -0.15299615 0.13104086 0.032440554 0.26983 -0.514322 0.6953104 -0.11705779
43 0.21000692 -0.18139179 0.19769421 0.21433173 -0.18907657 -0.084938236 -0.019312624 -0.14622861 0.07593766 0.25379798 -0.549542 0.089487284 0.54582834 -0.13864212 -0.030341629 -0.51885784 0.2379222 -0.038549107 -0.32096103 -0.046122316 0.07372875 -0.22146288 -0.35004598 -0.50433123 0.7545465 -0.3023966 0.6986281 0.119005986 0.078659005 -0.7980103 0.53324187 0.024091307
